440 128
61422230 -0.018758 -0.423076 0.306702 -0.421911 0.077453 -0.474508 -0.276651 -0.248903 -0.094760 0.024361 -0.001978 -0.220519 -0.125295 0.006486 0.201624 0.200606 -0.194794 -0.019993 -0.318615 0.187500 -0.285184 0.056781 0.151172 -0.229555 0.336653 -0.142704 -0.416103 0.012830 -0.006281 0.268530 -0.289930 0.140142 0.215709 0.567331 0.062242 0.536741 0.222532 -0.077043 0.523993 -0.447048 -0.060283 -0.194270 -0.181905 0.496181 -0.014749 -0.416403 -0.289812 -0.073970 -0.124591 -0.266707 0.297014 -0.056654 -0.249481 0.026446 -0.041838 -0.233552 -0.285165 0.187070 -0.408426 -0.161001 0.269661 0.207015 -0.496660 -0.393992 -0.250453 -0.427455 0.066659 0.639920 -0.620827 0.112858 0.027678 0.552222 0.117347 0.170132 0.279165 0.088658 -0.295077 -0.133137 -0.047168 -0.163598 0.191780 0.488463 0.327877 -0.309625 -0.348632 -0.303049 0.034068 -0.027832 -0.123670 -0.249331 -0.289737 -0.299477 0.038322 -0.175899 0.420630 0.229500 0.372953 -0.121400 0.145879 -0.051930 0.232247 0.011333 0.116967 0.235695 -0.606797 0.202833 -0.142770 0.166987 -0.259058 -0.270011 0.072906 -0.477672 -0.228994 0.289593 0.229887 0.116372 -0.296202 -0.249208 -0.494589 0.288146 0.111498 0.273409 0.272116 0.528475 -0.342261 0.276210 0.272106 -0.443610
61350471 -0.418805 0.644986 0.127427 -0.143327 -0.011726 0.142293 -0.028998 -0.334487 0.047326 0.369281 0.206779 -0.082076 -0.017691 0.283420 0.029349 -0.090637 -0.051631 -0.747080 -0.595282 0.063196 0.025454 0.368987 -0.097080 0.249452 0.108362 0.129974 -0.238044 -0.143145 -0.553124 -0.327813 -0.055904 0.164517 -0.423204 -0.007278 0.073615 0.545215 -0.192046 0.211967 0.195860 0.246951 0.247282 -0.002969 0.124281 0.454398 -0.171565 0.170485 0.020866 0.372698 0.192455 0.103629 0.146364 -0.442441 -0.603925 0.253345 -0.115731 -0.128982 -0.094790 -0.002342 -0.475168 -0.234402 0.228905 0.172026 -0.341511 -0.699747 0.056076 -0.378277 -0.265034 -0.008891 -0.548072 0.499394 -0.185511 -0.087819 0.482694 -0.449433 -0.229020 -0.548901 -0.463625 -0.177733 0.111496 0.174347 -0.331804 0.691934 -0.123522 0.098829 0.369289 0.232522 -0.153758 0.023387 -0.002410 -0.387689 -0.188647 -0.641489 -0.153499 0.532946 0.125184 -0.251718 0.153370 -0.268820 -0.303527 -0.076183 0.553951 -0.302996 0.054873 -0.309845 0.079326 0.576547 0.159503 -0.018916 -0.453199 -0.289977 -0.062158 0.327377 0.001480 -0.222081 0.571380 0.158420 -0.192983 0.305647 -0.388842 0.050488 0.236864 0.156816 -0.020667 -0.078526 -0.116742 0.210513 0.433545 0.105778
61376981 -0.212612 0.075680 0.338358 -0.354912 0.132162 -0.556705 -0.075225 -0.291969 -0.024265 0.023810 -0.146504 -0.298840 -0.473575 0.097696 0.242918 0.045955 -0.149680 -0.144278 -0.222831 0.040507 -0.346049 -0.035281 0.291576 -0.366956 0.387694 -0.449796 -0.419127 0.031643 -0.048434 0.091958 -0.192802 -0.032201 0.130133 0.216559 0.133782 0.429915 0.358697 -0.184629 0.563780 -0.367871 -0.332039 -0.132413 -0.327872 0.521351 -0.093635 -0.196445 -0.312452 -0.005885 -0.115920 -0.169581 0.283775 0.037890 -0.395477 -0.019009 -0.230422 -0.122928 -0.192013 0.460198 -0.411110 -0.072973 0.296434 0.144295 -0.496780 -0.201471 -0.173886 -0.238269 0.069254 0.387799 -0.492014 0.241157 -0.293071 0.692690 0.168526 0.113257 0.120548 -0.050544 -0.470073 0.091166 -0.072175 -0.233521 0.212064 0.596219 0.170103 -0.404108 -0.351589 -0.412428 0.115142 -0.309760 -0.322103 -0.153464 -0.311269 -0.354222 0.296510 0.077302 0.363331 0.014735 0.060917 -0.010515 0.236832 -0.161492 0.350054 0.032756 -0.024416 0.340469 -0.533855 0.233510 0.022496 0.266565 -0.125244 -0.113612 0.211478 -0.287684 -0.330387 0.134408 0.172030 -0.000636 -0.306840 0.035774 -0.332826 -0.088789 0.358799 0.450099 0.371162 0.553949 -0.387710 0.106407 0.226171 -0.497303
61341725 -0.592717 0.193102 0.383274 0.414235 -0.177808 -0.198956 -0.453786 -0.025244 -0.041577 -0.329571 -0.083188 -0.168378 0.079052 0.553332 -0.380398 0.183334 0.156974 -0.475379 -0.545428 -0.156833 -0.010591 0.580885 0.039119 -0.191765 -0.058388 -0.456990 -0.107111 0.216998 0.021052 0.191536 -0.694453 -0.339442 0.139072 0.040436 -0.010187 -0.060575 0.735265 0.086878 0.212442 -0.001730 -0.303004 -0.173430 0.155431 0.673291 -0.300623 -0.006932 0.197225 -0.442926 0.449614 -0.347905 -0.059567 -0.135030 -0.449430 -0.092866 0.276740 0.150424 -0.152250 -0.100538 -0.389307 0.156932 0.660041 0.349495 -0.130314 -0.084561 -0.121217 -0.142057 0.114119 0.292178 -0.524968 0.304636 0.128948 0.523883 0.474978 -0.426317 0.026770 -0.462739 -0.036512 0.134508 0.022857 0.173075 0.220550 0.521271 -0.209090 -0.328990 0.581250 -0.395236 -0.464465 -0.172292 0.028813 -0.560624 -0.796992 -0.202634 0.344431 0.520391 0.266479 0.228995 0.131620 -0.391773 0.086422 0.071247 -0.210321 0.342750 0.774824 0.168269 -0.005773 0.579062 -0.060453 -0.335254 -0.345203 -0.018317 0.192568 -0.828997 -0.001478 0.040676 0.261773 0.638790 0.022035 -0.422984 -0.012291 0.178344 -0.092976 0.131658 0.087569 0.372847 -0.536480 0.014757 0.468920 -0.198967
661035147 -0.482161 0.109454 0.335504 -0.010653 -0.205103 -0.639014 -0.167288 0.115987 -0.268845 -0.099429 0.266803 0.063493 0.336982 0.276471 -0.349964 0.148495 -0.293996 -0.256505 -0.288325 0.269965 0.120173 0.931065 -0.224208 -0.211466 0.142203 0.247598 0.095119 0.141407 -0.051645 -0.189270 -0.396913 0.095257 -0.414728 -0.430862 -0.071931 -0.070396 0.208949 0.107689 -0.253312 0.067810 0.127844 -0.108518 0.015278 0.003067 -0.180738 0.038965 0.174586 -0.198244 -0.293569 -0.538555 -0.130102 0.375679 0.331341 -0.084419 -0.211497 -0.420858 0.307399 0.451740 -0.315658 -0.160287 0.600817 0.207636 -0.481484 -0.446444 -0.155801 -0.206519 -0.160661 0.325321 -0.889627 -0.010702 -0.286931 -0.200359 0.386418 -0.081423 -0.018885 -0.287189 -0.269976 0.087221 -0.422644 0.036286 -0.008095 0.470610 -0.249294 -0.273533 0.173629 0.644045 -0.275380 -0.236929 -0.645158 -0.481731 0.293791 -0.290578 0.103586 0.457259 -0.389285 -0.443534 0.367914 0.257512 0.429915 -0.048364 0.669892 -0.093743 0.184804 0.824007 0.174923 -0.025804 -0.223398 0.624717 -0.056392 -0.197345 0.265584 -0.157810 -0.157104 -0.072126 -0.233406 0.131496 -0.533686 -0.217147 -0.498280 0.052178 -0.251416 0.308117 -0.046725 0.260995 -0.191781 -0.008725 0.264776 -0.258517
61356671 -0.318353 -0.153740 0.275955 0.395234 -0.102558 -0.565653 0.031525 -0.056595 -0.287439 -0.306908 -0.164072 -0.108039 -0.354843 0.351641 -0.155931 0.054295 -0.261755 -0.577047 -0.112837 -0.105189 -0.104686 0.239085 0.213539 0.003803 0.511959 -0.539656 -0.004707 0.077410 -0.158666 0.000057 -0.319784 0.166519 -0.078774 -0.089064 -0.234990 0.138303 0.174211 -0.375552 -0.129203 -0.087063 -0.186293 -0.332959 -0.389457 0.009361 -0.310089 -0.067408 -0.185952 -0.066982 0.001494 -0.175979 -0.021316 -0.068901 0.099371 -0.051365 -0.562677 0.024781 0.073362 0.427668 -0.435066 -0.343349 0.299774 0.193136 -0.291975 -0.280365 0.018255 -0.395097 -0.050046 -0.098848 -0.400960 0.322819 -0.534282 0.179994 0.034446 0.065566 -0.340420 -0.176861 -0.429199 0.232646 -0.142013 -0.037297 -0.225324 0.459209 -0.118007 -0.215559 0.080807 0.028117 -0.062969 -0.576955 -0.286143 -0.164106 0.021168 -0.507155 0.120878 0.701018 0.110272 -0.716871 -0.060767 0.194973 0.532440 -0.283137 0.526374 -0.173109 0.075852 0.696764 -0.322400 0.174158 0.280679 0.669650 0.037249 -0.131709 0.032884 0.031021 -0.142008 -0.119725 -0.166250 0.153561 -0.768608 -0.042344 -0.177703 -0.118953 -0.112690 0.224333 0.342407 0.403083 -0.108303 0.254332 0.275880 -0.347675
61430666 -0.446148 0.114232 0.384807 -0.165379 -0.227661 -0.471141 -0.280185 -0.019741 -0.284468 -0.065855 0.445988 0.040684 0.475118 0.015985 -0.317012 0.245067 -0.271480 -0.259929 -0.432354 0.223638 -0.007282 0.987926 -0.232951 -0.374279 0.089761 0.213314 -0.062750 0.038647 0.104311 -0.106529 -0.508740 0.061124 -0.481404 -0.378297 0.024736 -0.024843 0.213752 0.199431 -0.186391 0.269436 0.059326 0.129315 0.074785 -0.054719 -0.123351 0.178186 0.295161 -0.191750 -0.233308 -0.686087 -0.150410 0.303210 0.228897 -0.077616 -0.162535 -0.429960 0.336418 0.499509 -0.436199 -0.236787 0.468253 0.085444 -0.317729 -0.387718 -0.135693 -0.229942 -0.227923 0.504626 -0.864088 0.009282 -0.109836 -0.249560 0.528627 0.019191 0.044935 -0.283541 -0.238227 0.080913 -0.337703 -0.045791 0.016548 0.443271 -0.251552 -0.306668 0.153741 0.663519 -0.325425 -0.080032 -0.603649 -0.470717 0.300365 -0.340116 0.154954 0.636400 -0.429946 -0.230192 0.331792 0.317398 0.383735 0.000116 0.852423 -0.005903 0.132331 0.689499 0.056554 0.127721 -0.214787 0.449635 -0.015568 -0.116070 0.324639 -0.239396 -0.107994 0.068926 -0.272286 0.194751 -0.486185 -0.201818 -0.588089 -0.083405 -0.445454 0.131509 -0.204889 0.177652 -0.164239 0.010167 0.128589 -0.147768
61355571 -0.438701 0.234112 0.556666 -0.268558 -0.261863 -0.235381 -0.285304 -0.246719 -0.351418 0.064775 0.366128 0.020879 0.520615 -0.252063 -0.291165 0.212656 -0.237115 -0.105932 -0.394960 -0.021563 0.010770 0.921691 -0.160009 -0.457907 0.306219 0.062328 -0.359906 -0.147546 0.240701 -0.077640 -0.585487 0.014151 -0.504955 -0.289769 0.003317 -0.057795 0.060723 0.379846 -0.048345 0.364396 0.014573 0.217066 0.243137 0.081431 -0.018792 0.197357 0.250090 -0.175101 -0.260834 -0.697181 -0.193571 0.072109 0.127938 0.005404 -0.266926 -0.332726 0.233041 0.306837 -0.388884 -0.300889 0.389389 -0.089100 -0.196625 -0.301502 -0.085140 -0.433173 -0.041518 0.375145 -0.767715 -0.099689 0.042483 -0.319036 0.397536 0.061798 -0.025965 -0.286814 -0.220978 0.124168 -0.424999 -0.245339 0.038583 0.446974 -0.088248 -0.327978 -0.027517 0.506426 -0.234883 0.028563 -0.492517 -0.425642 0.275229 -0.276005 0.236221 0.743601 -0.180015 -0.239443 0.168479 0.392847 0.441382 -0.030772 0.777556 0.178090 0.172164 0.479651 -0.111626 0.332187 -0.130053 0.309181 0.031247 -0.075356 0.218057 -0.159745 -0.043635 0.245456 -0.288379 0.333870 -0.442502 -0.213170 -0.592826 0.044866 -0.373495 0.002245 -0.278207 0.158730 -0.058910 0.074915 0.036886 -0.181239
61410246 -0.431721 0.296091 0.517788 -0.216601 -0.230635 -0.140502 -0.221523 -0.397956 -0.471827 0.068163 0.363314 0.101069 0.400583 -0.278887 -0.307079 0.255652 -0.320534 -0.068800 -0.434382 0.027359 0.123053 0.801620 -0.077137 -0.426335 0.266500 -0.027411 -0.464878 -0.097720 0.313733 0.092496 -0.624356 -0.092137 -0.421179 -0.260484 0.017755 -0.055582 0.131351 0.348421 -0.001847 0.309194 -0.054262 0.462554 0.299811 0.077322 0.078407 0.070206 0.175334 -0.168546 -0.204243 -0.613609 -0.141368 -0.015556 0.169722 -0.032572 -0.298375 -0.400268 0.275408 0.212789 -0.329207 -0.449374 0.382692 -0.241804 -0.193562 -0.382530 -0.099570 -0.368005 0.167579 0.467735 -0.730703 -0.204474 0.020340 -0.348253 0.362305 0.086292 -0.053880 -0.238888 -0.243754 0.064928 -0.441535 -0.420293 0.123527 0.364334 -0.062154 -0.248165 0.034185 0.414746 -0.251469 0.076372 -0.365657 -0.554699 0.214099 -0.168526 0.244258 0.840178 -0.032607 -0.188343 0.061313 0.311837 0.351489 -0.062550 0.808449 0.254288 0.286927 0.365865 -0.145395 0.381650 -0.122389 0.327940 0.002177 -0.136543 0.331936 -0.123913 -0.017391 0.231722 -0.190958 0.405436 -0.401618 -0.152022 -0.601002 0.110561 -0.505831 -0.086030 -0.239354 0.186988 0.063381 0.348922 0.015161 -0.143185
61341189 -0.297314 -0.295737 0.507720 0.008501 0.121835 0.527076 -0.853262 -0.177360 -0.147316 -0.190040 0.393063 0.311786 -0.216920 0.055768 -0.232548 0.052645 0.380248 0.124587 -0.695044 0.102370 -0.489318 0.543097 0.131247 -0.043752 -0.044892 -0.520459 -0.420301 -0.116946 0.113807 0.664776 -0.222740 -0.205203 0.032234 -0.000036 -0.093102 0.420006 0.237552 -0.032038 -0.098046 -0.314211 -0.351029 -0.414584 -0.002024 -0.403917 0.098361 0.313783 -0.152065 0.281586 0.374215 -0.256585 0.022589 -0.177856 -0.367888 -0.083727 0.339300 -0.086104 0.259473 0.154914 -0.438980 -0.262761 0.837473 0.516622 -0.197463 -0.099075 0.144097 -0.174837 -0.109983 -0.139863 -0.498304 0.260586 0.076604 -0.032474 0.203711 -0.150676 0.175970 0.071695 0.025565 -0.154421 -0.358873 0.216435 0.077928 0.715366 -0.310529 -0.958605 -0.332510 0.257945 0.242874 -0.299392 0.014684 0.125467 0.038391 -0.308387 0.103866 -0.008860 0.337026 -0.885363 0.447972 0.155104 -0.186287 0.260223 -0.414325 0.592014 0.328922 0.445655 0.193391 0.342414 -0.130225 0.729358 -0.443903 0.211186 0.645571 0.317985 0.144086 0.091707 0.484890 0.582214 -0.545282 0.419316 -0.350038 -0.129616 -0.555237 0.284361 0.144981 0.385727 -0.028045 0.190731 0.300259 -0.219264
61468249 0.096405 -0.156794 0.536144 -0.071481 0.306076 0.050048 -0.242774 -0.214780 -0.450662 0.039557 0.024754 0.201105 0.210989 0.180586 0.208501 -0.091366 0.089401 0.019359 -0.060133 0.172559 0.234131 0.285163 0.353709 0.207999 -0.189878 -0.113644 -0.124440 0.077952 0.448897 0.146499 -0.620444 0.287183 -0.007098 0.110962 0.298467 0.268215 0.576271 0.301454 0.309480 -0.667043 -0.046666 0.039061 0.465851 -0.206669 -0.049132 -0.418204 0.358557 -0.353443 0.181259 -0.528451 0.110826 0.146553 -0.574241 -0.124208 -0.453754 -0.025514 0.323860 -0.252855 -0.234929 -0.166374 0.856069 0.468053 -0.171381 -0.414847 -0.028166 -0.306866 0.070901 0.231120 -0.577453 0.255635 -0.130637 -0.114329 1.104599 0.134635 -0.263329 -0.345171 -0.196888 -0.112886 -0.092813 0.045680 -0.424491 0.662500 0.226172 -0.759996 0.366571 -0.015450 -0.126479 -0.251190 0.074960 -0.239276 -0.231927 -0.406630 -0.361977 0.526358 0.247487 0.033887 0.344275 0.352675 -0.083466 0.030102 0.128281 0.159514 0.163767 0.492837 0.794935 0.698907 0.195704 0.712247 -0.550768 -0.442189 -0.189449 0.080306 -0.059164 0.332610 0.233626 0.207443 0.215119 -0.137927 -0.066770 0.194662 0.197497 0.081938 -0.649264 0.391947 0.131079 -0.202061 0.137504 0.479695
61339983 -0.381612 0.626770 0.088387 0.082438 0.052460 0.029704 0.082104 -0.327924 -0.459798 0.566258 0.223149 0.182553 0.147194 0.071111 0.053491 -0.348527 -0.067832 0.027006 -0.313428 0.459625 0.449441 0.231572 -0.001270 -0.498653 0.035524 -0.398816 -0.069327 -0.011594 -0.024705 0.276982 -0.041758 -0.219320 0.503472 -0.054307 0.221263 -0.024556 0.338107 -0.241388 0.477165 -0.281193 -0.177046 -0.147098 -0.035243 -0.039707 -0.102323 -0.074910 0.017091 0.131846 0.144862 -0.811352 0.109143 -0.391303 -0.535484 -0.051566 -0.179952 -0.087026 0.289574 -0.066054 -0.754504 0.360097 0.331594 0.003546 -0.240620 -0.512830 -0.026926 -0.221492 -0.137755 -0.286559 -0.161334 0.127852 -0.219291 -0.049737 0.447681 0.361147 0.215752 0.002683 -0.469639 0.436390 -0.139560 -0.331038 -0.054330 0.539223 0.010924 -0.813026 -0.205148 -0.108085 0.029345 -0.124614 0.005483 -0.180734 -0.303636 -0.062521 -0.281602 0.320106 0.073360 0.039392 -0.543887 0.051291 -0.240941 -0.072150 0.338075 -0.107630 0.170284 0.555786 0.027560 0.476426 0.468237 0.699737 -0.250566 -0.218857 0.258309 -0.425442 0.119263 0.228448 0.202678 0.062879 -0.095952 0.116607 -0.309396 0.527222 0.232309 0.469227 -0.014007 0.444265 -0.182488 0.184463 -0.087154 -0.036861
61352766 -0.393828 0.126625 0.483606 -0.358827 -0.326076 -0.416895 -0.301414 -0.215365 -0.375438 0.033301 0.507103 -0.018921 0.570028 -0.183150 -0.340799 0.281899 -0.280356 -0.248533 -0.437532 0.167884 -0.073272 0.970038 -0.200362 -0.528142 0.055043 0.065944 -0.256739 -0.123407 0.235067 -0.054263 -0.571019 0.009060 -0.499615 -0.290786 0.055948 -0.005221 0.129296 0.276518 -0.079375 0.369612 0.085840 0.274986 0.214592 -0.006372 -0.053037 0.189614 0.369486 -0.157996 -0.265261 -0.739443 -0.223460 0.236968 0.060883 -0.036680 -0.225889 -0.483955 0.284924 0.457590 -0.548229 -0.403418 0.296790 -0.053941 -0.242478 -0.424988 -0.173350 -0.343951 -0.246830 0.520432 -0.827637 0.133060 -0.050531 -0.285865 0.504190 0.035918 0.037808 -0.275197 -0.283219 0.125550 -0.406116 -0.101370 0.072601 0.455706 -0.133520 -0.275435 0.045127 0.602250 -0.319714 0.074010 -0.691418 -0.395131 0.294018 -0.443538 0.155386 0.795820 -0.307566 -0.202043 0.178686 0.470626 0.338547 0.011011 0.875375 0.061418 0.151258 0.448802 0.006400 0.221519 -0.168698 0.376645 0.030445 -0.064238 0.305841 -0.211920 0.000452 0.171132 -0.332117 0.243508 -0.448524 -0.256327 -0.612733 -0.096030 -0.518810 0.013715 -0.185560 0.104372 -0.065679 0.041768 0.076056 -0.226196
61356592 -0.049269 0.209947 0.525569 -0.371090 -0.120203 0.067086 -0.285463 -0.720873 -0.611703 -0.147307 0.155072 -0.048674 0.181697 -0.176485 -0.407756 0.112009 -0.336259 0.030135 -0.287247 -0.038879 0.122847 0.227628 0.242690 -0.294976 -0.038419 -0.397435 -0.494767 -0.364660 0.597595 0.257145 -0.549270 -0.179168 -0.263315 -0.048574 -0.015238 0.258624 0.332363 0.249244 0.059520 -0.094433 0.005245 0.533920 0.557911 0.066359 0.187399 -0.401145 0.170379 -0.322880 -0.041644 -0.365933 -0.032027 0.053965 -0.276868 -0.030604 -0.460215 -0.353556 0.238313 -0.127899 -0.338084 -0.674916 0.344474 -0.266210 -0.138562 -0.391509 -0.020027 -0.220624 0.374644 0.453279 -0.573636 0.074259 -0.070738 -0.112045 0.621051 -0.137284 -0.275567 -0.218978 -0.187728 0.001231 -0.567585 -0.351255 0.159682 0.349124 0.114087 -0.332177 0.309216 0.025496 -0.165133 0.067436 -0.231691 -0.288336 0.052167 -0.311293 0.004083 0.973957 0.402214 -0.116432 -0.059277 0.455828 0.027226 0.149169 0.351275 0.442495 0.393453 -0.031391 0.263085 0.486569 0.027246 0.352199 -0.262137 -0.143428 0.191367 0.347679 0.163094 0.214763 0.017484 0.433057 -0.055502 -0.134823 -0.121876 0.198371 -0.398030 -0.217509 -0.169555 0.291310 0.476254 0.480305 0.327331 -0.106875
61339815 -0.140986 0.074816 0.799668 -0.127570 0.386339 0.342652 -0.156644 -0.240662 -0.503279 0.240223 0.020919 0.338711 0.323039 0.061207 0.051341 -0.067666 0.079193 0.173392 -0.074208 0.392698 0.344950 0.379776 0.333656 0.163280 0.158065 -0.321927 -0.201816 0.066694 0.530400 0.356398 -0.573789 0.139394 -0.010786 -0.060381 0.019425 -0.118005 0.401036 0.276880 0.388753 -0.361883 0.127105 0.037731 0.243500 -0.140158 -0.104418 -0.284488 0.229839 -0.293015 -0.026950 -0.705086 -0.135243 -0.239923 -0.238595 -0.252984 -0.438026 0.083124 0.191480 -0.435093 -0.308723 -0.096207 0.721605 0.156655 0.007895 -0.474432 -0.143604 -0.190726 0.446854 -0.034243 -0.405755 0.026254 0.052186 -0.081192 0.827876 0.136283 -0.279717 -0.158881 -0.273499 -0.202395 -0.127719 -0.091168 -0.513175 0.431111 0.100808 -0.650127 0.237196 -0.011885 -0.132164 -0.188393 0.170017 -0.280683 -0.184263 -0.341215 -0.263844 0.500422 0.147378 0.065643 0.240867 0.157599 0.000702 -0.054155 0.228351 0.213623 0.058884 0.387982 0.656376 0.737686 0.275347 0.863640 -0.093621 -0.680953 -0.299347 -0.067788 0.086108 0.208411 0.120854 0.279772 0.016789 -0.177162 -0.343295 0.320237 0.056914 0.140853 -0.508229 0.455784 -0.001326 -0.214569 0.152786 0.364859
61567761 -0.091332 -0.394626 0.304311 0.234136 0.039034 -0.281959 -0.504149 0.183733 0.026547 0.009509 -0.556684 -0.003719 -0.002415 0.067200 -0.199438 0.248926 -0.138353 -0.248039 -0.383022 -0.085145 -0.195053 -0.068349 0.048471 -0.015719 0.311154 -0.062109 -0.336518 -0.008796 0.338861 0.271377 -0.709044 0.005523 0.159203 0.558929 -0.071095 0.419971 0.738158 0.304375 0.294214 0.034904 0.078809 0.077203 -0.289035 0.762275 -0.159738 -0.075741 -0.275992 -0.369517 -0.040080 -0.310974 0.305142 -0.011672 -0.336209 -0.140330 0.084767 -0.032366 -0.417153 0.101402 -0.443485 -0.110025 0.569030 0.447358 -0.345688 -0.206388 -0.040034 -0.129990 0.444885 0.662386 -0.796019 0.241719 -0.084117 0.601162 0.462623 -0.057964 0.041826 -0.138592 -0.159188 -0.000270 0.090960 0.055910 0.397272 0.409986 -0.012281 -0.551726 -0.199324 -0.506859 -0.339990 -0.158816 -0.181018 -0.720380 -0.683082 -0.539386 0.092656 -0.023961 0.440819 0.448301 0.596632 -0.471478 0.148636 0.151521 0.052045 0.276665 0.359526 0.287009 -0.196315 0.470302 0.024395 -0.155770 -0.573509 -0.050457 0.158245 -0.691961 0.001574 0.281786 0.368126 0.238464 -0.045519 -0.271541 -0.327728 0.164388 0.307029 0.495408 0.068083 0.702194 -0.535569 0.330848 0.494092 -0.251203
61376119 -0.400909 -0.174414 0.448357 0.409288 -0.019600 -0.222195 -0.552729 0.123929 0.005943 -0.175376 -0.484903 -0.045673 0.106526 0.296428 -0.378013 0.169695 0.047543 -0.272114 -0.528792 -0.175137 -0.139574 0.252135 -0.081720 -0.039937 0.158027 -0.226827 -0.174139 0.133787 0.237532 0.174155 -0.708471 -0.174678 0.126714 0.389370 -0.092694 0.191693 0.719332 0.222620 0.222330 0.164601 -0.065260 0.062728 -0.182638 0.893942 -0.260505 -0.058102 0.024080 -0.434479 0.250615 -0.316126 0.133433 -0.143375 -0.360917 -0.180449 0.213465 0.104099 -0.223862 -0.045732 -0.361053 -0.039688 0.592842 0.378222 -0.125622 -0.156263 -0.051643 -0.243044 0.255696 0.529703 -0.706360 0.315128 0.063207 0.453016 0.560524 -0.356395 -0.094873 -0.422709 -0.083329 0.038875 0.036220 0.161318 0.316510 0.352950 -0.295221 -0.498239 0.318100 -0.471555 -0.512235 -0.029156 -0.022600 -0.789703 -0.810460 -0.316151 0.260807 0.269416 0.295902 0.293935 0.476711 -0.480830 0.073154 0.173524 -0.196142 0.394194 0.489968 0.209856 -0.043168 0.471467 0.042734 -0.218045 -0.456998 -0.046530 -0.001672 -0.873570 0.031087 0.233677 0.260176 0.510464 -0.012792 -0.377954 -0.238573 0.046741 0.209475 0.347905 -0.001984 0.562481 -0.533926 0.185445 0.459455 -0.078638
61372757 -0.296078 0.649572 0.109355 -0.077031 -0.189325 0.209420 -0.615515 -0.486875 -0.300674 0.059826 -0.172900 0.184562 -0.019692 0.130348 -0.218787 -0.204052 0.624485 -0.439710 -0.440918 -0.079246 -0.235796 0.470265 0.058009 0.468712 -0.267654 0.208313 -0.091415 -0.554237 0.041662 -0.046092 0.033681 -0.175871 -0.348716 -0.133027 0.071102 0.299859 0.199794 0.132887 -0.325937 0.085995 0.036099 0.116124 -0.029987 0.436736 -0.389718 0.340762 -0.161336 0.598236 -0.041557 0.094698 -0.046582 -0.478848 -0.772208 -0.174776 -0.152774 -0.093224 0.101284 0.332868 -0.426098 -0.004315 0.257428 0.146253 -0.236932 -0.339899 0.250557 -0.133238 -0.078564 -0.149659 -0.378994 0.664808 -0.216582 0.169972 0.609455 -0.129490 -0.126935 -0.421895 -0.361491 -0.318710 -0.012264 0.002050 0.214458 0.650866 -0.107351 -0.091925 0.013621 0.163932 0.006281 0.308941 -0.448084 0.002950 -0.076193 -0.662371 -0.309927 0.420056 0.324476 -0.365320 0.467185 -0.025211 -0.252039 0.170990 0.257579 -0.272960 0.311699 0.177208 0.050957 0.672675 -0.191164 0.094366 -0.606109 -0.089565 0.026411 -0.178598 0.138262 -0.123794 0.426919 0.258382 -0.334892 0.403527 -0.589887 0.208184 -0.343401 0.576668 -0.156767 -0.289643 -0.309966 0.103428 0.369978 -0.336499
61341422 -0.212037 -0.335929 0.376068 0.324444 0.022337 -0.237499 -0.552532 0.155594 0.016308 -0.079436 -0.510607 -0.006080 0.085589 0.158766 -0.307520 0.221002 -0.087807 -0.248249 -0.406320 -0.139361 -0.197154 0.095299 -0.046947 0.027327 0.248954 -0.133846 -0.269522 0.021830 0.246926 0.229428 -0.712799 -0.052401 0.074614 0.491431 -0.129033 0.295546 0.672669 0.250684 0.219917 0.126355 0.054113 0.071728 -0.246293 0.818386 -0.229476 -0.117423 -0.104391 -0.427592 0.086532 -0.318985 0.212645 -0.088496 -0.269339 -0.154182 0.178713 -0.036702 -0.289167 -0.034053 -0.396407 -0.111547 0.580501 0.389720 -0.219538 -0.208743 -0.052176 -0.227756 0.298811 0.666581 -0.756862 0.259098 -0.020615 0.491035 0.499689 -0.262339 -0.066514 -0.319203 -0.067805 -0.069014 0.101315 0.151669 0.342397 0.373519 -0.123276 -0.485125 0.084474 -0.487190 -0.450242 -0.043003 -0.071031 -0.787861 -0.735173 -0.415961 0.153715 0.115406 0.381165 0.332148 0.593590 -0.500326 0.080252 0.168411 -0.118005 0.338070 0.428355 0.222957 -0.108954 0.439517 -0.001522 -0.164796 -0.496625 -0.029337 0.040663 -0.753966 0.024630 0.273118 0.331303 0.422730 -0.049463 -0.361326 -0.290964 0.134161 0.264822 0.389288 0.029911 0.599684 -0.513877 0.296895 0.452720 -0.099179
61468198 0.085507 0.234037 0.578091 -0.005524 0.259353 0.175121 -0.115343 -0.615173 -0.548181 -0.038031 -0.125915 0.201645 0.143512 0.031275 -0.257096 0.073343 -0.189993 0.067631 -0.081559 -0.120577 0.228395 -0.002604 0.460145 -0.034817 0.015441 -0.459156 -0.321796 -0.288200 0.595404 0.207091 -0.490853 0.009321 0.071994 -0.051786 -0.152325 0.175426 0.522254 0.287884 -0.021875 -0.356087 0.021085 0.396503 0.540110 0.059039 0.012592 -0.566276 0.242079 -0.336638 0.103749 -0.334364 0.017620 -0.040056 -0.367978 -0.165805 -0.587408 -0.113622 0.118009 -0.280256 -0.249663 -0.304281 0.557355 -0.021421 0.001056 -0.355934 -0.010533 -0.048197 0.584714 0.207484 -0.598702 0.153210 -0.294695 -0.074473 0.931691 -0.250524 -0.348852 -0.334775 -0.119142 -0.071482 -0.378988 -0.264252 0.029355 0.492376 0.058875 -0.474810 0.491886 0.014655 -0.115892 -0.241321 -0.034264 -0.156767 -0.106571 -0.475970 -0.248771 0.859672 0.539448 -0.213541 0.181457 0.197129 0.049376 0.241390 0.225692 0.396789 0.397905 0.041495 0.609451 0.721395 0.090584 0.550794 -0.396275 -0.287818 0.088520 0.475295 0.199394 0.063412 0.208412 0.364635 -0.018186 -0.149714 0.057772 0.059608 0.062241 -0.106796 -0.416080 0.306693 0.469280 0.272152 0.375430 0.101496
61339955 -0.361248 0.414555 0.240453 -0.062512 -0.209419 0.191494 -0.857140 -0.170340 -0.247326 -0.097829 -0.144521 0.226859 -0.056441 0.152602 -0.245056 0.040351 0.690506 -0.112715 -0.351261 -0.173072 -0.369568 0.380211 0.215323 0.391734 -0.245670 0.004907 -0.019090 -0.430367 0.166959 0.371061 0.071139 -0.328833 -0.174055 -0.152680 0.054176 0.304891 0.357783 0.154140 -0.355978 0.038915 -0.217588 0.086251 -0.060591 0.012345 -0.125671 0.361182 -0.111562 0.372342 0.080274 -0.016465 -0.102844 -0.453850 -0.774067 -0.230916 0.012532 -0.051458 0.255871 0.232871 -0.362874 0.017185 0.359035 0.352448 -0.218864 -0.082908 0.325387 -0.232233 -0.079253 -0.091398 -0.541330 0.769860 0.052913 0.119048 0.331139 0.058041 0.116075 -0.210996 -0.018334 -0.417432 -0.173565 -0.044204 0.314559 0.604171 -0.066555 -0.318751 -0.357602 0.331213 0.218110 -0.006462 -0.254728 0.014463 0.056438 -0.929563 0.011110 0.138060 0.313857 -0.456024 0.426996 0.180813 -0.105300 0.175095 -0.007072 -0.047435 0.388214 0.475240 0.033491 0.481612 -0.183928 0.282491 -0.475783 0.141663 0.252553 -0.038070 0.164268 -0.081505 0.419854 0.347518 -0.371548 0.452970 -0.396207 0.065199 -0.409627 0.668739 -0.124728 -0.130800 -0.043578 0.037588 -0.003298 -0.366569
1530590776 -0.132470 0.358668 0.194217 0.130195 -0.145140 0.212804 -0.182052 -0.340873 -0.571208 -0.073149 0.069364 0.030815 -0.352399 0.295929 0.216870 0.028285 -0.103570 -0.437007 -0.590513 -0.030683 -0.357759 0.598907 -0.466475 0.243168 -0.272783 0.048171 -0.546810 -0.347596 0.167109 0.048019 -0.088018 -0.120138 -0.446976 -0.015166 0.209228 0.622513 -0.271422 0.280022 -0.084363 -0.193439 0.005932 -0.196065 -0.079515 0.284515 -0.480216 -0.102254 -0.486365 0.438859 -0.181468 -0.308061 0.053761 -0.490002 -0.184942 0.013628 -0.061219 -0.513215 0.233275 0.541566 -0.427115 0.045554 0.424992 -0.422707 -0.372954 -0.134806 0.302971 -0.424574 0.346882 0.141475 -0.221681 0.209047 -0.647262 -0.035965 0.628045 -0.319301 0.277283 -0.628334 -0.116411 -0.299974 0.052769 0.046980 -0.325298 0.681738 0.029465 -0.588390 0.338497 -0.133176 -0.373717 0.240087 -0.334264 -0.279502 -0.178876 -0.232371 -0.185754 0.524702 0.254202 -0.713635 0.027930 -0.670799 -0.143565 0.045434 0.312862 -0.440115 -0.011838 0.563084 -0.043172 0.827873 -0.209727 -0.058322 -0.463848 -0.381699 0.438156 0.074751 0.376199 0.039018 0.368327 0.572918 -0.142922 -0.009946 -0.331442 -0.185564 -0.017721 0.131243 -0.187880 -0.017001 -0.345743 0.541722 0.774640 -0.202032
61340552 -0.133172 -0.353405 0.351872 -0.046857 0.167253 -0.397289 -0.384460 -0.040716 0.120338 0.008911 -0.330436 -0.164553 -0.040185 0.098071 -0.033642 0.195982 -0.180901 -0.209434 -0.251279 0.059048 -0.389830 -0.065230 0.171512 -0.134582 0.418362 -0.187087 -0.424596 -0.080993 0.171412 0.165399 -0.455888 0.024028 0.023198 0.542714 -0.048614 0.488155 0.536340 0.140951 0.429409 -0.054976 0.000602 -0.015995 -0.261789 0.704614 -0.141853 -0.162298 -0.216805 -0.311240 -0.099729 -0.307387 0.274750 -0.156189 -0.279509 -0.111635 0.037166 -0.121583 -0.376302 0.085077 -0.493451 -0.099323 0.577400 0.326310 -0.407161 -0.244600 -0.198257 -0.208781 0.296874 0.713643 -0.644392 0.089380 -0.113202 0.637304 0.248067 -0.068620 -0.085542 -0.007073 -0.020056 -0.214184 0.158716 0.136544 0.320335 0.469814 0.206980 -0.446497 -0.305195 -0.458171 -0.206810 -0.093619 -0.186109 -0.560218 -0.565132 -0.527952 0.181247 -0.105618 0.525777 0.305249 0.632250 -0.380285 0.059223 -0.003220 0.110845 0.164918 0.313974 0.327618 -0.394293 0.317472 -0.067540 -0.052371 -0.335941 -0.052677 0.043444 -0.505408 -0.228366 0.321837 0.258277 0.168533 -0.118247 -0.226280 -0.330390 0.197703 0.441301 0.461752 0.215868 0.538239 -0.459103 0.317115 0.386932 -0.231879
61469771 -0.398799 0.153200 0.322897 -0.018426 -0.088150 0.214384 -0.819941 -0.193672 -0.201063 -0.246177 -0.027192 0.376653 -0.093070 0.184042 -0.270027 0.167666 0.678820 0.070249 -0.499596 -0.126298 -0.591268 0.386780 0.095917 0.164376 -0.197165 -0.128533 -0.130578 -0.255237 0.184432 0.535217 0.022190 -0.404481 -0.017722 -0.172733 -0.088307 0.308105 0.501034 0.204618 -0.293464 -0.150683 -0.367195 -0.039988 -0.117316 -0.073582 -0.109936 0.357872 -0.238042 0.142507 0.255507 -0.079592 -0.043612 -0.478998 -0.539071 -0.307922 0.356050 -0.120716 0.367152 0.273353 -0.146409 -0.026619 0.503986 0.547048 -0.260698 -0.131904 0.264039 -0.315238 0.052939 -0.083578 -0.672179 0.717418 0.183827 -0.067529 0.400743 0.071489 0.209325 -0.123228 0.117748 -0.307074 -0.338478 0.133094 0.337791 0.666878 -0.273851 -0.605847 -0.419577 0.219547 0.151730 -0.083028 -0.022657 -0.247692 0.034105 -0.704774 0.211687 0.107892 0.405242 -0.637523 0.323208 0.258114 0.211298 0.290596 -0.282616 0.112659 0.396882 0.536613 -0.109630 0.405193 -0.033810 0.520156 -0.494591 0.071924 0.392845 0.133504 0.158848 -0.218934 0.470892 0.325379 -0.509474 0.510589 -0.333664 -0.120085 -0.539093 0.659241 -0.078019 0.357995 0.074334 -0.102259 0.016539 -0.197518
61362484 -0.364195 0.002104 0.330585 0.171907 -0.188480 0.168763 -0.913671 -0.057933 -0.145582 -0.289328 -0.069824 0.252890 -0.115798 0.253993 -0.300265 0.125862 0.729279 0.104964 -0.430249 -0.098670 -0.549541 0.465671 0.140925 0.153950 -0.190841 -0.212224 -0.188692 -0.318134 0.318299 0.644790 -0.015414 -0.463918 0.039057 -0.139456 -0.075182 0.386973 0.454395 0.214883 -0.275687 -0.216667 -0.401048 -0.103107 -0.126536 -0.096740 -0.080369 0.397844 -0.081355 0.114681 0.205893 -0.141799 -0.054832 -0.400786 -0.565021 -0.285716 0.301199 -0.050016 0.349345 0.201305 -0.160705 0.124015 0.609557 0.417773 -0.228620 -0.080030 0.238034 -0.301791 0.008713 0.006620 -0.652413 0.740133 0.215780 0.076425 0.249601 0.103421 0.345713 0.000008 0.141660 -0.320356 -0.297656 0.077824 0.285416 0.707724 -0.232822 -0.749349 -0.426835 0.228529 0.202564 -0.139824 -0.159446 -0.115128 0.220531 -0.758730 0.159395 -0.024236 0.383744 -0.611704 0.338170 0.317529 0.107647 0.204053 -0.324769 0.178916 0.463659 0.631161 0.024955 0.395683 -0.034019 0.428409 -0.440383 0.045157 0.393905 0.014672 0.100875 -0.041124 0.428187 0.377082 -0.525009 0.428196 -0.295866 -0.008990 -0.453729 0.603859 -0.071262 0.172498 0.067684 -0.067720 0.062369 -0.329323
61340621 -0.129566 -0.303178 0.361085 -0.111966 0.046948 -0.432272 -0.493460 -0.163271 0.023951 0.139415 -0.212377 -0.053051 0.374267 -0.036168 -0.069554 0.162045 -0.114812 -0.092831 -0.147333 0.084378 -0.356873 0.255276 -0.000121 -0.109501 0.351672 -0.152025 -0.469130 -0.223401 -0.075253 0.243272 -0.451906 0.047829 -0.084264 0.544113 -0.001825 0.435229 0.382469 0.079596 0.224518 -0.150246 0.024719 -0.207704 -0.146152 0.618909 -0.248947 -0.358038 -0.058673 -0.236336 -0.204904 -0.336102 0.271283 -0.104240 -0.136147 -0.045666 0.226823 -0.351709 -0.222523 -0.136449 -0.475974 -0.188335 0.555674 0.143457 -0.319297 -0.402375 -0.121036 -0.384851 0.027839 0.914986 -0.691466 0.068322 0.045721 0.443359 0.370406 -0.032793 0.011897 -0.039358 0.004085 -0.305971 0.167044 0.103826 0.252428 0.526177 0.322014 -0.258920 -0.067678 -0.379768 -0.248436 0.229481 0.026756 -0.522926 -0.501218 -0.429213 0.104759 -0.156181 0.535528 0.386964 0.602881 -0.341453 0.038301 0.023039 0.035908 0.252883 0.397568 0.188585 -0.258460 0.137354 -0.321928 0.003006 -0.405672 0.081148 -0.132298 -0.603619 -0.134807 0.356331 0.321149 0.423192 -0.206176 -0.422491 -0.399480 0.340063 0.244166 0.361711 0.129366 0.417502 -0.430058 0.289836 0.254687 -0.205062
61501392 0.163334 -0.126447 0.368023 -0.238576 0.454590 0.040682 -0.395079 -0.330757 -0.630337 -0.096136 0.666242 0.120686 -0.155027 0.416346 -0.442164 -0.073860 -0.093004 -0.092351 -1.203209 0.662163 0.158162 0.092860 0.559668 0.310441 -0.006870 -0.157365 -0.150242 0.160037 0.126725 0.470853 -0.445979 0.089475 0.539586 -0.089086 0.059099 0.540872 0.017354 -0.135765 0.577330 0.206239 0.230054 -0.223028 -0.099416 0.131816 -0.087823 -0.091320 -0.074493 0.421242 0.044814 -0.206571 0.147963 -0.363961 -0.393024 0.586967 0.088455 -0.000191 -0.144403 -0.414923 -0.426552 0.083209 0.940804 0.460081 -0.398575 -0.308880 -0.062168 -0.120570 -0.157840 -0.101298 -0.074185 -0.023400 0.110733 0.130636 0.279485 -0.657504 0.146124 -0.255821 -0.541216 0.082263 -0.132204 -0.242442 -0.261982 0.551763 -0.342497 -1.110582 -0.000737 0.211237 0.374747 -0.003131 -0.652576 -0.422877 -0.425520 0.126352 -0.354349 0.173285 0.707642 -0.625212 0.923646 0.219073 -0.334769 0.339029 -0.171286 0.268232 0.530427 0.251041 0.154612 0.682840 0.270679 0.239154 -0.328998 0.157566 0.230945 0.392222 0.164586 -0.088675 0.352090 0.310644 -0.507931 0.436275 -0.297230 0.297455 0.256842 0.363062 0.137186 0.472221 -0.270284 0.660855 1.187052 0.308402
61356535 -0.152217 0.245317 0.120393 -0.023782 -0.420107 -0.030809 -0.308254 0.281791 0.006168 0.238986 0.105512 -0.095519 -0.015851 0.203125 0.046797 0.268439 0.074776 -0.683021 -0.290082 -0.144005 0.257907 0.200965 0.068692 0.285355 0.034579 0.077345 0.295766 -0.031987 -0.037118 0.364830 -0.426946 -0.147636 -0.166934 -0.277071 0.010823 0.266959 0.208938 0.400467 0.332944 0.453261 -0.065849 0.250722 0.304827 -0.584345 0.803257 -0.208382 -0.059663 0.014433 0.117830 -0.582776 0.085541 -0.103562 -0.548245 0.350725 -0.078643 -0.045811 -0.194096 -0.248445 -0.591656 -0.220657 0.110704 0.464627 -0.461148 -0.151258 0.257798 -0.385366 -0.047255 0.208063 -0.906420 0.186647 -0.208282 0.103526 -0.093815 -0.151065 -0.043893 -0.194676 -0.185992 -0.294151 0.011188 -0.135411 0.012023 0.485706 0.474662 -0.204578 -0.196878 0.239450 0.041221 -0.699065 0.255107 -0.196972 -0.484471 -0.998445 -0.159960 -0.090552 0.055230 -0.140408 0.250150 -0.098393 -0.175896 -0.226379 0.625741 -0.287106 0.326894 0.164162 0.205683 0.441445 -0.044038 0.309446 -0.052061 0.248661 0.314808 0.279370 0.545704 -0.136175 0.296820 0.449649 -0.289091 0.514737 0.082357 0.202544 0.122873 0.055589 0.108251 0.026537 0.020731 0.484079 -0.153119 0.083576
61469330 -0.504121 0.058795 0.431354 0.286337 -0.070565 -0.115844 -0.497768 -0.105995 0.093081 -0.259443 -0.382065 -0.108706 0.140276 0.353486 -0.426849 0.166671 -0.042495 -0.445218 -0.365335 -0.089240 -0.232757 0.380845 0.113268 -0.191318 0.279104 -0.366991 -0.133495 0.086684 0.228750 0.058759 -0.635850 -0.255271 -0.117404 0.252523 -0.067106 0.037039 0.805461 0.139106 0.210022 0.089877 -0.121644 0.018060 -0.010336 0.761865 -0.335868 0.016853 0.089693 -0.364681 0.124777 -0.430950 0.011861 -0.188759 -0.216131 -0.136505 0.232865 0.006811 -0.270354 -0.097083 -0.415803 0.135152 0.834031 0.321822 -0.032639 -0.100335 -0.110101 -0.238044 0.153004 0.528407 -0.660766 0.165844 -0.168901 0.459627 0.443047 -0.404090 -0.179115 -0.396444 0.009158 -0.043973 0.202917 0.296610 0.417987 0.459189 -0.214660 -0.514250 0.235707 -0.396980 -0.582106 -0.031731 -0.048912 -0.727403 -0.733263 -0.418990 0.348429 0.202030 0.277446 0.129050 0.375980 -0.531956 0.089046 -0.045159 -0.094467 0.386479 0.692040 0.352273 -0.004676 0.345112 0.079482 -0.211766 -0.237527 0.088523 -0.020718 -0.774236 -0.076015 0.184015 0.125648 0.504108 0.030010 -0.367639 -0.293681 0.224225 0.246189 0.341718 0.173265 0.305647 -0.648483 0.325420 0.329433 -0.001104
61341785 0.136286 -0.155089 0.381950 -0.238733 0.428072 0.154538 -0.476012 -0.248351 -0.501858 -0.038066 0.691795 0.135423 -0.146662 0.347417 -0.386294 -0.043206 0.014034 -0.066773 -1.214189 0.631715 0.112697 0.201007 0.503002 0.241631 0.038350 -0.244288 -0.164559 0.082917 0.124522 0.571597 -0.464898 0.143362 0.508154 -0.078035 0.032043 0.554038 -0.041683 -0.135806 0.484176 0.142820 0.173357 -0.268329 -0.044473 0.127010 -0.076673 0.024411 -0.024421 0.417863 0.044803 -0.200382 0.176835 -0.293327 -0.418059 0.533850 0.191285 0.038181 -0.111345 -0.428047 -0.463040 0.047116 1.055296 0.487408 -0.360845 -0.276060 -0.114317 -0.042230 -0.158045 -0.091948 -0.066931 -0.086547 0.081307 0.128653 0.235965 -0.626323 0.138865 -0.201938 -0.477751 0.090454 -0.157717 -0.134700 -0.225356 0.559373 -0.413416 -1.139970 -0.054270 0.205201 0.314994 -0.039622 -0.580567 -0.325272 -0.363665 0.104748 -0.277621 0.081837 0.688654 -0.698249 0.955651 0.272373 -0.431412 0.354858 -0.271079 0.415466 0.556498 0.197176 0.232791 0.663563 0.180551 0.195373 -0.340688 0.222345 0.353738 0.381581 0.172445 -0.033944 0.348213 0.349332 -0.477572 0.395356 -0.366050 0.284341 0.249630 0.296381 0.111867 0.418382 -0.240363 0.558467 1.129351 0.291240
61341197 -0.248452 -0.218466 0.378394 0.136633 -0.069368 0.368497 -0.891007 0.016317 -0.109745 -0.105104 0.269980 0.246400 -0.153534 0.065284 -0.240711 0.107190 0.469903 0.093651 -0.506926 0.038916 -0.395227 0.497898 0.212116 0.040370 -0.072827 -0.444213 -0.275566 -0.169876 0.245733 0.719133 -0.234607 -0.298725 0.003995 -0.091758 -0.056763 0.413857 0.307546 0.089750 -0.092821 -0.266867 -0.339558 -0.277879 0.031880 -0.438789 0.161890 0.346622 -0.058084 0.190064 0.230209 -0.285405 -0.017720 -0.136643 -0.400788 -0.099033 0.253866 -0.046960 0.219396 0.080171 -0.401461 -0.122307 0.751369 0.404376 -0.126119 -0.025713 0.164129 -0.147051 -0.069177 -0.038374 -0.557354 0.364874 0.043813 0.073086 0.028819 -0.083014 0.301984 0.140989 0.131110 -0.234249 -0.228747 0.079040 0.169420 0.675761 -0.092110 -0.885521 -0.404064 0.294606 0.238978 -0.327441 -0.016837 0.170064 0.074740 -0.580626 0.082113 -0.170670 0.291768 -0.635652 0.407023 0.158226 -0.209698 0.128698 -0.318454 0.481810 0.457389 0.537748 0.232697 0.344107 -0.173861 0.537441 -0.320102 0.209169 0.605622 0.067454 0.218070 0.152813 0.458025 0.564990 -0.436300 0.343425 -0.298760 0.044086 -0.481681 0.301529 0.093658 0.155180 -0.005048 0.227931 0.104557 -0.238640
61352249 -0.336180 0.319386 0.523110 0.149881 0.171556 0.036151 0.018341 -0.378725 -0.613131 0.446717 -0.078049 0.398376 0.381071 -0.100620 -0.268013 0.182579 -0.072407 0.227630 -0.377195 0.115530 0.396712 0.346428 0.110481 -0.272593 0.318532 -0.435722 -0.604018 -0.196848 0.515311 0.269384 -0.483347 -0.064436 0.072045 -0.093695 -0.160103 -0.168414 0.168876 0.346273 0.202323 -0.006166 -0.027026 0.579311 0.322832 0.070347 -0.119448 -0.212699 0.196027 -0.029945 -0.114124 -0.509561 -0.254729 -0.367626 0.034943 -0.346941 -0.458162 -0.193831 0.229574 -0.153664 -0.273850 -0.293027 0.541101 -0.255944 0.132721 -0.582368 -0.340864 -0.163187 0.556804 0.089370 -0.436813 -0.155252 -0.174958 -0.226684 0.422831 0.220799 -0.103868 -0.105927 -0.079774 0.125386 -0.371907 -0.510375 -0.053818 0.370225 -0.096382 -0.389569 0.037248 0.083497 -0.232689 -0.203486 -0.080872 -0.370953 0.015847 -0.157105 -0.119786 0.802735 0.376099 -0.177262 -0.092299 0.115864 0.237830 -0.202449 0.407662 0.199516 0.597850 0.210865 0.304956 0.671918 0.126606 0.581439 -0.070398 -0.379409 0.197826 -0.083438 0.241493 0.143725 0.032587 0.323614 -0.194185 -0.078759 -0.379601 0.274514 -0.258981 -0.113142 -0.408650 0.192308 0.119389 0.380878 -0.024431 -0.004912
61341410 -0.198530 -0.188640 0.379812 0.075665 0.113333 -0.283905 -0.512762 -0.176024 0.174068 -0.073253 -0.324150 -0.135497 0.242510 0.094061 -0.159184 0.121454 -0.099993 -0.267761 -0.301403 0.055711 -0.329912 0.170549 0.107036 -0.160780 0.402148 -0.126774 -0.303324 -0.114532 0.166786 0.125428 -0.477097 -0.028233 -0.112929 0.500157 -0.102663 0.326011 0.545931 0.082963 0.259693 0.072289 0.021147 -0.070102 -0.188968 0.724771 -0.297769 -0.203760 -0.051564 -0.369785 -0.093726 -0.383258 0.186606 -0.278282 -0.186703 -0.080452 0.244831 -0.181532 -0.321895 -0.085036 -0.545562 -0.022977 0.670299 0.286006 -0.238687 -0.237853 -0.171557 -0.294037 0.188039 0.822243 -0.665075 0.074317 -0.032425 0.500647 0.347295 -0.200186 -0.150768 -0.166534 0.040670 -0.256388 0.235801 0.239557 0.381786 0.465663 0.105488 -0.394347 -0.095647 -0.422968 -0.317499 0.085227 -0.031411 -0.706382 -0.619831 -0.400100 0.236847 -0.058245 0.494445 0.270270 0.585913 -0.476252 0.013227 0.022031 0.005153 0.299861 0.449603 0.318273 -0.282972 0.336755 -0.101521 -0.164292 -0.225499 0.066274 -0.093067 -0.625875 -0.192206 0.284846 0.300809 0.374682 -0.085337 -0.338434 -0.346519 0.275613 0.432715 0.402610 0.158788 0.369990 -0.525417 0.366697 0.335953 -0.086465
61354590 0.006802 -0.633943 0.525628 0.271855 -0.250086 -0.017975 -0.255777 0.155717 -0.083188 -0.458456 -0.281384 -0.080311 -0.314505 0.128011 0.131315 0.107911 -0.058292 -0.453164 -0.661312 -0.135698 0.225286 0.028121 -0.156499 -0.029095 0.257514 0.204116 0.212503 0.063270 0.175748 0.362856 -0.432512 0.410764 0.406938 0.576940 -0.216980 0.296353 0.183499 0.046326 0.402976 0.317624 -0.072674 -0.004492 -0.343154 0.607684 0.239350 -0.443114 -0.318739 -0.529431 0.077887 -0.478606 0.367265 -0.147366 -0.216455 0.319806 -0.107857 -0.009699 -0.243226 0.213938 -0.481098 -0.060384 0.114273 0.482512 -0.333982 -0.250467 0.094822 -0.667740 0.078638 0.247064 -0.468251 0.370868 -0.096251 0.402371 0.175497 -0.082517 0.140911 -0.189925 -0.588152 0.216331 0.052661 -0.046042 -0.200130 -0.001460 -0.132756 -0.427058 -0.068903 -0.258366 0.097265 -0.594475 0.011477 -0.737983 -0.144963 -0.218127 0.055123 0.271540 0.119372 -0.309010 0.176435 0.044578 0.226861 0.259873 0.334868 0.036510 -0.295608 0.194325 -0.200886 0.957297 0.307803 0.104461 -0.099016 -0.283728 0.101419 -0.307222 0.126789 -0.170432 -0.011509 0.378815 -0.480373 0.160285 -0.311411 -0.340596 0.102893 -0.024281 -0.161369 0.521814 -0.145016 0.587295 0.593053 -0.211892
61363805 -0.091776 -0.465210 0.284110 -0.338691 0.127295 -0.508189 -0.363627 -0.153988 -0.063378 0.133858 -0.069382 -0.177455 0.104475 0.027024 0.028500 0.230257 -0.145872 -0.049511 -0.270533 0.143351 -0.363893 0.151738 0.062843 -0.110890 0.288515 -0.203317 -0.600097 -0.161923 -0.101834 0.256611 -0.374058 0.122693 0.098540 0.590800 0.038502 0.547599 0.250366 0.043322 0.429381 -0.362381 0.032433 -0.219062 -0.140779 0.592405 -0.079970 -0.404557 -0.228044 -0.091884 -0.118165 -0.261505 0.277263 -0.073568 -0.244410 -0.043338 0.080607 -0.267288 -0.275630 0.033255 -0.378054 -0.208531 0.387682 0.123862 -0.477968 -0.452925 -0.216111 -0.395974 0.081873 0.727177 -0.691751 0.043073 0.101792 0.503146 0.240737 0.117911 0.134151 0.076079 -0.022671 -0.251357 0.061361 -0.009771 0.150681 0.557784 0.360690 -0.296683 -0.183723 -0.319748 -0.122052 0.133626 -0.114543 -0.352436 -0.405621 -0.405819 0.031647 -0.171944 0.547332 0.287068 0.591133 -0.277449 0.045959 -0.029175 0.146657 0.119626 0.267569 0.158839 -0.479855 0.152830 -0.263136 0.162349 -0.380426 -0.113319 -0.001299 -0.551235 -0.164847 0.409414 0.274896 0.260128 -0.243723 -0.369752 -0.417989 0.407375 0.129178 0.343606 0.228807 0.495741 -0.350900 0.226024 0.235381 -0.365684
61410498 0.009004 0.229787 0.651246 -0.167386 0.118561 0.118347 -0.127773 -0.645343 -0.596018 0.049081 -0.095981 0.132389 0.221826 -0.074781 -0.331448 0.108382 -0.201336 0.132312 -0.183242 -0.051816 0.213661 0.136995 0.326045 -0.107945 0.007720 -0.532600 -0.497256 -0.354013 0.625231 0.302378 -0.548485 -0.071953 -0.048118 -0.053347 -0.139825 0.121680 0.351277 0.272747 0.104706 -0.192994 0.052551 0.519585 0.576086 0.030012 0.007807 -0.453305 0.212034 -0.277584 0.007667 -0.310937 -0.091484 -0.047658 -0.278674 -0.185113 -0.526779 -0.246937 0.160060 -0.185777 -0.256179 -0.556291 0.494005 -0.172170 0.005236 -0.420409 -0.100767 -0.105074 0.558775 0.222547 -0.539310 0.162149 -0.181389 -0.121404 0.716566 -0.124831 -0.315837 -0.231425 -0.113089 0.017865 -0.477293 -0.320198 0.115989 0.394589 0.070534 -0.397720 0.362431 -0.028675 -0.196866 -0.091370 -0.138022 -0.239571 -0.046623 -0.399048 -0.077526 0.934614 0.538805 -0.226557 0.015458 0.319027 0.042827 0.143751 0.198425 0.344254 0.356884 0.002878 0.545621 0.576256 0.071077 0.553890 -0.296828 -0.270511 0.058947 0.398905 0.240850 0.091450 0.056740 0.412682 -0.034290 -0.199693 -0.074092 0.098038 -0.205808 -0.180828 -0.301326 0.255366 0.446294 0.311525 0.336244 -0.036784
61363787 0.023004 -0.614544 0.204550 -0.427781 0.131554 -0.553052 -0.270765 -0.118451 -0.155564 0.199052 0.133974 -0.051659 0.063187 0.028528 0.013950 0.255687 -0.140467 0.064572 -0.323824 0.232171 -0.289909 0.135692 0.037440 -0.102718 0.131735 -0.157331 -0.596439 -0.087914 -0.076920 0.228894 -0.292875 0.164829 0.232198 0.656898 0.140516 0.656623 0.179872 0.060083 0.442888 -0.535599 0.041923 -0.239593 -0.177990 0.496888 0.031448 -0.478858 -0.324389 -0.057804 -0.141046 -0.272260 0.279817 -0.077372 -0.150312 -0.050562 -0.024850 -0.276138 -0.250778 0.089610 -0.330259 -0.234831 0.347635 0.062822 -0.482942 -0.550672 -0.240457 -0.429456 0.015365 0.513908 -0.705240 0.024720 0.022000 0.396409 0.262130 0.192344 0.155635 0.091493 -0.070765 -0.171368 0.013833 -0.082313 -0.005384 0.592552 0.375956 -0.409620 -0.232930 -0.195975 -0.127068 0.144248 -0.114529 -0.203831 -0.352853 -0.395922 -0.150142 -0.153456 0.579072 0.211994 0.605890 -0.211561 0.123818 -0.019063 0.188136 0.049205 0.201247 0.136952 -0.574020 0.058292 -0.207121 0.364969 -0.373368 -0.231957 0.019120 -0.524963 -0.132674 0.534790 0.246271 0.137824 -0.353622 -0.285953 -0.374961 0.520825 0.006039 0.358828 0.242618 0.466742 -0.262321 0.225218 0.157193 -0.379418
61341216 -0.284767 -0.007969 0.282430 0.235899 -0.257102 0.342936 -0.996986 0.043330 -0.113844 -0.061806 0.006346 0.268572 -0.175079 0.130692 -0.179852 0.056960 0.622595 -0.073531 -0.381990 -0.128748 -0.258215 0.449443 0.311877 0.221961 -0.131421 -0.229898 -0.145319 -0.314860 0.297251 0.647938 -0.209101 -0.275129 -0.018221 -0.163282 0.046217 0.361477 0.308735 0.138621 -0.108922 -0.076619 -0.328200 -0.043477 0.059960 -0.321836 0.203755 0.451853 0.013280 0.273708 0.051423 -0.205987 -0.071304 -0.124585 -0.617513 -0.043462 0.049961 0.005619 0.122614 0.049124 -0.436878 -0.015009 0.617300 0.334735 -0.063893 0.004754 0.233729 -0.143436 -0.145437 -0.074788 -0.579041 0.515113 -0.008104 0.171166 -0.014307 -0.053139 0.343175 0.043735 -0.003998 -0.265243 -0.122085 -0.051833 0.192463 0.651600 0.046882 -0.673262 -0.464937 0.344114 0.341597 -0.321872 -0.168606 0.192052 0.144191 -0.801714 0.000876 -0.189333 0.274352 -0.511176 0.441843 0.208960 -0.264788 0.114450 -0.050768 0.273008 0.472736 0.537080 0.385040 0.563982 -0.138781 0.287251 -0.281887 0.178677 0.439317 -0.072158 0.228121 0.107799 0.485408 0.530397 -0.388369 0.460586 -0.395568 0.178122 -0.445046 0.329363 -0.044303 -0.191118 0.022054 0.348584 0.189656 -0.338868
61340495 -0.335019 0.164814 0.295509 0.120846 -0.224652 0.218912 -0.952091 -0.029214 -0.179663 -0.110190 -0.057559 0.167864 -0.115424 0.153073 -0.218884 0.056668 0.683071 -0.013315 -0.373005 -0.136268 -0.305981 0.440752 0.295162 0.294261 -0.186859 -0.129833 -0.079998 -0.374776 0.311906 0.569590 -0.054109 -0.382847 -0.062700 -0.145633 0.033897 0.375377 0.315059 0.145067 -0.257242 -0.081740 -0.261757 -0.022067 -0.069499 -0.133400 0.026237 0.386955 -0.024047 0.250590 0.059399 -0.166758 -0.049826 -0.334451 -0.693306 -0.185646 0.070358 0.009387 0.238104 0.126647 -0.387993 0.071857 0.514854 0.299788 -0.144888 0.010213 0.262879 -0.188963 -0.048048 -0.013555 -0.513635 0.705624 0.090200 0.173827 0.129315 0.016555 0.276325 -0.050998 0.038550 -0.364903 -0.163720 -0.108654 0.280304 0.642596 -0.043714 -0.587504 -0.391104 0.308268 0.240541 -0.120364 -0.232027 0.118770 0.133573 -0.847112 0.028652 -0.059857 0.344048 -0.493672 0.447096 0.240780 -0.139601 0.129269 -0.117259 0.152153 0.476064 0.530823 0.175380 0.457457 -0.162335 0.328131 -0.384197 0.112973 0.345855 -0.097854 0.152571 0.071041 0.407351 0.416693 -0.414276 0.381093 -0.354414 0.147904 -0.381699 0.564348 -0.075968 -0.168746 -0.028093 0.101775 0.042892 -0.395869
61341764 -0.006508 -0.141642 0.033758 0.203191 0.084537 -0.586391 -0.548950 -0.056350 -0.144788 0.477573 0.170165 0.255986 0.694040 -0.140151 -0.134700 -0.070011 -0.173588 -0.048638 -0.076836 0.160827 -0.202826 0.448512 -0.031573 0.171537 0.096112 0.095177 -0.285333 -0.439841 -0.294191 0.413961 -0.296178 0.275824 -0.198499 0.255961 -0.061924 0.493405 0.156938 -0.232531 -0.088117 0.011007 0.128896 -0.487065 -0.447123 0.216894 -0.278700 -0.583264 -0.041470 -0.357358 -0.441430 -0.476597 0.354112 -0.220762 0.095588 0.108573 0.295578 -0.689905 0.436041 -0.227545 -0.879737 -0.342149 0.160996 0.000893 -0.391725 -0.549617 0.115925 -0.412188 -0.479331 0.740132 -0.517574 0.223926 0.205443 0.068699 0.513863 -0.009890 -0.128055 -0.148845 0.037974 -0.313659 0.198757 -0.084947 -0.228243 0.696346 0.446449 -0.419277 -0.054508 -0.078310 0.128137 0.419643 -0.003390 -0.330375 -0.392787 -0.250059 -0.171769 0.193852 0.764182 -0.088326 0.538229 -0.052980 -0.164201 0.272521 0.297292 0.454207 0.335146 -0.034087 -0.295466 0.313277 -0.403027 0.563269 0.009005 0.349403 -0.097103 -0.349709 0.015343 0.189344 0.640124 0.508220 -0.563941 -0.019732 -0.088030 0.347039 0.247785 0.456101 -0.098294 0.339836 0.005391 0.303240 -0.069903 -0.007946
61365083 -0.111392 -0.468733 0.312606 -0.254984 0.113363 -0.526746 -0.490678 -0.175968 -0.109014 0.174721 -0.027959 -0.038972 0.323047 0.032422 -0.062901 0.143242 -0.112471 -0.101633 -0.186253 0.114544 -0.392196 0.247994 -0.014657 0.018576 0.219984 -0.126940 -0.522538 -0.127482 -0.155388 0.271091 -0.465929 0.093220 -0.035437 0.549130 0.041062 0.534978 0.318493 -0.014372 0.182083 -0.232464 0.055635 -0.325628 -0.144946 0.472119 -0.140598 -0.346898 -0.100089 -0.090600 -0.206092 -0.331293 0.247646 -0.075655 -0.089461 -0.005198 0.217161 -0.321794 -0.138707 -0.099869 -0.487179 -0.226598 0.473845 0.059786 -0.420877 -0.539984 -0.104471 -0.404834 -0.129504 0.812884 -0.651987 0.042298 0.069257 0.306506 0.320660 0.006675 0.042293 0.046332 0.048069 -0.383104 0.157681 0.013572 0.059677 0.499462 0.362187 -0.346919 -0.083463 -0.335000 -0.177709 0.281210 -0.003323 -0.374146 -0.450835 -0.423009 -0.028723 -0.214454 0.589442 0.247448 0.692701 -0.250547 0.023342 0.025339 0.073750 0.248229 0.256168 0.048685 -0.381409 0.062353 -0.317973 0.197482 -0.387308 0.090537 -0.124056 -0.524406 -0.048278 0.474269 0.354629 0.458436 -0.375937 -0.401059 -0.344348 0.402022 0.124954 0.408959 0.203410 0.499688 -0.399288 0.228079 0.183073 -0.150379
61340671 -0.596893 0.570882 0.303278 -0.074102 -0.143573 0.071992 -0.868557 -0.068074 -0.112841 0.049472 -0.153832 -0.018016 0.063691 0.152848 -0.066825 0.033544 0.414457 -0.270544 -0.290422 -0.290206 -0.031573 0.348738 0.419057 0.506716 -0.095479 0.069123 0.060269 -0.291153 0.105314 0.296880 -0.142687 -0.364270 -0.306483 -0.137164 0.253525 0.301268 0.242492 0.211768 -0.310104 0.207740 -0.068044 0.167136 -0.017463 -0.196109 0.231101 0.205557 0.010070 0.346812 0.163946 -0.160894 -0.054386 -0.469869 -0.952342 -0.171266 -0.115993 0.037533 0.131978 -0.073116 -0.604319 -0.067657 0.137055 0.349685 -0.234775 0.005531 0.273569 -0.332374 -0.089753 0.035896 -0.605782 0.772454 0.102432 0.212266 0.241393 0.068500 0.009191 -0.289300 -0.090390 -0.485148 -0.109814 -0.263847 0.271171 0.703289 0.089946 -0.088205 -0.151839 0.423846 0.178798 -0.155863 -0.202470 0.151348 -0.142541 -1.180436 -0.031999 0.108524 0.309509 -0.276425 0.422529 -0.066654 -0.150436 -0.092610 0.262398 -0.001388 0.509488 0.468973 0.210830 0.314891 -0.170477 0.314353 -0.379728 0.155833 0.061275 0.038763 0.138774 -0.024422 0.496956 0.382463 -0.327382 0.416759 -0.312912 0.170171 -0.191254 0.599392 -0.000375 -0.387323 -0.171932 0.031744 -0.237181 -0.436214
61425196 0.047837 -0.144092 0.176180 -0.785706 0.033165 -0.182544 -0.360458 -0.556462 -0.173137 -0.107066 0.181141 -0.383580 -0.144335 0.116099 0.200720 0.284898 0.040926 -0.008657 -0.615459 0.386722 -0.292921 0.207869 0.195070 -0.203581 0.104927 0.139993 -0.226833 0.259926 0.044168 0.067155 -0.126688 -0.040760 0.115981 0.509913 -0.083001 0.514330 0.161167 -0.001160 0.598925 -0.413890 -0.039308 0.003925 0.155996 0.253964 0.031151 -0.407084 -0.112752 0.266402 0.158896 -0.332530 0.149038 -0.206825 -0.393541 -0.034791 0.040869 -0.123056 -0.390126 0.224050 -0.300067 -0.091540 0.148278 0.196056 -0.590191 -0.636303 -0.461773 -0.467505 -0.032852 0.544596 -0.776946 0.230166 0.150225 0.440571 0.091790 0.176955 0.467095 -0.043799 -0.309146 -0.227024 -0.221532 -0.243661 0.241327 0.647459 0.006605 -0.405899 -0.196413 -0.191157 -0.046232 -0.032132 -0.050469 -0.105226 -0.121461 -0.237817 -0.192049 -0.164713 0.155084 0.151521 0.167959 -0.107830 0.117491 -0.273883 0.171076 -0.236612 0.321582 0.290663 -0.647016 0.304661 -0.024592 0.259426 -0.285176 -0.703766 0.287079 -0.647908 0.010284 0.258643 0.359595 0.011448 -0.077759 -0.133402 -0.674297 0.443362 -0.123450 0.038853 0.233605 0.340533 -0.479884 0.257893 0.027619 -0.315494
1522515136 -0.107384 0.594852 0.148029 -0.111159 -0.059903 0.292282 -0.167948 -0.246845 -0.287615 0.161954 0.381096 -0.063448 -0.137671 0.337600 -0.028235 -0.022668 -0.110585 -0.562296 -0.656909 0.169611 -0.131664 0.555585 -0.287283 0.335809 -0.165469 0.164662 -0.374699 -0.108710 -0.323787 -0.233367 0.080902 0.097394 -0.521855 0.094061 0.059202 0.745469 -0.168964 0.181026 0.074572 0.054910 0.140354 -0.223848 0.044150 0.275301 -0.432149 -0.052696 -0.077174 0.531095 0.085068 0.026728 0.011887 -0.545646 -0.491055 0.293648 -0.090145 -0.351186 0.020764 0.196743 -0.426019 -0.064823 0.407264 -0.161920 -0.469634 -0.523968 0.240388 -0.514213 -0.135426 0.014522 -0.550770 0.411363 -0.284382 -0.085992 0.642988 -0.457955 -0.048852 -0.710462 -0.323570 -0.428486 0.188458 0.242746 -0.465003 0.855689 -0.167370 -0.135148 0.389072 0.112396 -0.162329 0.023542 -0.015177 -0.329745 -0.148801 -0.551133 -0.229537 0.613050 0.029380 -0.267616 0.141882 -0.421013 -0.502455 0.043323 0.321228 -0.266973 -0.042502 0.037774 0.031610 0.748673 -0.042635 -0.143519 -0.578123 -0.199812 0.198116 0.324569 0.188415 -0.057934 0.628218 0.414403 -0.049424 0.183831 -0.209501 -0.206428 0.198432 0.205723 -0.208071 -0.089870 -0.131920 0.467856 0.649995 -0.039859
61486013 -0.090789 -0.389725 0.334294 -0.150092 0.074692 -0.586113 -0.590094 -0.183293 -0.121131 0.307849 0.041975 0.065832 0.503173 -0.046728 -0.065177 0.076382 -0.153232 -0.066222 -0.093247 0.144162 -0.350695 0.367275 -0.052320 0.069855 0.163423 -0.036075 -0.426211 -0.176136 -0.134254 0.304029 -0.467786 0.103856 -0.159577 0.507690 0.039079 0.544870 0.314362 -0.038707 0.030625 -0.208786 0.139705 -0.373299 -0.199684 0.375562 -0.244581 -0.318333 0.016238 -0.162851 -0.307284 -0.360003 0.256638 -0.095789 -0.070462 -0.023313 0.283514 -0.463093 0.027260 -0.179451 -0.654292 -0.329329 0.459922 0.047111 -0.373849 -0.572549 -0.014830 -0.433243 -0.277185 0.873524 -0.670037 0.104040 0.085958 0.209154 0.407455 -0.054679 -0.028368 -0.024625 0.037961 -0.448437 0.169517 0.042848 0.015134 0.560405 0.403146 -0.258610 -0.043516 -0.293389 -0.119193 0.425334 0.032520 -0.414996 -0.499610 -0.399412 -0.035935 -0.160172 0.628041 0.254852 0.710449 -0.196057 -0.038019 0.142595 0.078320 0.312473 0.253872 0.025619 -0.311886 0.078656 -0.374054 0.191031 -0.365502 0.147817 -0.231548 -0.462883 -0.050828 0.490847 0.502003 0.494690 -0.474412 -0.372051 -0.356782 0.359222 0.136799 0.449262 0.097744 0.485215 -0.367606 0.237423 0.132268 -0.061949
1038913936 0.076759 -0.191213 0.403855 -0.238107 0.302693 0.274134 -0.565711 -0.119821 -0.292667 -0.015364 0.710996 0.138737 -0.137225 0.219721 -0.303235 0.050895 0.137550 -0.074493 -1.186578 0.504660 0.080465 0.396785 0.424585 0.164050 0.084623 -0.293371 -0.119726 0.013054 0.115701 0.662705 -0.493193 0.175960 0.409782 -0.069844 -0.046385 0.556710 -0.055219 -0.137651 0.295959 0.088408 0.075465 -0.314259 0.005514 0.020558 0.015701 0.155571 -0.020151 0.384264 0.065603 -0.240064 0.226334 -0.167267 -0.415100 0.433705 0.280889 0.036884 -0.067728 -0.374033 -0.545308 -0.065662 1.106515 0.563284 -0.357942 -0.210634 -0.092540 0.015904 -0.174653 -0.100412 -0.173085 -0.108834 0.052106 0.115703 0.196760 -0.514310 0.149935 -0.117785 -0.377991 0.084180 -0.217109 -0.020986 -0.127620 0.568398 -0.454805 -1.092064 -0.171473 0.258195 0.216427 -0.147941 -0.451784 -0.164279 -0.258583 0.002013 -0.151367 -0.005179 0.582589 -0.844887 0.955844 0.338894 -0.452903 0.351782 -0.295100 0.589822 0.513391 0.165110 0.300244 0.572419 0.047430 0.255896 -0.353402 0.319086 0.530724 0.387463 0.212640 -0.002351 0.351361 0.384037 -0.489062 0.362104 -0.405019 0.189283 0.125455 0.256279 0.096352 0.354807 -0.217432 0.398959 0.951334 0.169653
61357906 0.777449 0.207771 0.345045 0.465494 -0.214501 -0.297331 -0.158072 -0.240744 -0.272516 -0.342127 0.022877 0.197730 0.125143 -0.279860 -0.731475 -0.095204 0.434015 -0.215278 -0.423381 -0.047676 0.426382 0.239417 0.503783 0.207796 -0.209995 -0.008114 -0.326590 -0.042980 0.134004 -0.358372 -0.372517 -0.509867 0.077411 -0.034775 -0.516674 0.507656 0.472510 0.099869 -0.340661 0.256839 -0.002770 -0.231666 -0.281581 -0.265260 -0.357775 0.102406 -0.586332 -0.250185 0.141805 -0.265694 0.010984 -0.081267 -0.144662 0.062369 -0.333706 -0.035366 -0.262680 0.181977 -0.620051 -0.055758 0.616594 0.067689 -0.430855 -0.488762 0.292632 -0.228379 -0.123625 -0.081297 -0.421372 0.471748 -0.643914 0.309381 0.623015 0.078984 -0.305333 -0.288780 -0.084029 0.279054 0.543811 -0.353075 -0.137043 0.581368 0.205573 -0.413139 0.298964 -0.518971 -0.006229 -0.443165 -0.355892 -0.061595 -0.125091 -0.554833 -0.206343 0.725102 0.363555 -0.280742 -0.150790 -0.084968 0.491579 0.051016 0.111450 -0.020958 -0.114125 0.645842 -0.172559 0.176092 0.140253 0.422203 -0.494808 0.021995 0.000397 -0.437048 0.623641 0.318900 0.513378 0.151609 -0.573936 0.042011 0.240456 -0.014481 -0.395891 0.530238 -0.046119 0.369512 -1.043882 0.381200 0.306431 -0.200160
61339825 -0.020668 -0.019831 0.649761 -0.108312 0.336430 0.212446 -0.187465 -0.227652 -0.500340 0.204782 0.018887 0.276421 0.268731 0.123780 0.103514 -0.155195 0.059783 0.121646 -0.045918 0.314930 0.298532 0.263723 0.317216 0.181403 -0.034942 -0.269738 -0.136371 -0.039262 0.444796 0.310125 -0.522906 0.225849 0.051110 0.010671 0.157477 0.046411 0.483495 0.259898 0.370539 -0.535818 0.112322 0.029763 0.339362 -0.132791 -0.079834 -0.395005 0.278461 -0.320499 0.043551 -0.629490 -0.014737 -0.082758 -0.492523 -0.194433 -0.462048 0.024397 0.271285 -0.375367 -0.340373 -0.106366 0.763202 0.348405 -0.133980 -0.492314 -0.089046 -0.220075 0.255892 0.028024 -0.451216 0.153052 -0.020221 -0.055647 0.957360 0.114953 -0.299016 -0.259894 -0.253885 -0.180344 -0.134895 0.040652 -0.470688 0.568188 0.181092 -0.713903 0.292410 -0.018445 -0.087993 -0.221915 0.118697 -0.235837 -0.253555 -0.404248 -0.404389 0.510640 0.204653 0.080930 0.246284 0.289827 -0.136288 0.058280 0.139291 0.172929 0.133281 0.385954 0.800209 0.733849 0.269097 0.808815 -0.375527 -0.556197 -0.268809 0.069445 0.070606 0.228810 0.229560 0.186083 0.167570 -0.123078 -0.209352 0.312966 0.163122 0.172194 -0.560369 0.454825 0.123041 -0.195363 0.198388 0.399251
61445832 -0.436106 0.019287 0.215780 0.132607 -0.217504 -0.800199 -0.095236 0.079140 -0.311735 -0.212002 0.240312 0.076434 0.205134 0.355686 -0.418669 0.169025 -0.347041 -0.391748 -0.249819 0.271998 0.054382 0.831229 -0.103870 -0.095255 0.103198 0.032913 0.190435 0.136660 -0.043496 -0.183662 -0.371446 0.086250 -0.336099 -0.375414 -0.100562 -0.003175 0.326777 -0.063088 -0.371537 -0.053107 0.103486 -0.230072 -0.093425 -0.098549 -0.301146 0.031470 0.120348 -0.129571 -0.236397 -0.438306 -0.144733 0.341237 0.300872 -0.137686 -0.325880 -0.388353 0.303801 0.518097 -0.402700 -0.250263 0.516342 0.203827 -0.445914 -0.528246 -0.115330 -0.223283 -0.193963 0.192318 -0.834962 0.152841 -0.418950 -0.156952 0.352875 -0.034190 -0.089075 -0.257095 -0.311627 0.093442 -0.374560 0.055683 -0.039879 0.521066 -0.247815 -0.211497 0.241506 0.576922 -0.346252 -0.304077 -0.643826 -0.307591 0.233348 -0.471685 0.031648 0.568277 -0.312263 -0.548422 0.271925 0.266204 0.442419 -0.088056 0.683471 -0.164795 0.268846 0.842989 0.137346 -0.048948 -0.113727 0.730787 -0.074134 -0.140642 0.275062 -0.144654 -0.090268 -0.089027 -0.146857 0.069350 -0.613351 -0.237294 -0.402944 -0.004412 -0.366643 0.322578 0.098239 0.324377 -0.168378 0.090125 0.281217 -0.339193
61339720 -0.018106 0.377984 0.261214 0.129810 -0.077155 0.173368 -0.104401 -0.188320 -0.312538 -0.007751 0.330527 -0.144340 -0.279167 0.270659 0.104728 0.040592 -0.236202 -0.492122 -0.609032 0.035068 -0.133220 0.518232 -0.403251 0.272512 -0.140908 0.067234 -0.555493 -0.093494 -0.184207 -0.202511 -0.021386 0.002874 -0.462400 0.125113 0.010080 0.755466 -0.392445 0.220260 0.064689 0.032357 0.118737 -0.270997 -0.050718 0.197249 -0.398154 -0.120849 -0.222928 0.354904 0.062436 -0.130362 0.060156 -0.525074 -0.219168 0.325091 -0.067583 -0.406210 0.070594 0.253195 -0.424762 -0.059049 0.416996 -0.399746 -0.399692 -0.349578 0.198109 -0.601336 0.057814 0.078048 -0.380243 0.283439 -0.464227 -0.103106 0.555012 -0.450410 0.050653 -0.724421 -0.140033 -0.305761 0.239889 0.163038 -0.593234 0.761139 -0.032949 -0.292100 0.484352 -0.097005 -0.215637 -0.056897 -0.095535 -0.398867 -0.091440 -0.392815 -0.098272 0.660029 0.064890 -0.458962 -0.078804 -0.560824 -0.251341 0.019204 0.258496 -0.330853 -0.185809 0.302327 -0.003839 0.683080 0.022193 -0.089369 -0.408164 -0.331008 0.234821 0.309586 0.316871 0.009420 0.533446 0.453756 -0.110585 0.090846 -0.094087 -0.325598 0.273245 0.056786 -0.203333 -0.039612 -0.236343 0.522795 0.713148 -0.049898
61339957 -0.340683 0.515948 0.018771 -0.100289 -0.245196 0.179473 -0.687106 -0.288602 -0.141743 0.033219 -0.192455 0.128160 0.059064 0.251361 -0.337785 -0.030238 0.661864 -0.324287 -0.356605 -0.133275 -0.375578 0.430055 0.134688 0.480183 -0.174476 0.028964 0.025029 -0.500603 0.130304 0.120346 0.046069 -0.253808 -0.299521 -0.083538 0.018103 0.280263 0.346404 0.195275 -0.304151 0.136193 -0.133194 0.132460 -0.035928 0.189465 -0.205685 0.394235 -0.166456 0.473539 0.043995 0.119969 -0.061248 -0.523024 -0.830399 -0.158263 0.051525 0.059718 0.181214 0.205338 -0.291187 -0.004278 0.159285 0.305749 -0.321296 -0.321936 0.151535 -0.177885 -0.086508 -0.166160 -0.644204 0.682235 -0.000715 0.228789 0.357330 0.052524 -0.111431 -0.300299 -0.251331 -0.355237 -0.122255 0.087761 0.379299 0.619050 -0.168793 -0.060479 -0.215140 0.314363 0.113634 0.059976 -0.456083 0.031217 -0.057485 -0.937548 -0.197206 0.213885 0.281446 -0.450296 0.516193 0.094203 -0.285664 0.093790 0.153121 -0.169461 0.434628 0.368204 0.084147 0.572294 -0.252271 0.106182 -0.508523 0.028809 0.131899 -0.171933 0.166336 -0.161661 0.436778 0.258953 -0.392407 0.634933 -0.529605 0.139106 -0.385122 0.546639 -0.159785 -0.291490 -0.232626 0.010761 0.091662 -0.402179
61339761 -0.401373 0.338443 0.611168 -0.086552 0.389623 0.255028 0.021867 -0.424463 -0.653920 0.455106 0.044635 0.353875 0.398057 -0.131089 -0.191809 0.039659 -0.066468 0.232887 -0.259032 0.228795 0.445626 0.413282 0.270732 -0.219224 0.323090 -0.644678 -0.447023 -0.139946 0.404662 0.412977 -0.477848 -0.054984 0.067200 -0.121946 -0.216465 -0.250860 0.299609 0.231865 0.279870 -0.283991 0.123526 0.259124 0.229228 -0.057510 -0.025409 -0.120809 0.018699 -0.025690 -0.007562 -0.769236 -0.302833 -0.453974 -0.087408 -0.347739 -0.434046 -0.097762 0.160090 -0.390451 -0.427979 -0.210085 0.550989 -0.225437 0.014662 -0.680271 -0.215422 -0.323801 0.582236 -0.177352 -0.340643 -0.145577 -0.082560 -0.171653 0.389927 0.183671 -0.186987 0.062114 -0.120547 0.075184 -0.369031 -0.378873 -0.329333 0.414378 -0.033477 -0.451408 0.071818 0.034758 -0.294676 -0.275103 0.059883 -0.354592 -0.033583 -0.312372 -0.181260 0.671752 0.360689 -0.109924 -0.038380 0.028249 0.076470 -0.197097 0.323161 0.225192 0.248686 0.264404 0.317195 0.701652 0.286711 0.865179 0.021594 -0.452072 -0.025613 -0.060598 0.235487 0.299412 -0.009404 0.364427 -0.173251 -0.047804 -0.529787 0.427985 -0.100490 0.124390 -0.321915 0.440371 0.111567 0.203159 0.009220 0.070584
61339940 -0.576971 0.687033 0.106660 0.037905 -0.085020 -0.169002 -0.450652 -0.291954 0.273906 0.380703 0.121875 -0.015371 0.237036 0.211485 -0.186759 -0.015781 0.283447 -0.589741 -0.514345 -0.079051 0.059839 0.413081 0.254979 0.333694 0.191198 0.137314 -0.134732 -0.165313 -0.243952 -0.266665 -0.334155 -0.070155 -0.321470 -0.128788 -0.002148 0.373950 0.040719 0.299103 0.065924 0.274353 0.340043 0.256513 0.103520 0.346945 0.090323 0.452428 0.183239 0.329548 0.180603 0.159263 0.182751 -0.458234 -0.771508 0.189132 0.182892 0.045460 -0.070959 -0.265498 -0.516404 -0.275242 0.159157 0.229200 -0.207248 -0.874316 -0.231680 -0.359003 -0.183767 -0.060172 -0.803875 0.657253 0.033389 -0.111530 0.469774 -0.161078 -0.288714 -0.452394 -0.393462 -0.113825 0.011620 0.093399 -0.008821 0.857100 -0.049447 0.141509 0.237640 0.273156 0.034912 -0.088216 -0.212884 -0.284396 -0.138733 -1.009005 -0.132841 0.418204 0.363983 -0.081771 0.154830 0.004492 -0.135486 -0.066376 0.587278 -0.117552 0.500198 -0.107079 0.340981 0.381886 0.267075 0.075392 -0.308101 -0.294886 -0.292754 0.142493 0.065339 -0.283413 0.815011 -0.044679 -0.301360 0.556566 -0.574370 0.266808 0.042380 0.324177 -0.096483 -0.215371 -0.114883 0.036881 0.113550 -0.012659
61344151 -0.577989 0.661625 0.160604 -0.054690 0.012496 -0.064912 -0.521445 -0.433263 0.192923 0.292344 -0.031017 0.061735 0.213423 0.141256 -0.227886 -0.158860 0.429163 -0.529513 -0.525204 -0.088346 -0.019373 0.343463 0.298878 0.373849 0.116400 0.152772 -0.118221 -0.318329 -0.242479 -0.246557 -0.168778 -0.114672 -0.269981 -0.110348 -0.002926 0.336918 0.093310 0.224744 -0.091087 0.275674 0.269718 0.235559 0.019794 0.408463 -0.044182 0.514627 0.095647 0.401196 0.245380 0.256735 0.159988 -0.520167 -0.848074 0.007017 0.070712 0.092042 -0.025808 -0.147752 -0.478597 -0.280199 0.153182 0.387542 -0.213544 -0.764232 -0.116791 -0.232231 -0.266955 -0.127664 -0.666522 0.768738 0.101004 -0.038170 0.509461 -0.134755 -0.371701 -0.396447 -0.429183 -0.140905 -0.073230 0.095528 0.149527 0.749894 -0.131010 0.110290 0.133388 0.319240 0.111765 0.081298 -0.271251 -0.181653 -0.061446 -0.951400 -0.153017 0.425231 0.442681 -0.200761 0.316693 0.113235 -0.098158 0.028980 0.419389 -0.115598 0.442771 -0.116764 0.207895 0.379841 0.208351 0.252450 -0.447803 -0.264010 -0.339919 0.098805 -0.029913 -0.303221 0.734778 -0.049787 -0.423081 0.551267 -0.657466 0.319348 -0.073068 0.480295 -0.026662 -0.194844 -0.197279 -0.119984 0.107910 -0.089355
61385597 -0.021373 -0.322808 0.157014 0.004257 0.122505 -0.628363 -0.599633 -0.147026 -0.108537 0.387594 0.159879 0.186808 0.609217 -0.109254 -0.151037 -0.006760 -0.107765 -0.127825 -0.108294 0.121860 -0.240611 0.450739 -0.090710 0.162018 0.079820 0.030233 -0.340834 -0.287491 -0.236640 0.389321 -0.372975 0.210230 -0.204842 0.373164 0.012815 0.443718 0.205041 -0.159894 -0.119254 -0.100342 0.136773 -0.477376 -0.328418 0.268039 -0.278494 -0.488333 0.016985 -0.270548 -0.355112 -0.436173 0.222492 -0.166450 0.081735 0.004218 0.339305 -0.622293 0.288553 -0.236274 -0.753583 -0.329273 0.350532 0.016411 -0.341898 -0.617814 0.028407 -0.439459 -0.460763 0.741642 -0.579907 0.163159 0.100903 0.128204 0.477943 -0.057729 -0.136998 -0.141378 0.072109 -0.391962 0.225886 0.039790 -0.177683 0.669844 0.375960 -0.353316 0.033843 -0.206977 -0.016439 0.440599 0.042764 -0.393652 -0.438381 -0.327025 -0.126293 0.036936 0.743331 -0.002714 0.681384 -0.103920 -0.057466 0.179312 0.132205 0.427956 0.296256 -0.063080 -0.301971 0.178728 -0.374290 0.446681 -0.090777 0.268347 -0.204551 -0.364350 0.028795 0.385791 0.566761 0.550064 -0.572213 -0.178252 -0.145641 0.353934 0.180775 0.414304 0.029952 0.330236 -0.181315 0.243533 -0.040018 0.037134
61340039 -0.501549 0.565967 -0.096196 -0.211660 -0.125736 -0.170131 -0.423610 -0.240593 0.150692 0.346470 -0.043220 0.000980 0.386547 0.303315 -0.337920 0.016953 0.333761 -0.579720 -0.409244 -0.040689 0.031446 0.323492 0.406198 0.366251 0.207224 -0.029563 0.221933 -0.219880 -0.088117 -0.026535 -0.354870 -0.127478 -0.197321 -0.184084 -0.019530 0.097506 0.407960 0.260694 0.052095 0.336017 0.060136 0.307743 0.155639 0.021220 0.253280 0.299325 -0.013629 0.263028 0.173351 0.016707 0.076439 -0.476862 -0.882591 0.051689 0.062335 0.241157 -0.070735 -0.277136 -0.400961 -0.240688 -0.012158 0.606988 -0.421041 -0.690059 -0.217046 -0.158595 -0.208668 -0.119813 -0.925518 0.459897 0.113826 0.137775 0.207129 0.101301 -0.427410 -0.241599 -0.454279 -0.100229 -0.194802 0.038048 0.354916 0.643485 -0.062892 0.140612 -0.141122 0.410357 0.065268 -0.231594 -0.287418 -0.095366 -0.358550 -1.093966 -0.299528 0.211734 0.358953 -0.189847 0.504699 0.143825 -0.181951 -0.197399 0.532114 -0.093622 0.628938 0.142879 0.187367 0.336634 -0.035195 0.318524 -0.261468 0.002871 -0.197443 -0.063106 0.144367 -0.285191 0.522774 0.039890 -0.434479 0.710750 -0.526314 0.414008 -0.182057 0.398950 0.013452 -0.143788 -0.250666 -0.056108 -0.183078 -0.134883
1038913931 0.202000 -0.347731 0.263687 0.069962 -0.146970 0.306307 -0.604236 0.151044 -0.171944 0.254845 0.698518 0.147724 -0.107826 -0.023840 -0.239721 0.159925 0.356117 -0.088885 -0.754927 0.337268 0.021335 0.658802 0.263539 -0.031132 0.117454 -0.606249 -0.270027 -0.152178 0.266122 0.754788 -0.541492 0.037004 0.107357 -0.070983 -0.180567 0.596149 0.064007 -0.041814 0.208749 -0.092627 -0.164783 -0.372301 0.282322 -0.347401 0.091400 0.272640 0.089218 0.090425 -0.056349 -0.520933 0.177673 0.118523 -0.261461 0.297274 0.086034 -0.037995 0.033777 -0.162550 -0.639911 -0.152792 1.175819 0.286580 -0.192356 -0.178232 -0.019582 0.114706 -0.123720 0.016654 -0.477773 -0.061329 -0.296345 0.171920 -0.144430 -0.352785 0.281891 0.230907 0.034029 0.008494 -0.063434 -0.053916 -0.009364 0.592507 0.041875 -1.171633 -0.324624 0.239763 0.086121 -0.416682 -0.155617 0.087654 -0.071369 -0.398059 -0.132544 -0.123460 0.301420 -0.667175 0.676258 0.331523 -0.621686 0.081511 -0.158511 0.685689 0.517587 0.426051 0.385068 0.654850 -0.301761 0.294682 -0.151172 0.238037 0.812843 -0.159646 0.482818 0.400962 0.311243 0.680386 -0.290712 0.122200 -0.330342 0.338264 -0.112113 0.038465 -0.040530 0.127714 -0.125076 0.538013 0.436819 0.016386
1522224093 0.009085 0.126732 0.498683 0.017411 -0.122324 -0.064307 0.024543 -0.100154 -0.026945 -0.117859 0.128682 -0.411187 -0.275996 0.188780 -0.029968 0.021897 -0.003914 -0.664066 -0.442135 -0.108265 0.025642 0.182456 -0.169921 0.254746 -0.047825 -0.034851 -0.215404 -0.090672 -0.454645 -0.264150 -0.078596 -0.022211 -0.288912 0.136031 -0.274033 0.633458 -0.344818 0.158616 0.273930 0.550866 0.162309 -0.137905 -0.110237 0.212857 0.053412 -0.184260 -0.139810 -0.182857 0.399246 -0.148907 0.262251 -0.418981 -0.464707 0.475321 -0.244726 -0.066100 -0.137382 0.038576 -0.488714 -0.270311 0.136286 0.100877 -0.419515 -0.466827 0.108062 -0.701528 -0.271987 0.058438 -0.426195 0.516557 -0.303111 0.248538 0.302140 -0.479948 -0.405165 -0.596938 -0.251029 -0.128768 0.386836 0.075239 -0.535626 0.463985 0.067404 0.019891 0.456679 -0.197507 -0.010611 -0.432926 -0.047969 -0.536063 -0.204899 -0.579564 0.074081 0.677406 0.039235 -0.425673 -0.014735 -0.104498 0.002229 -0.104566 0.326831 -0.400241 -0.356816 -0.005697 -0.091186 0.472996 0.238912 0.267840 -0.310693 -0.247679 -0.088955 0.399409 0.239616 -0.108983 0.335541 0.239481 -0.481576 0.436965 0.119234 -0.339672 0.389236 0.023417 0.002815 0.193950 -0.257420 0.273866 0.418237 0.100043
61365039 -0.092615 -0.328994 0.368152 -0.237266 0.119608 -0.344427 -0.277751 -0.135442 0.131504 -0.112868 -0.287095 -0.292033 -0.222083 0.019642 0.136443 0.151185 -0.100016 -0.189319 -0.361080 0.041803 -0.317334 -0.062392 0.214927 -0.311595 0.399577 -0.104583 -0.316779 -0.090927 0.160707 0.174703 -0.264046 0.115201 0.086292 0.592850 0.067332 0.511486 0.433686 0.071778 0.614052 -0.159153 -0.072905 -0.020980 -0.284058 0.751000 0.029914 -0.300762 -0.309425 -0.277369 -0.207248 -0.262995 0.336109 -0.104612 -0.345051 0.081278 -0.042097 -0.084046 -0.400817 0.189865 -0.389342 -0.069967 0.382181 0.276819 -0.402145 -0.157897 -0.168173 -0.369439 0.223720 0.601580 -0.577287 0.194020 -0.111959 0.714933 0.190885 0.033611 0.049376 0.033821 -0.255318 -0.029937 0.159545 0.054316 0.189325 0.322523 0.183468 -0.433693 -0.351816 -0.417942 -0.036243 -0.204051 -0.190419 -0.493508 -0.408275 -0.398658 0.240791 -0.124576 0.408480 0.185122 0.393768 -0.204803 0.111750 -0.018501 0.324495 0.094849 0.016804 0.228440 -0.456603 0.414881 0.006185 0.003274 -0.136211 -0.156605 0.035941 -0.462060 -0.290804 0.206425 0.173541 0.159318 -0.184244 -0.060651 -0.449403 0.130000 0.418229 0.352707 0.220631 0.482044 -0.385740 0.250111 0.395015 -0.360831
61425203 0.103682 -0.297350 0.165679 -0.647496 0.068572 -0.292505 -0.326345 -0.393215 -0.120194 -0.012080 0.045498 -0.356591 -0.098714 0.006180 0.145229 0.315456 -0.064762 0.087708 -0.518206 0.284504 -0.313631 0.153948 0.193463 -0.180951 0.234354 0.040149 -0.386669 0.012028 0.028138 0.171098 -0.125504 0.065156 0.097828 0.528723 -0.071366 0.579117 0.087945 0.030716 0.634925 -0.441377 0.059183 -0.007407 0.011969 0.394923 0.004204 -0.474001 -0.232555 0.162855 0.046979 -0.249336 0.213351 -0.156830 -0.366291 0.020433 -0.043391 -0.201797 -0.351289 0.170780 -0.247158 -0.212741 0.144017 0.199643 -0.560129 -0.513963 -0.410611 -0.467778 0.110071 0.607779 -0.772493 0.193536 0.165211 0.524542 0.073074 0.197448 0.380368 0.014196 -0.190190 -0.185133 -0.160866 -0.190798 0.221354 0.634082 0.173230 -0.322004 -0.254968 -0.166687 -0.037249 -0.036748 -0.149498 -0.162941 -0.157534 -0.298385 -0.145441 -0.151784 0.286926 0.186147 0.325335 -0.156825 0.089265 -0.185761 0.224573 -0.149984 0.300175 0.307203 -0.601679 0.281897 -0.135344 0.258488 -0.274580 -0.559224 0.195799 -0.587508 -0.102726 0.252298 0.346796 0.000638 -0.068103 -0.177950 -0.638548 0.484810 -0.025743 0.122755 0.218554 0.337824 -0.326238 0.290097 0.111379 -0.442033
61344149 -0.576703 0.585250 0.099566 0.048729 -0.068090 -0.231001 -0.274262 -0.186547 0.266715 0.447611 0.274212 -0.187741 0.251653 0.370351 -0.345062 0.138988 0.153951 -0.538169 -0.370499 0.061575 -0.026744 0.517626 0.211783 0.270704 0.213645 -0.186131 -0.199443 -0.001418 -0.256165 -0.224604 -0.468157 -0.123006 -0.392317 -0.273295 -0.107064 0.348032 -0.021702 0.315269 0.153987 0.280986 0.340782 0.192990 0.162600 0.148038 0.222234 0.372668 0.220707 0.141131 0.252613 0.041690 0.179739 -0.426785 -0.708524 0.317416 0.258145 0.069103 -0.012411 -0.396668 -0.434298 -0.294946 0.148053 0.137346 -0.226374 -0.998120 -0.354980 -0.457609 -0.107906 -0.101320 -0.881673 0.417892 0.050101 -0.122508 0.338878 -0.113504 -0.359911 -0.498742 -0.363464 -0.110513 0.070812 0.134955 -0.178775 0.975339 -0.176302 0.142727 0.304621 0.098733 -0.041653 -0.310756 -0.134548 -0.359695 -0.343330 -0.925731 -0.045233 0.465853 0.275904 -0.115875 0.094159 0.068232 -0.229379 -0.316217 0.520045 -0.073236 0.583987 -0.002946 0.397181 0.279499 0.263875 0.016245 -0.284918 -0.252200 -0.194762 0.402860 0.144161 -0.255180 0.751920 -0.049345 -0.334837 0.722051 -0.287724 0.024423 0.071354 0.149192 -0.176882 -0.068196 0.067211 0.182115 0.057632 0.092515
1522515161 -0.186011 0.354848 0.215072 0.146706 -0.087077 0.170627 -0.117009 -0.269173 -0.417181 -0.000973 0.237054 -0.074752 -0.381245 0.363894 0.234416 0.099650 -0.279670 -0.479200 -0.638654 0.006407 -0.341049 0.589888 -0.473467 0.183818 -0.174666 -0.010981 -0.631299 -0.186651 -0.023998 -0.064473 -0.103113 0.001324 -0.479255 0.036822 0.153819 0.741509 -0.411496 0.281393 0.073006 -0.181412 0.070545 -0.248319 -0.064369 0.309512 -0.429385 -0.086131 -0.369138 0.393597 -0.092787 -0.215031 0.123536 -0.501725 -0.180682 0.190216 0.016221 -0.511668 0.183619 0.389917 -0.414875 -0.006538 0.437952 -0.451880 -0.382151 -0.268185 0.193970 -0.542228 0.212237 0.147404 -0.304981 0.225666 -0.575786 -0.137863 0.585887 -0.454331 0.247116 -0.676538 -0.127853 -0.288653 0.112456 0.160566 -0.502447 0.793294 0.006846 -0.499535 0.454527 -0.110631 -0.333729 0.131148 -0.249190 -0.374008 -0.144579 -0.297496 -0.096289 0.548923 0.220122 -0.661609 -0.038366 -0.665871 -0.214469 0.024222 0.343327 -0.369557 -0.023646 0.413240 0.009758 0.786479 -0.090122 -0.149974 -0.420518 -0.401053 0.368790 0.273618 0.299351 -0.006498 0.492335 0.527092 -0.077397 0.012739 -0.268822 -0.264793 0.162907 0.023264 -0.191839 -0.006921 -0.196287 0.563567 0.801657 -0.116494
61341774 0.236090 -0.106196 0.320862 -0.208773 0.438542 -0.096466 -0.292761 -0.399374 -0.771548 -0.095558 0.622249 0.104966 -0.160912 0.514339 -0.467955 -0.120735 -0.203227 -0.110335 -1.153073 0.730283 0.234856 -0.052202 0.579148 0.329715 -0.064966 -0.085253 -0.138627 0.217220 0.171171 0.346009 -0.415678 0.039128 0.586685 -0.124129 0.111843 0.505443 0.063325 -0.106819 0.771541 0.281302 0.288706 -0.137654 -0.106844 0.180875 -0.110689 -0.256838 -0.056732 0.357690 -0.026830 -0.269006 0.075536 -0.407573 -0.360833 0.658314 -0.053304 -0.043374 -0.210645 -0.401498 -0.374711 0.178618 0.828065 0.360673 -0.396491 -0.355913 -0.082271 -0.191051 -0.159981 -0.038790 -0.075074 0.010337 0.099242 0.183239 0.296260 -0.703637 0.194300 -0.290286 -0.609722 0.096188 -0.054840 -0.381321 -0.326237 0.517154 -0.188400 -1.092151 0.080766 0.178121 0.436184 0.021021 -0.719409 -0.540743 -0.489767 0.189216 -0.461044 0.250775 0.720154 -0.412118 0.822775 0.180697 -0.273519 0.286595 -0.033906 0.066861 0.541395 0.301238 0.104504 0.789590 0.355577 0.186686 -0.260422 0.043258 0.091231 0.294324 0.155496 -0.093617 0.340533 0.285648 -0.447001 0.448304 -0.225269 0.372543 0.313759 0.342461 0.115480 0.494256 -0.272869 0.825747 1.260975 0.374474
61466317 -0.274454 0.218514 0.248946 -0.141804 -0.225202 -0.007704 -0.178800 0.172995 0.000851 0.124936 0.234661 -0.324989 -0.031566 0.354839 0.127034 0.198009 -0.069849 -0.739268 -0.373328 -0.045255 0.142051 0.179148 -0.030017 0.190016 0.084581 -0.017677 0.214697 0.023491 -0.311434 0.262933 -0.335342 -0.084757 -0.201754 -0.212435 -0.035929 0.355444 0.006972 0.305849 0.383757 0.583340 -0.046450 0.153007 0.276247 -0.562969 0.741586 -0.355544 0.027247 -0.161437 0.332040 -0.597186 0.121441 -0.332863 -0.624815 0.368776 -0.153558 -0.026241 -0.156038 -0.307767 -0.583725 -0.266551 0.089454 0.522040 -0.565629 -0.190914 0.105522 -0.541759 -0.142665 0.281406 -0.833199 0.202545 -0.101773 0.116391 -0.110372 -0.259048 -0.222145 -0.273100 -0.199697 -0.337056 -0.024729 -0.079024 -0.155483 0.433376 0.301218 -0.144663 -0.023246 0.268244 0.018366 -0.669326 0.301074 -0.384788 -0.472533 -0.888867 -0.029080 0.145370 0.003524 -0.295625 0.214975 -0.020686 -0.201888 -0.353152 0.538062 -0.338765 0.150770 0.153446 0.025422 0.452844 0.005991 0.445827 -0.068168 0.167615 0.234314 0.534542 0.415650 -0.091886 0.235563 0.503813 -0.393511 0.511597 0.235336 0.052938 0.315372 -0.036165 0.151288 0.153275 0.106121 0.364494 -0.102157 0.158999
61364088 -0.082461 -0.273070 0.035312 0.524424 -0.177433 -0.859561 0.012526 0.173744 -0.236075 -0.451803 0.118181 0.172004 0.059303 0.414210 -0.462202 0.166714 -0.292278 -0.500147 -0.305201 0.368526 0.013791 0.534903 0.056669 0.213241 0.034621 0.020736 0.453902 0.089667 0.143526 -0.136057 -0.265585 0.144428 -0.165224 -0.213861 -0.228403 0.219219 0.551461 -0.255128 -0.518886 -0.025629 0.129425 -0.377785 -0.261290 -0.342834 -0.498225 -0.049368 0.064216 -0.077024 -0.203322 -0.329075 -0.078545 0.265759 0.228353 -0.205266 -0.406452 -0.159689 0.206165 0.520688 -0.419798 -0.261352 0.456707 0.240503 -0.330270 -0.626211 -0.017289 -0.176613 -0.077707 -0.060065 -0.758839 0.314863 -0.527338 -0.000276 0.441746 0.109493 -0.181895 -0.059835 -0.295539 0.026847 -0.196243 0.139555 -0.103611 0.459276 -0.245728 -0.242126 0.288705 0.354746 -0.387081 -0.438513 -0.454592 -0.011232 0.138446 -0.659535 -0.220375 0.616981 -0.196338 -0.533745 0.209057 0.213550 0.401214 -0.092043 0.606609 -0.244058 0.376727 0.878133 0.123071 0.087969 0.118149 0.811395 -0.149174 -0.121517 0.254429 -0.172964 0.124703 -0.032985 0.150387 -0.002823 -0.648099 -0.211000 -0.160935 -0.130746 -0.453483 0.329100 0.106470 0.472843 -0.143077 0.293985 0.384440 -0.283287
367017256 -0.177689 0.182344 -0.106882 -0.048900 -0.491292 -0.026824 -0.229093 -0.380996 -0.472557 -0.096900 0.653863 -0.080654 0.434435 0.440473 -0.259528 -0.057692 -0.294088 0.016741 -0.398189 0.528990 0.005372 0.466229 0.013528 -0.109741 -0.347973 0.094888 0.404707 0.249553 -0.070915 -0.031621 -0.050586 -0.372828 0.277143 0.104389 -0.103058 0.564051 0.395519 -0.392011 0.381761 -0.174330 0.004308 -0.446159 -0.087620 -0.151104 -0.042610 -0.196115 0.198382 0.070327 0.207351 -0.729847 0.451697 -0.547463 -0.260991 0.316918 0.109061 -0.181731 0.240613 -0.065560 -0.905381 0.224498 -0.137415 -0.135218 -0.490320 -0.469401 0.060092 -0.417533 -0.653598 0.126693 -0.423255 0.389924 0.234785 -0.268682 0.416828 -0.220819 0.093002 -0.090689 -0.055402 0.130689 0.198690 -0.313679 -0.097973 0.354039 0.069254 -0.777838 -0.021152 0.134422 0.014379 0.522625 -0.078166 0.073111 -0.388085 -0.021478 -0.353105 0.248987 0.071191 -0.251734 -0.282752 0.008513 -0.397607 0.213268 0.424260 -0.121426 0.380437 0.315310 -0.491878 0.135832 0.148565 0.656694 -0.201247 -0.201885 0.200104 -0.683169 0.148206 0.136796 0.374372 0.344206 -0.379801 -0.055438 -0.161999 0.750368 -0.189274 0.341131 0.171874 0.299844 -0.203599 0.497002 -0.125846 0.098117
61344199 -0.524949 0.569706 -0.004894 -0.156627 -0.068852 -0.201894 -0.469870 -0.291758 0.192165 0.321954 0.006162 -0.032688 0.370481 0.253902 -0.328369 -0.016805 0.332382 -0.497594 -0.422157 -0.044984 0.043847 0.391520 0.377106 0.399491 0.180192 0.032586 0.086970 -0.205378 -0.075380 -0.149691 -0.321936 -0.150213 -0.250704 -0.104294 -0.009587 0.199205 0.292887 0.251916 -0.029930 0.306749 0.177374 0.252523 0.099368 0.104410 0.144778 0.360429 0.096126 0.321480 0.207204 0.108510 0.105436 -0.509245 -0.844889 0.062672 0.081813 0.204459 -0.023598 -0.272419 -0.449810 -0.251070 -0.019224 0.411909 -0.351456 -0.800105 -0.238395 -0.255963 -0.241411 -0.127402 -0.908770 0.584091 0.156753 0.061422 0.329257 0.068046 -0.423844 -0.332939 -0.439876 -0.142983 -0.157365 0.040878 0.277272 0.729789 -0.136950 0.143211 0.021184 0.413193 0.080323 -0.135034 -0.333029 -0.085727 -0.218825 -1.100100 -0.255900 0.286360 0.357879 -0.161714 0.366107 0.140785 -0.187041 -0.156578 0.513466 -0.054334 0.581966 0.110257 0.253288 0.286156 0.068687 0.302646 -0.297599 -0.151305 -0.293899 -0.041375 0.072787 -0.241724 0.656520 -0.045444 -0.433617 0.660576 -0.609286 0.375621 -0.127501 0.410255 -0.024201 -0.215200 -0.271988 -0.089563 -0.130607 -0.161905
61509958 -0.466403 0.281822 0.263614 0.073723 -0.228409 0.111761 -0.965936 0.007181 -0.160879 -0.000342 -0.095482 0.088593 0.001387 0.180087 -0.227521 0.110162 0.534049 -0.029124 -0.253325 -0.144023 -0.198437 0.483310 0.364681 0.382216 -0.168908 -0.144401 -0.077050 -0.335356 0.353851 0.509055 -0.193418 -0.417879 -0.181453 -0.174629 0.161378 0.295660 0.344849 0.213227 -0.277235 -0.039193 -0.202256 0.070974 0.034487 -0.287833 0.142149 0.313140 0.037819 0.328653 0.050902 -0.219985 -0.094430 -0.298244 -0.765384 -0.185203 -0.013789 0.020054 0.208568 0.004724 -0.494742 0.033692 0.395482 0.216958 -0.173623 -0.000029 0.212135 -0.215901 -0.021462 -0.001654 -0.623843 0.600339 0.100304 0.203871 0.122206 0.132942 0.203706 -0.100944 0.030238 -0.437372 -0.162738 -0.187357 0.286967 0.729649 0.061234 -0.454465 -0.341167 0.365935 0.216507 -0.176443 -0.285836 0.233984 0.002326 -1.021730 -0.029399 -0.072425 0.325599 -0.371332 0.418107 0.100867 -0.234663 -0.043960 0.052544 0.135600 0.607013 0.630952 0.306219 0.346174 -0.241388 0.282222 -0.334575 0.137927 0.276185 -0.127833 0.167781 0.124165 0.460582 0.429184 -0.339612 0.363854 -0.350981 0.212280 -0.354440 0.529323 -0.079948 -0.303667 -0.097252 0.136909 -0.133344 -0.466390
2018601011 0.572394 0.029645 0.459807 0.395184 -0.242112 -0.332275 -0.151978 -0.192887 -0.226370 -0.331915 0.112313 -0.029633 0.038621 -0.162008 -0.608868 -0.010307 0.245743 -0.244683 -0.367496 -0.117457 0.308103 0.233700 0.313862 0.265939 -0.173389 -0.129655 -0.334884 -0.026992 0.006508 -0.408197 -0.295327 -0.433300 -0.054234 -0.011985 -0.540968 0.536217 0.150528 0.052398 -0.261591 0.338100 0.086987 -0.262443 -0.218600 -0.285495 -0.236753 0.059586 -0.335357 -0.286860 0.256049 -0.202299 -0.027702 -0.088168 -0.025300 0.181711 -0.372215 -0.054907 -0.173506 0.171307 -0.578878 -0.216439 0.538418 -0.021371 -0.323586 -0.472198 0.162737 -0.422658 -0.246580 -0.095316 -0.375069 0.494722 -0.487803 0.254771 0.494255 -0.052752 -0.392037 -0.379347 0.025382 0.140142 0.488690 -0.222787 -0.371955 0.597937 0.150076 -0.222053 0.472194 -0.418581 0.004930 -0.493158 -0.304181 -0.142362 -0.030614 -0.557808 -0.126622 0.861722 0.216066 -0.365741 -0.118751 -0.006363 0.485878 -0.012571 0.049050 -0.095426 -0.190234 0.622513 -0.059168 0.019546 0.248535 0.553577 -0.367499 -0.109021 -0.099195 -0.161064 0.541656 0.239546 0.450919 0.092532 -0.606412 0.144467 0.320521 -0.119455 -0.222562 0.337366 -0.015984 0.287275 -0.836980 0.394030 0.272575 -0.102300
61340059 -0.412551 0.411179 0.116384 -0.251544 -0.140851 0.024600 -0.063726 0.060585 0.118537 0.347722 0.306607 -0.231229 0.131092 0.400933 0.063134 0.234224 -0.213927 -0.771198 -0.446918 0.085697 0.175244 0.229025 0.088209 0.144792 0.183059 -0.014607 0.134453 0.122069 -0.422334 0.153201 -0.415194 -0.036617 -0.244720 -0.293917 0.047152 0.318485 0.054658 0.420353 0.383961 0.461383 0.023560 0.195379 0.362298 -0.397592 0.745294 -0.207191 -0.036578 -0.069042 0.335376 -0.450066 0.132394 -0.327887 -0.614391 0.330209 0.009218 -0.009984 -0.259634 -0.369297 -0.501283 -0.240092 0.117067 0.626719 -0.573923 -0.362009 0.031410 -0.419381 -0.131101 0.209197 -0.886916 0.126001 -0.000929 0.024303 -0.012943 -0.267155 -0.200546 -0.270462 -0.324982 -0.220979 -0.043388 -0.003940 -0.123601 0.588057 0.150796 0.003511 0.044667 0.248576 -0.114607 -0.545081 0.342168 -0.417304 -0.592232 -0.838222 -0.068205 0.168434 0.104871 -0.188851 0.254212 -0.190571 -0.179137 -0.414788 0.555224 -0.212627 0.336051 -0.024523 0.057860 0.356989 0.016005 0.254508 -0.157005 0.154234 0.188897 0.576285 0.352929 -0.203324 0.374749 0.397860 -0.302135 0.491797 0.170430 0.092495 0.228995 -0.016617 0.152033 0.169103 0.043417 0.328142 -0.116963 0.232927
61348302 -0.000920 -0.495652 0.162156 -0.234440 0.047491 -0.597369 -0.458040 -0.273049 -0.268399 0.178604 0.361369 -0.020312 0.425683 0.105254 -0.158178 0.126153 -0.196758 -0.039674 -0.246792 0.310030 -0.261911 0.438943 0.056662 0.081283 -0.058023 -0.000033 -0.256903 -0.000263 -0.066481 0.206696 -0.327014 0.100691 0.001303 0.598101 0.035707 0.644423 0.252029 -0.134747 0.087777 -0.443298 0.193786 -0.463561 -0.178324 0.236384 -0.122367 -0.391287 -0.034704 -0.076841 -0.187881 -0.371240 0.203099 -0.284291 -0.021052 -0.005565 0.205131 -0.383744 0.020972 -0.131780 -0.700481 -0.228197 0.289297 -0.045012 -0.459126 -0.652334 -0.098759 -0.469172 -0.392413 0.553906 -0.643190 0.147201 0.123835 0.035107 0.311747 -0.059962 -0.044551 -0.029461 0.112751 -0.367101 0.229102 0.003024 -0.131562 0.568274 0.381425 -0.397914 -0.011483 -0.074237 -0.141735 0.513531 -0.030431 -0.273330 -0.493528 -0.329861 -0.191139 -0.069099 0.656143 0.036707 0.646230 -0.217630 -0.069286 0.142811 0.123398 0.179840 0.262505 0.027468 -0.578111 -0.006359 -0.207669 0.362705 -0.198832 -0.049222 -0.177087 -0.534631 -0.046253 0.527597 0.453597 0.340503 -0.574103 -0.333000 -0.271870 0.617109 -0.092330 0.381381 0.252090 0.381203 -0.323897 0.315722 -0.012965 -0.086656
2925341627 0.454916 -0.086233 0.433883 0.479564 -0.235293 -0.429285 -0.134474 -0.139623 -0.256304 -0.402573 0.018641 -0.074731 -0.103577 -0.015478 -0.578419 -0.003864 0.169682 -0.368098 -0.286031 -0.130997 0.223789 0.179221 0.341692 0.318237 -0.101120 -0.318758 -0.229302 -0.005404 -0.045935 -0.288671 -0.288143 -0.361395 -0.003643 0.011168 -0.551565 0.496777 0.154504 -0.064811 -0.280657 0.248235 0.035352 -0.348475 -0.293698 -0.382145 -0.267372 -0.006607 -0.387612 -0.259443 0.317253 -0.236948 -0.006383 -0.134968 -0.037714 0.135062 -0.455898 -0.005966 -0.170345 0.182130 -0.615548 -0.217552 0.475343 0.074402 -0.296151 -0.416271 0.193671 -0.437541 -0.273428 -0.154970 -0.369519 0.532288 -0.550467 0.293748 0.342299 -0.061371 -0.408983 -0.378848 -0.003354 0.134024 0.444323 -0.225725 -0.362571 0.636369 0.178445 -0.251826 0.423145 -0.401408 -0.012839 -0.565709 -0.269111 -0.081775 -0.117982 -0.650380 -0.118371 0.820084 0.240687 -0.485835 -0.098142 -0.009264 0.517493 -0.100663 0.068564 -0.162521 -0.131765 0.651772 -0.135599 -0.030190 0.298434 0.712745 -0.312032 -0.055159 -0.087165 -0.115090 0.502145 0.194404 0.376840 0.130556 -0.732330 0.144013 0.340363 -0.076537 -0.204726 0.353436 0.139502 0.354564 -0.770470 0.411922 0.219923 -0.141466
61379091 -0.248921 0.534304 0.150180 -0.047278 -0.087184 0.143488 -0.072565 -0.238807 -0.057407 0.156045 0.207849 -0.175428 -0.136771 0.320523 0.066633 -0.035022 -0.127054 -0.790536 -0.640224 -0.011528 -0.005083 0.409441 -0.250099 0.338249 -0.032655 0.216009 -0.237789 -0.152317 -0.447900 -0.308721 -0.004234 0.147750 -0.454396 0.081572 0.029190 0.665620 -0.292110 0.241794 0.121802 0.286278 0.266018 -0.103831 0.010508 0.406552 -0.178960 0.010742 -0.105565 0.338876 0.185044 0.082008 0.190036 -0.529518 -0.528613 0.354748 -0.082247 -0.219194 -0.090240 0.095425 -0.481003 -0.173470 0.176831 0.013458 -0.438708 -0.583281 0.153983 -0.532989 -0.217160 0.021990 -0.551831 0.517334 -0.265036 -0.046201 0.535084 -0.500991 -0.192264 -0.678961 -0.418004 -0.248350 0.199739 0.217622 -0.406394 0.675947 -0.086734 0.056498 0.452243 0.140002 -0.153164 -0.039845 -0.065578 -0.464368 -0.144689 -0.640549 -0.161680 0.588025 0.085516 -0.329147 0.092091 -0.390974 -0.291862 -0.002569 0.502637 -0.356932 -0.084763 -0.116692 0.029116 0.652860 0.125403 -0.058385 -0.438392 -0.290158 -0.024433 0.366467 0.133053 -0.239113 0.585891 0.261340 -0.207710 0.306523 -0.289219 -0.126025 0.302753 0.126515 -0.060605 -0.097457 -0.188396 0.321206 0.562071 0.021269
61490848 -0.466634 0.598119 0.044150 -0.146313 -0.130311 0.034802 -0.679357 -0.283472 -0.044310 0.171823 -0.154146 0.034724 0.185118 0.199686 -0.297747 -0.065160 0.508865 -0.371815 -0.348695 -0.151244 -0.117568 0.409379 0.346250 0.525893 -0.040245 0.029083 0.051919 -0.398904 0.056751 0.049733 -0.107538 -0.269194 -0.329644 -0.118351 0.076623 0.257926 0.298141 0.210713 -0.264068 0.244166 0.011837 0.184244 0.015826 0.048920 0.013357 0.362277 -0.027357 0.485075 0.120531 0.080037 -0.041330 -0.526228 -0.914970 -0.087188 -0.063624 0.128151 0.099719 -0.036784 -0.456039 -0.128579 0.046875 0.325481 -0.286400 -0.430609 0.072348 -0.213085 -0.165407 -0.136442 -0.715785 0.696998 0.067895 0.196506 0.302705 0.062915 -0.250542 -0.340759 -0.322118 -0.352352 -0.128125 -0.056158 0.346721 0.685156 -0.119334 0.033751 -0.135810 0.409662 0.156092 -0.021150 -0.395386 0.117888 -0.142027 -1.084908 -0.224011 0.205670 0.319775 -0.303501 0.502387 0.049561 -0.289598 -0.058757 0.314042 -0.081640 0.506308 0.313805 0.200585 0.388028 -0.146148 0.242489 -0.444329 0.005100 -0.072894 -0.084896 0.102371 -0.134268 0.539859 0.156914 -0.413604 0.631723 -0.577248 0.269558 -0.291987 0.545707 -0.058700 -0.364227 -0.280957 -0.002617 -0.059191 -0.381101
515465224 -0.177621 0.065638 -0.011808 -0.273983 -0.430266 -0.095814 -0.256766 -0.426772 -0.480102 -0.074646 0.648726 -0.146410 0.314594 0.490571 -0.113917 -0.006715 -0.154693 -0.074776 -0.441617 0.493533 -0.108886 0.436715 0.036172 -0.150739 -0.374492 0.125955 0.343310 0.380960 -0.081772 -0.053068 -0.043177 -0.340611 0.306555 0.227097 -0.040348 0.524985 0.356467 -0.279673 0.324349 -0.286237 -0.159821 -0.351109 -0.035850 -0.093705 0.025090 -0.269397 0.207516 0.135031 0.197056 -0.669038 0.396808 -0.459793 -0.171485 0.192900 0.107863 -0.059352 0.170943 0.062689 -0.766632 0.240799 -0.110566 -0.193545 -0.546730 -0.600493 -0.043085 -0.376559 -0.669007 0.123279 -0.462691 0.381668 0.116444 -0.159207 0.332439 -0.166257 0.118905 -0.027453 -0.115179 0.009869 0.173723 -0.313619 -0.192481 0.308593 -0.026247 -0.835993 -0.035128 0.045706 -0.017020 0.491071 -0.025130 0.071375 -0.305818 -0.014882 -0.347603 0.177848 0.144735 -0.207833 -0.243238 0.109056 -0.254781 0.044978 0.330605 -0.095802 0.368978 0.130379 -0.554675 0.167821 0.125843 0.674848 -0.199307 -0.322859 0.281697 -0.743743 0.190826 0.187059 0.317784 0.352666 -0.423488 -0.067621 -0.187551 0.601163 -0.268409 0.331337 0.209935 0.357097 -0.393786 0.355556 -0.228912 0.089017
61364092 0.057267 -0.286777 0.058590 0.646821 -0.153829 -0.803621 0.064286 0.167712 -0.180220 -0.513559 0.054267 0.181950 -0.005172 0.362210 -0.481719 0.119701 -0.211375 -0.502329 -0.318409 0.313799 0.070416 0.419106 0.222418 0.355135 0.071175 -0.038491 0.425702 0.064643 0.161143 -0.173407 -0.280947 0.117327 -0.107257 -0.123830 -0.274532 0.301117 0.609804 -0.248957 -0.510680 0.035763 0.126046 -0.402633 -0.325060 -0.402251 -0.505486 -0.039913 -0.087639 -0.070067 -0.115092 -0.273327 -0.037321 0.129752 0.119942 -0.174289 -0.459168 -0.028570 0.120106 0.447871 -0.465961 -0.220564 0.421295 0.242507 -0.286199 -0.619798 0.076313 -0.218446 -0.025207 -0.181450 -0.682601 0.417083 -0.516406 0.095143 0.452845 0.162034 -0.275142 -0.060789 -0.272494 0.022428 -0.032141 0.051960 -0.152575 0.426249 -0.172009 -0.255200 0.306726 0.159481 -0.346069 -0.503849 -0.341957 0.062304 0.008327 -0.737795 -0.222959 0.671304 -0.055258 -0.489341 0.164633 0.117036 0.417874 -0.102080 0.564556 -0.212312 0.311490 0.858075 0.072393 0.161003 0.220459 0.849779 -0.173165 -0.097193 0.152183 -0.205555 0.243359 0.039641 0.295945 0.037869 -0.707136 -0.158683 -0.010195 -0.130595 -0.437134 0.397601 0.079619 0.561414 -0.289786 0.330766 0.386441 -0.234111
61410262 -0.218414 0.177332 0.488538 -0.424512 -0.521203 -0.431390 -0.209086 -0.548910 -0.745046 0.162787 0.639146 -0.258779 0.286234 -0.310263 -0.347146 0.249894 -0.342963 -0.363408 -0.570270 -0.093264 -0.040651 0.700537 -0.366050 -0.761470 -0.314097 -0.238760 -0.312773 -0.373872 0.137368 0.173199 -0.469345 -0.168404 -0.114756 -0.013158 0.195421 0.230259 0.050205 0.104060 0.201842 0.190709 0.100796 0.520914 0.386598 0.358288 0.237620 -0.023176 0.214643 -0.240776 -0.155144 -0.582157 0.064796 0.205245 -0.290697 0.243572 -0.315892 -0.707639 0.252506 0.296327 -0.683927 -0.766016 0.143583 0.021730 -0.421368 -0.524025 -0.066200 -0.648000 -0.183174 0.476886 -0.662433 0.331108 -0.164755 -0.470850 0.381308 0.139259 -0.037351 -0.329741 -0.417740 0.182178 -0.410523 -0.130537 0.326500 0.417208 0.128717 -0.110514 0.072921 0.348255 -0.287301 0.327091 -0.712967 -0.545742 -0.009718 -0.346759 0.116305 1.077514 0.101920 -0.235473 -0.264152 0.643722 -0.004289 0.159235 0.656876 0.065215 0.263731 -0.066611 -0.010843 0.200750 0.027348 0.252640 -0.178535 0.024319 0.413548 -0.057137 0.135075 0.298391 -0.148449 0.303367 -0.237169 -0.236791 -0.508029 -0.038813 -0.434791 -0.245609 0.072124 0.178739 0.157641 0.444552 0.241087 -0.307590
1047228032 0.607943 -0.021068 0.371131 0.513452 -0.191835 -0.472070 -0.070882 -0.075453 -0.183164 -0.432690 0.064301 0.047676 0.015767 -0.101435 -0.649956 -0.023900 0.218937 -0.306675 -0.378088 -0.027091 0.304183 0.241520 0.392249 0.327045 -0.160827 -0.063997 -0.165783 -0.006750 0.060276 -0.372857 -0.312017 -0.343717 -0.017722 -0.021003 -0.524702 0.512964 0.329536 0.017503 -0.329266 0.312483 0.109487 -0.302586 -0.300169 -0.331659 -0.328435 0.032404 -0.403722 -0.264474 0.175247 -0.227170 -0.005854 -0.048052 -0.066081 0.102239 -0.409589 -0.025583 -0.169763 0.201522 -0.572574 -0.179290 0.524326 0.095947 -0.362058 -0.501981 0.215276 -0.339623 -0.202726 -0.124101 -0.432318 0.511109 -0.566335 0.268438 0.507223 0.005944 -0.386201 -0.315271 -0.041544 0.145170 0.464474 -0.192604 -0.296097 0.550391 0.133370 -0.253998 0.439289 -0.391038 -0.078164 -0.529536 -0.350044 -0.085328 -0.081417 -0.632307 -0.162273 0.784356 0.187949 -0.377935 -0.067897 -0.020337 0.491639 -0.017791 0.155249 -0.119777 -0.122720 0.665213 -0.058968 0.067879 0.241867 0.598025 -0.369707 -0.031829 -0.064614 -0.208532 0.549119 0.235587 0.465370 0.073686 -0.642831 0.071605 0.308763 -0.123964 -0.274272 0.404948 0.026232 0.419133 -0.832667 0.371621 0.309691 -0.155092
61516885 0.094365 -0.303791 0.193698 -0.829777 0.126764 -0.237624 -0.400785 -0.577481 -0.295111 -0.048550 0.422539 -0.279496 -0.052085 0.185899 0.161755 0.295452 0.108120 0.063375 -0.656312 0.498325 -0.293362 0.304923 0.174265 -0.218821 -0.103073 0.171436 -0.217848 0.266198 0.032590 0.144858 -0.031856 -0.058829 0.094820 0.606008 0.023803 0.607387 0.151512 0.007810 0.549933 -0.512622 -0.018678 -0.033914 0.213651 0.171762 0.068468 -0.536149 -0.005189 0.177599 0.109648 -0.438840 0.092492 -0.273851 -0.318890 -0.041164 0.082832 -0.143074 -0.264781 0.064520 -0.326128 -0.141345 0.218532 0.104442 -0.585246 -0.743196 -0.479065 -0.507426 -0.201413 0.432311 -0.683126 0.197623 0.197209 0.310139 0.103258 0.095951 0.357193 -0.013539 -0.195053 -0.241528 -0.198347 -0.145155 0.015052 0.654495 0.049751 -0.563281 -0.056363 -0.102075 -0.125656 0.075974 0.032292 -0.099516 -0.216028 -0.227154 -0.343326 -0.090227 0.243693 0.070328 0.297695 -0.012571 0.034754 -0.208587 0.118362 -0.201973 0.347354 0.179749 -0.652722 0.241459 -0.050726 0.479327 -0.216057 -0.765064 0.178612 -0.654504 0.030890 0.469227 0.331267 0.113682 -0.190577 -0.145337 -0.635757 0.592605 -0.159487 0.019113 0.224996 0.286192 -0.385930 0.192272 -0.017639 -0.219334
61344153 -0.594655 0.618380 0.010392 0.050713 -0.099359 -0.251982 -0.385068 -0.159781 0.303103 0.419385 0.097109 -0.055787 0.283179 0.276711 -0.147914 0.034628 0.174799 -0.629978 -0.431014 -0.087639 0.139176 0.362626 0.317101 0.305434 0.301269 0.073217 0.025728 -0.087889 -0.155490 -0.166374 -0.452556 -0.030721 -0.278319 -0.144002 0.034244 0.244923 0.125591 0.297415 0.182753 0.281159 0.265097 0.295839 0.119608 0.210154 0.265170 0.343037 0.170483 0.249478 0.133732 0.059722 0.197828 -0.411504 -0.785329 0.251349 0.190018 0.099641 -0.076810 -0.379618 -0.475589 -0.284657 0.033114 0.295105 -0.237858 -0.833172 -0.308135 -0.345825 -0.124407 -0.041977 -0.895460 0.513200 0.022400 -0.063436 0.334239 -0.031737 -0.305575 -0.406051 -0.442285 -0.074875 -0.041388 0.072351 0.032045 0.800836 0.021750 0.171966 0.121735 0.281406 0.052439 -0.280967 -0.160046 -0.228064 -0.261970 -1.043336 -0.173492 0.300497 0.355304 -0.005177 0.191696 0.009467 -0.158091 -0.167312 0.700868 -0.100522 0.599603 -0.020114 0.383441 0.396144 0.234135 0.072240 -0.179637 -0.233769 -0.299304 0.126470 0.070337 -0.308541 0.747582 -0.036668 -0.282585 0.616017 -0.543082 0.283052 0.051416 0.270491 -0.083739 -0.217125 -0.054552 0.069253 0.013066 -0.033485
61339741 0.021315 -0.279308 0.365487 0.554644 -0.197586 -0.634224 -0.118864 -0.116379 -0.327981 -0.478224 -0.135852 -0.110862 -0.292571 0.314263 -0.484249 0.066965 -0.047240 -0.454962 -0.106038 -0.137158 -0.052465 0.207837 0.357276 0.272535 0.126234 -0.655474 -0.080330 0.003922 -0.082029 -0.199492 -0.291562 -0.064850 -0.065930 0.017939 -0.441022 0.334278 0.180246 -0.349596 -0.284181 -0.056005 -0.050294 -0.460398 -0.415669 -0.189627 -0.480833 -0.006241 -0.291953 -0.166706 0.240190 -0.127019 -0.025367 -0.087802 0.044171 -0.002003 -0.586417 0.077269 0.011557 0.319349 -0.536901 -0.289689 0.386445 0.116269 -0.125697 -0.376018 0.069343 -0.423214 -0.256769 -0.233303 -0.284715 0.584317 -0.563405 0.295571 0.198310 -0.058637 -0.436819 -0.382965 -0.107802 0.168730 0.226505 -0.085617 -0.405537 0.599557 0.029189 -0.196735 0.393888 -0.251074 -0.095092 -0.549321 -0.360256 0.045861 -0.091232 -0.699561 -0.022253 0.843524 0.225322 -0.666432 0.015291 0.092394 0.554025 -0.166503 0.216904 -0.179128 0.067116 0.704159 -0.129208 -0.052029 0.310455 0.816341 -0.147486 -0.122824 -0.175208 -0.123680 0.129419 0.030834 0.127521 0.099946 -0.766478 0.011441 0.124027 -0.093382 -0.275188 0.344487 0.249596 0.342225 -0.481025 0.328419 0.276479 -0.240876
