661 128
42442983 -0.425110 -0.405880 -0.108228 0.468296 -0.255495 0.232734 0.122011 -0.000219 0.068456 -0.427496 -0.280432 0.630417 0.409468 -0.200046 -0.115244 -0.407754 0.309832 0.246062 -0.278936 -0.370232 0.041023 0.115239 -0.180124 0.484672 0.090745 0.596293 0.215555 0.556100 -0.293151 -0.195141 0.315134 -0.002149 0.070210 0.007811 -0.088601 0.106609 -0.312404 0.107133 0.030974 0.085629 0.127575 0.680743 -0.384031 0.405626 -0.271649 -0.118615 -0.600919 0.027726 0.486208 0.104793 -0.239815 -0.481554 -0.461920 -0.611987 0.532136 -0.707800 -0.030231 -0.166266 -0.415483 -0.231416 0.335331 -0.256449 0.078264 -0.239376 0.141894 0.088345 0.111586 -0.324343 0.247279 0.578612 -0.185455 0.068198 -0.064060 0.978264 0.003887 0.020733 -0.246044 -0.397410 -0.169694 -0.191471 -0.096736 0.423181 0.907786 -0.710513 0.637718 0.132651 0.528728 -0.347771 -0.151558 -0.003529 -0.053627 0.470015 -0.325989 -0.004815 0.181909 0.274362 0.124738 -0.139116 0.405811 0.551517 0.099581 -0.386514 -0.117717 -0.735801 0.170849 -0.575573 -0.186073 -0.536253 -0.350921 0.058995 -0.540255 0.004540 0.051064 0.117172 -0.550352 -0.367213 0.152515 0.205198 -0.140169 0.292991 -0.075504 0.360516 0.316067 0.144421 -0.180198 0.344669 0.582805 0.247381
42449341 0.096413 -0.606840 -0.281303 0.422536 -0.555487 0.246686 0.299902 0.440774 0.199975 0.203438 -0.061647 0.484534 0.476675 -0.371355 -0.278841 0.006089 0.305498 0.053470 -0.444958 -0.367425 0.119526 0.564892 -0.246792 -0.065947 0.266599 -0.341830 -0.327257 0.543672 -0.477626 -0.164240 -0.009324 -0.163162 0.335888 0.095374 0.136298 0.225899 -0.421361 -0.415321 0.269237 -0.521134 0.048488 -0.014507 -0.092548 -0.205928 0.017485 -0.192008 0.571445 -0.154129 0.222907 0.458558 0.184355 0.243605 0.463772 -0.630701 -0.350934 -0.831670 -0.084255 -0.560833 -0.082052 -0.079637 0.239047 -0.599174 0.240125 0.512257 -0.467604 0.300060 0.240851 -0.572503 -0.436908 0.615527 -0.628976 0.097406 -0.402416 0.219044 -0.444680 -0.527085 -0.114043 0.329844 -0.266198 0.120963 -0.061945 0.042154 0.598360 -0.153604 0.183357 0.098732 0.318576 -0.320199 -0.097652 -0.055345 -0.016144 0.215786 0.248887 0.121336 -0.434318 0.620711 0.195527 -0.098822 0.671813 0.044596 -0.130914 -0.427713 -0.938163 -0.433525 -0.340672 -0.589775 0.447748 -0.693659 -0.512490 0.045100 -0.094886 -0.184701 0.389582 -0.089194 -0.375220 0.432450 0.589296 0.209936 -0.320304 -0.124375 -0.212449 0.012712 0.718295 0.787387 0.065284 0.118642 0.093048 -0.246028
42439286 0.262738 -0.565822 -0.070535 0.410151 -0.467446 0.083569 0.199276 0.365351 0.086947 0.151787 -0.129081 0.536413 0.418518 -0.285319 -0.181188 -0.051659 0.246066 0.025805 -0.354530 -0.377812 0.051060 0.663214 -0.202171 -0.070755 0.251438 -0.275334 -0.322335 0.546322 -0.454702 -0.187632 -0.114482 -0.056806 0.493342 -0.041364 0.116319 0.032635 -0.497922 -0.332907 0.262004 -0.474933 0.047596 -0.008112 -0.213179 -0.203389 0.002841 -0.220603 0.585529 -0.107080 0.161728 0.264298 0.095795 0.144417 0.431470 -0.602734 -0.384163 -0.863032 0.008099 -0.692078 -0.217494 -0.063820 0.416392 -0.587408 0.264175 0.458396 -0.537827 0.317058 0.193350 -0.544250 -0.621653 0.578804 -0.471131 0.004412 -0.372001 0.232759 -0.371801 -0.378425 -0.164652 0.333955 -0.271512 0.017313 -0.023237 0.170114 0.532579 -0.148117 0.255570 0.165281 0.191397 -0.442432 0.030597 -0.112360 0.040236 0.261285 0.217562 0.300130 -0.423804 0.570755 0.077703 -0.189366 0.675682 -0.053730 -0.088874 -0.358088 -0.840366 -0.330156 -0.287490 -0.444829 0.403198 -0.819348 -0.483284 0.141665 -0.053519 -0.054516 0.568965 -0.085327 -0.342088 0.393396 0.717253 0.120399 -0.301774 -0.081175 -0.156973 -0.078731 0.683408 0.794377 0.102263 0.140892 0.129814 -0.335154
561042199 0.633468 -0.078111 -0.449207 0.654686 -0.825457 0.364153 0.106251 0.091869 -0.251344 -0.072900 -0.508093 0.508092 0.351779 -0.203543 -0.452473 -0.329368 0.439290 -0.063128 -0.143193 0.131486 0.159723 -0.070241 -0.049247 0.368122 -0.025532 0.195750 0.063088 -0.076046 -0.025105 -0.699731 0.378924 0.394972 0.524002 0.061728 0.061860 0.215917 0.150713 0.067492 0.189879 -0.341973 -0.066424 0.040570 0.200060 0.146743 0.399617 -1.020131 0.120553 -0.025813 -0.156920 0.109426 -0.042680 -0.305645 0.504422 -0.280307 0.093619 -0.206011 -0.100902 0.158305 -0.420867 0.267217 -0.005950 -0.064421 0.327102 -0.060679 0.374003 0.323297 0.113214 0.072493 0.022960 0.257831 -0.264478 0.255077 -0.074361 0.013514 0.341660 0.307965 -0.077896 0.168539 -0.575050 0.201893 0.279542 0.129492 0.227257 -0.247699 -0.547423 0.332733 0.372130 0.053784 -0.015678 -0.196829 -0.028697 -0.073635 0.134649 -0.153235 0.121900 -0.177910 0.058408 0.205365 -0.346371 0.334751 0.246318 -0.268670 0.096806 -0.177424 -0.044926 -0.140195 0.061775 -0.536435 -0.127535 -0.165642 0.389466 -0.040555 0.070760 0.142519 -0.418665 0.195789 0.192996 -0.185004 -0.226988 -0.572516 -0.595141 0.202656 0.526776 0.171692 -0.189128 0.293433 0.084332 0.165147
42439280 0.256209 -0.597029 -0.018568 0.412300 -0.489428 0.234210 0.272314 0.331302 0.024254 0.271748 -0.046562 0.636079 0.300262 -0.238106 -0.197302 -0.069999 0.283311 0.098298 -0.205792 -0.373847 0.001750 0.460139 -0.215960 -0.143839 0.296472 -0.282270 -0.272249 0.490960 -0.406638 -0.282077 -0.194067 -0.031313 0.432335 -0.004662 0.216459 0.037781 -0.485767 -0.322339 0.229505 -0.415950 0.033526 0.001732 -0.183271 -0.223523 0.007944 -0.042081 0.511353 -0.076814 -0.019418 0.298856 0.020584 0.157895 0.443187 -0.532237 -0.441505 -0.856345 0.163309 -0.858525 -0.201200 -0.100992 0.355130 -0.581556 0.320102 0.393775 -0.452598 0.288962 0.124284 -0.589414 -0.668297 0.666281 -0.532207 0.004924 -0.208090 0.180606 -0.348056 -0.465536 -0.035149 0.328432 -0.383004 -0.074028 -0.022447 0.030575 0.611469 -0.100464 0.335912 0.091892 0.273644 -0.472698 0.062833 -0.040747 -0.089245 0.276603 0.233774 0.315424 -0.317205 0.699378 -0.049067 -0.129167 0.587531 0.175742 0.001603 -0.428387 -0.739507 -0.375653 -0.388489 -0.347162 0.428831 -0.833480 -0.403189 0.144803 -0.036681 -0.104640 0.653284 0.065595 -0.330847 0.454099 0.753333 0.068175 -0.289385 -0.183237 -0.237705 -0.184443 0.592868 0.587265 0.091673 0.187562 -0.031316 -0.364872
42430664 -0.194978 0.245295 0.520050 0.999904 -0.188894 0.434173 -0.269612 -0.056767 0.225844 -0.049246 -0.446995 0.376736 0.624477 -0.020734 -0.039589 -0.195400 0.381195 0.739459 -0.089803 -0.139435 -0.200626 -0.052067 0.461429 -0.087503 0.799050 0.591768 -0.022255 -0.171505 0.058415 -0.301737 -0.027585 0.017432 -0.059845 0.141456 -0.067680 0.113804 -0.622665 -0.170940 0.477335 0.401285 -0.210357 0.318675 0.429099 0.025921 -0.681560 0.374130 0.277777 0.000260 0.173126 0.036302 -0.237897 -0.539829 0.291896 -0.456785 -0.005447 -0.883670 0.022505 -0.189934 -0.013523 -0.412252 -0.105363 -0.410990 -0.362623 -0.060254 0.024761 0.936352 0.291727 -0.661025 0.263343 -0.123780 -0.089945 -0.119250 0.048167 -0.020212 0.449430 0.453983 -0.243129 0.435414 -0.273607 0.592994 0.101096 0.789865 0.684866 -0.280727 0.306952 0.125838 -0.240319 -0.660738 0.244328 -0.266239 -0.013027 -0.107868 -0.229278 -0.134933 0.047793 0.010812 0.203964 -0.547489 -0.233334 0.073474 0.055972 0.124431 -0.036036 -0.221305 -0.099554 -0.498945 0.312243 -0.124400 0.306489 -0.082133 0.221724 0.163047 -0.049598 0.100541 -0.191105 0.111547 0.723498 -0.208002 0.218580 -0.273761 -0.635580 -0.225807 0.324895 0.594108 -0.007743 -0.220362 -0.131143 0.114299
42427381 0.208476 -0.451798 0.141952 0.361834 -0.209718 -0.053070 0.037975 0.174640 -0.000510 0.104189 -0.197655 0.738693 0.169862 -0.063029 0.157332 -0.351557 0.129776 0.100974 -0.048679 -0.177143 -0.063841 0.341130 0.104262 -0.043082 0.116167 -0.042856 -0.171972 0.633844 -0.265258 -0.428081 -0.468573 0.075855 0.492506 0.009604 0.352876 0.030004 -0.515447 0.035622 0.005156 -0.147392 0.025053 0.064772 -0.343833 -0.004826 -0.137579 -0.352534 0.524212 -0.085599 0.250296 0.165629 -0.085868 -0.232857 0.209132 -0.283950 -0.321056 -1.070144 0.523455 -0.852617 -0.574098 -0.306828 0.507825 -0.472618 0.219805 0.072577 -0.224453 0.321719 -0.218256 -0.279460 -0.766006 0.489580 -0.189734 -0.066930 -0.298892 0.273571 -0.133142 -0.135329 -0.181681 0.337273 -0.456953 -0.058227 0.214911 0.470668 0.512322 -0.207463 0.286609 0.162429 -0.086863 -0.528909 0.029522 -0.169870 0.025653 0.197394 -0.025253 0.514436 -0.179108 0.456540 -0.157070 -0.089712 0.487664 -0.023387 0.217353 -0.431470 -0.560692 -0.322166 0.083433 -0.170216 0.188796 -0.780736 -0.355312 0.475593 0.054961 0.158076 1.004808 0.452787 -0.404802 0.206410 0.963450 -0.148436 -0.046533 -0.396935 -0.066742 0.073562 0.351104 0.415550 -0.016623 0.084880 0.023400 -0.357041
595105499 0.422756 0.129610 -0.112609 0.100031 -0.338867 0.506074 0.694579 0.242656 0.196604 -0.122201 -0.185634 0.306478 0.168758 -0.203612 -0.082587 -0.383657 0.031903 -0.020656 0.281110 -0.758146 0.311017 0.374778 -0.032007 -0.067302 -0.077041 -0.022799 -0.048505 0.362887 -0.141342 -0.640774 -0.146937 0.381539 0.247597 -0.077732 0.753502 0.164572 -0.490545 0.023198 0.312811 0.214796 -0.031269 0.173394 0.044314 0.588639 0.155739 -0.137206 -0.051487 -0.394608 0.294090 -0.058995 0.093836 -0.429637 0.095143 0.024623 0.150331 -0.712034 -0.324976 0.037912 0.091763 -0.256913 -0.108984 -0.082775 0.428794 0.190418 -0.122809 0.583309 0.490184 -0.441631 -0.239627 -0.361042 -0.406067 0.085447 -0.047915 0.009207 -0.196048 0.092167 0.358457 0.331023 0.180357 0.032889 0.342856 0.221695 0.842749 -0.600906 -0.033241 -0.091659 -0.084568 -0.142678 -0.311779 0.268339 -0.886085 0.149216 0.200368 -0.223712 0.569883 0.011267 0.069326 -0.133179 0.046589 -0.327289 0.166728 -0.048194 -0.465522 -0.324242 -0.266250 -0.406416 0.093974 -0.233388 0.177084 -0.356303 0.224274 -0.204857 -0.059656 0.337808 -0.619631 -0.342264 0.592633 -0.399992 -0.666495 -0.026379 -0.284902 -0.130116 0.210182 0.165257 -0.045009 0.312754 -0.444702 0.084071
42446932 0.060197 0.414733 -0.339257 0.390972 -0.404981 0.137048 0.253126 -0.239481 -0.063691 0.091614 -0.453323 0.290614 0.007907 0.008660 0.033307 -0.702853 0.061833 0.056648 -0.334362 -0.097695 -0.037950 0.348556 0.073585 0.254876 -0.160799 0.013251 0.208530 0.319130 -0.361793 -0.297483 1.020349 0.711583 0.205669 0.778834 0.160085 0.273703 0.139796 -0.501108 0.095414 0.194798 -0.131935 0.135458 0.253033 0.115679 -0.252460 -0.035343 0.049028 -0.133576 0.212133 0.252153 -0.376562 -0.114373 0.547671 -0.554364 -0.322816 -0.825075 0.001272 -0.034284 -0.480875 0.117919 0.418751 -0.261125 0.050215 0.144110 -0.297323 0.349248 0.610997 -0.477014 -0.310302 -0.067276 -0.692575 -0.275477 -0.015975 0.514385 0.148389 0.109459 0.108863 0.065685 -1.037830 -0.010828 0.299621 -0.021620 0.597245 0.156238 0.796821 -0.041016 -0.154493 -0.811833 0.009106 0.436505 0.063842 -0.278864 -0.223392 -0.034478 -0.045876 -0.319847 -0.148976 -0.364052 -0.299881 0.326971 -0.400374 -0.005087 -0.436946 -0.449077 0.004391 -0.014599 0.353757 -0.285695 -0.528924 -0.163070 -0.036948 0.017616 0.074722 -0.305675 -0.646153 -0.614854 0.334860 -0.011663 0.164820 -0.407697 -0.075281 -0.056969 0.238166 0.485304 0.117404 0.494940 -0.486023 -0.059508
42434271 0.112338 -0.371515 0.217433 0.215602 -0.030400 -0.128969 -0.005632 0.140237 -0.066720 -0.074059 -0.207796 0.561961 0.313533 0.113761 0.292400 -0.449507 0.063969 0.106109 -0.240245 -0.008185 0.019093 0.353487 0.094947 -0.079468 0.158394 -0.044599 0.013457 0.592609 -0.190630 -0.051085 -0.256799 0.208215 0.506999 -0.027158 0.173942 -0.157217 -0.464238 -0.199520 -0.088824 -0.340488 0.198744 0.099283 -0.287982 0.178069 -0.149377 -0.560111 0.466499 -0.362433 0.370490 0.290798 -0.084698 -0.399933 0.194396 -0.386251 -0.107414 -1.117118 0.202569 -0.546432 -0.608212 -0.103043 0.518495 -0.496226 0.014982 0.033541 -0.180290 0.363178 0.061562 -0.208830 -0.632387 0.243662 -0.157879 -0.229853 -0.467249 0.069553 0.059442 -0.115652 -0.138701 0.520057 -0.267298 -0.036863 0.094860 0.472772 0.497559 -0.124218 0.096249 0.349118 -0.061913 -0.444492 -0.185892 -0.304104 0.170940 0.240248 -0.034797 0.468402 -0.348253 0.166581 0.022128 -0.175360 0.507750 -0.451320 0.231223 -0.345498 -0.654524 -0.288638 0.292128 -0.356216 0.184947 -0.632320 -0.322526 0.453321 -0.052293 0.453675 0.843893 0.547025 -0.397137 -0.000264 1.017778 -0.068391 -0.167132 -0.386878 0.079893 0.338332 0.343122 0.484339 0.004977 0.067992 0.143793 0.012201
42427386 0.295600 -0.479408 0.151042 0.343848 -0.272921 -0.077444 0.089687 0.246740 -0.024452 0.128678 -0.219361 0.678637 0.275582 -0.132772 0.027284 -0.241083 0.143109 0.063192 -0.157388 -0.273939 -0.057603 0.552738 -0.010086 -0.058737 0.178081 -0.130042 -0.234682 0.602047 -0.348272 -0.291633 -0.355101 0.107754 0.587263 -0.098501 0.246469 -0.033576 -0.550866 -0.103669 0.136755 -0.256393 0.029502 0.037820 -0.353636 -0.117050 -0.083996 -0.331191 0.555335 -0.073473 0.190820 0.101898 -0.037201 -0.114106 0.296321 -0.447284 -0.333935 -0.969554 0.317021 -0.774174 -0.460684 -0.191360 0.573543 -0.513696 0.241105 0.219713 -0.400075 0.325320 -0.069144 -0.393345 -0.796663 0.491431 -0.227803 -0.077592 -0.333973 0.246486 -0.204462 -0.190128 -0.203077 0.352568 -0.409292 -0.061798 0.119499 0.419753 0.489957 -0.216960 0.317947 0.201753 -0.071852 -0.580357 0.053396 -0.214105 0.070318 0.234855 0.049994 0.491744 -0.295909 0.478566 -0.134957 -0.188571 0.586780 -0.092242 0.112392 -0.326096 -0.626497 -0.288034 -0.025663 -0.259642 0.243224 -0.832609 -0.412585 0.377892 -0.013727 0.088990 0.882490 0.191833 -0.374230 0.255991 0.915595 -0.097456 -0.181361 -0.227678 -0.094542 -0.017325 0.480935 0.590322 0.050934 0.122339 0.045664 -0.371626
42449918 0.044952 0.435597 -0.324600 0.445074 -0.350750 0.080808 0.315781 -0.187671 -0.143740 0.108730 -0.468938 0.356239 0.167550 -0.036795 -0.011710 -0.730928 0.019826 0.021817 -0.269417 0.032272 0.090412 0.516433 0.079733 0.304374 -0.230810 -0.045923 0.133036 0.388614 -0.233339 -0.299331 1.095631 0.720505 0.320606 0.762071 0.218473 0.180447 0.058236 -0.539030 0.175566 0.184044 -0.234373 0.088305 0.121995 0.174637 -0.261755 -0.055026 0.001435 -0.164874 0.277173 0.109987 -0.375409 -0.102471 0.657561 -0.597233 -0.355692 -0.890427 -0.027082 0.099478 -0.410444 0.079241 0.374068 -0.186005 0.132507 0.293478 -0.316894 0.259101 0.685405 -0.538674 -0.136243 -0.042140 -0.755914 -0.230737 -0.009696 0.562694 0.179875 0.053877 -0.046170 -0.029497 -1.111503 0.132667 0.386122 0.032313 0.715812 0.061430 0.846735 -0.069290 -0.252886 -0.820223 -0.119668 0.293884 0.087915 -0.287705 -0.215821 -0.151617 -0.082199 -0.331603 -0.075507 -0.383140 -0.269315 0.288153 -0.238885 0.098538 -0.502854 -0.410152 0.111796 -0.165089 0.254238 -0.248211 -0.600051 -0.208427 -0.027737 0.092024 0.133540 -0.350487 -0.750925 -0.622687 0.323339 -0.019940 0.149142 -0.449858 -0.186572 0.036684 0.187448 0.570398 0.067704 0.467844 -0.489705 -0.154393
42453630 0.260768 -0.401857 0.103229 0.415182 0.069439 -0.227197 -0.215180 0.032840 0.120109 -0.452948 -0.686071 0.253368 0.150572 0.181243 0.294614 -0.369337 -0.144753 -0.148272 -0.278685 -0.232272 -0.043414 0.562988 0.092393 0.301184 0.203342 0.073872 -0.096598 0.481834 -0.285655 -0.253713 0.159278 0.147314 0.437794 -0.130109 -0.170063 -0.050815 -0.260157 -0.016527 0.144851 -0.367564 0.309518 0.114683 -0.206324 0.310984 0.066323 -0.489186 0.582980 -0.317415 0.314297 0.056825 0.042168 -0.358332 0.124836 -0.401800 0.008739 -0.619892 -0.412774 0.052288 -0.734526 0.012192 0.611583 -0.518838 -0.145710 0.096376 -0.305018 0.665043 0.270850 -0.192266 -0.144865 -0.188373 0.134723 -0.249197 -0.554887 0.113541 0.110839 0.264064 -0.346453 0.262496 0.021086 0.158325 0.045545 0.581023 0.247566 -0.136474 -0.076911 0.576512 -0.092049 -0.457229 -0.000687 0.149549 0.188939 0.283256 -0.478208 0.300972 -0.156778 -0.223859 0.315046 -0.372528 0.284474 -0.895464 -0.249927 -0.270734 -0.567041 -0.263547 0.352742 -0.421022 0.410909 -0.225481 -0.137071 0.110482 -0.003099 0.474094 0.405289 -0.065392 -0.443216 -0.437489 0.468629 -0.082445 0.016503 0.179676 -0.008487 0.303773 0.570338 0.883771 0.052044 0.323418 0.368112 0.099484
42445310 0.173762 -0.372597 0.043879 0.478648 0.116798 -0.135808 -0.177939 0.068367 0.149860 -0.414134 -0.789427 0.123769 -0.033144 0.155756 0.396220 -0.376355 -0.208707 -0.051667 -0.245385 -0.233332 -0.102914 0.406400 0.155419 0.327548 0.142979 0.066216 -0.066063 0.458373 -0.299808 -0.348870 0.233676 0.049327 0.386519 -0.090031 -0.186931 0.093557 -0.142137 0.102748 0.198199 -0.367774 0.307112 0.061778 -0.038320 0.332770 0.102711 -0.322217 0.598645 -0.290787 0.208267 0.223488 0.126055 -0.354038 0.090799 -0.324789 -0.018767 -0.567255 -0.442213 0.150490 -0.753129 -0.043917 0.514379 -0.541631 -0.115555 0.030042 -0.200696 0.697415 0.265504 -0.133212 0.098888 -0.156834 0.139691 -0.172381 -0.469462 0.174161 0.092737 0.259890 -0.258489 0.259907 0.020953 0.160924 0.140907 0.431505 0.171647 -0.126568 0.013982 0.556520 -0.004513 -0.308264 0.040658 0.277085 0.078198 0.183262 -0.606582 0.198785 -0.067116 -0.258815 0.341040 -0.320753 0.250273 -0.830456 -0.363433 -0.335461 -0.586413 -0.327163 0.321916 -0.392386 0.433432 -0.036225 -0.061040 0.025419 -0.042176 0.471129 0.264245 -0.050926 -0.377031 -0.567328 0.426571 -0.027978 0.149665 0.193193 -0.057810 0.317112 0.607196 0.871170 0.109511 0.286433 0.249410 0.157993
42435618 0.168143 -0.349430 0.208335 0.238794 -0.154225 -0.105261 0.051637 0.153296 -0.071813 0.069759 -0.184336 0.656186 0.274715 0.008482 0.198660 -0.425949 0.139870 0.121599 -0.179235 -0.098941 -0.004941 0.335448 0.071040 -0.081485 0.167060 -0.036208 -0.051164 0.610052 -0.211948 -0.165275 -0.368994 0.200025 0.522369 -0.032010 0.275617 -0.113167 -0.540272 -0.138689 -0.018119 -0.231836 0.103787 0.101348 -0.324081 0.072778 -0.189664 -0.443846 0.481637 -0.204293 0.314187 0.206419 -0.105255 -0.347716 0.209854 -0.398505 -0.187946 -1.145963 0.383967 -0.732312 -0.566196 -0.199601 0.548887 -0.506945 0.100118 0.036272 -0.205391 0.331612 -0.029261 -0.260684 -0.770823 0.352496 -0.201170 -0.148132 -0.402218 0.162025 -0.032579 -0.145744 -0.128854 0.469666 -0.372456 -0.085347 0.135107 0.475913 0.544746 -0.191076 0.234138 0.238191 -0.124302 -0.537724 -0.068852 -0.287083 0.117774 0.213909 0.019266 0.498070 -0.276697 0.318738 -0.117549 -0.151390 0.528860 -0.242380 0.249997 -0.339946 -0.582684 -0.283096 0.164038 -0.286523 0.163177 -0.746291 -0.357956 0.465025 0.003811 0.308873 0.885840 0.515567 -0.406997 0.115531 1.043430 -0.130133 -0.137327 -0.415616 0.023957 0.219032 0.378020 0.438917 0.019575 0.065491 0.073195 -0.145826
42429661 0.318079 -0.530931 0.266349 0.396609 -0.401011 0.200433 0.223052 0.165217 -0.118420 0.290903 -0.088025 0.826387 0.094412 -0.008624 0.017240 -0.322427 0.277702 0.156757 0.066048 -0.236117 -0.125117 0.192118 -0.062414 -0.178984 0.284582 -0.119964 -0.088169 0.488997 -0.198242 -0.442461 -0.383127 0.199404 0.499004 -0.044601 0.361416 -0.108256 -0.556658 -0.138272 0.080416 -0.243330 -0.034594 0.077252 -0.238806 -0.059298 -0.059628 -0.031792 0.403521 -0.043947 -0.115437 0.201411 -0.182562 -0.110831 0.349071 -0.383506 -0.435990 -1.045316 0.558324 -1.097369 -0.447909 -0.218564 0.465160 -0.548865 0.322908 0.088392 -0.249436 0.306284 -0.046114 -0.485640 -0.877461 0.642505 -0.391900 -0.119461 -0.056124 0.123558 -0.107686 -0.353426 0.067181 0.449423 -0.578293 -0.253078 0.092511 0.132573 0.727483 -0.075062 0.458521 0.113188 0.111048 -0.625787 0.112096 -0.101640 -0.166911 0.265564 0.114081 0.492159 -0.139345 0.663454 -0.331254 -0.125932 0.418390 0.253119 0.301026 -0.424147 -0.475672 -0.352167 -0.249291 -0.122946 0.349591 -0.867672 -0.216262 0.298602 0.039834 0.078822 1.007748 0.489017 -0.381649 0.321016 1.065084 -0.188777 -0.172927 -0.407341 -0.218583 -0.199639 0.414385 0.264158 0.050920 0.215682 -0.236639 -0.404418
42431677 0.443142 -0.313951 -0.308328 0.282188 -0.568335 0.280812 0.077879 -0.259731 -0.021390 -0.529567 -0.160887 0.209299 0.165230 -0.006566 -0.019611 -0.332637 0.524020 0.141433 -0.330387 0.122993 0.482847 -0.038478 -0.168537 0.417139 0.118078 0.585753 0.237337 0.803848 0.251895 -0.139955 0.394687 -0.390795 0.005703 -0.159371 0.207695 -0.141628 0.087487 -0.250237 0.156507 0.121719 0.170549 0.854183 0.230377 0.647289 0.157843 0.352054 -0.008119 0.331336 0.653707 -0.024324 -0.375521 -0.179320 -0.222502 -0.392148 0.177592 -1.039996 0.071696 -0.503702 0.091760 -0.293278 0.613435 -0.213482 0.135696 -0.330660 0.464818 0.120180 0.484805 -0.472962 0.338139 0.262796 -0.050145 -0.484091 -0.082259 0.516538 -0.145214 0.215043 -0.460524 -0.131095 -0.310476 -0.303903 0.599802 0.326312 0.404629 -0.451054 0.510132 -0.333109 0.143808 -0.580465 -0.021655 0.260691 -0.205027 0.389211 -0.013421 -0.191469 0.466274 -0.114226 0.258990 0.058574 0.418618 0.114989 -0.022434 0.033208 -0.183602 -0.662503 -0.394505 -0.591890 0.063043 -0.309896 -0.272197 -0.263231 -0.144889 0.179607 -0.226631 0.168627 -0.420238 -0.349456 0.570065 -0.191952 0.211933 -0.394881 -0.326833 0.366228 0.835052 0.395285 -0.430543 0.154139 0.486690 -0.324054
42434270 0.063620 -0.302922 0.262480 0.175121 -0.014417 -0.045826 0.079613 0.113878 -0.180650 0.008806 -0.103987 0.597125 0.251680 0.172880 0.357810 -0.507389 0.136861 0.188176 -0.153491 0.076255 0.008217 0.110106 0.060072 -0.144989 0.193677 -0.009207 0.135881 0.512595 -0.073553 -0.050915 -0.282065 0.268986 0.420413 0.039986 0.245226 -0.189560 -0.461705 -0.197393 -0.161630 -0.335562 0.205820 0.129435 -0.231772 0.224760 -0.196474 -0.439135 0.400899 -0.369237 0.251027 0.379558 -0.173511 -0.473795 0.206686 -0.347527 -0.113582 -1.187082 0.333902 -0.645431 -0.630489 -0.147580 0.424650 -0.502870 -0.008357 -0.091843 -0.024114 0.319163 0.090331 -0.207953 -0.639396 0.308405 -0.214768 -0.227425 -0.363143 -0.033296 0.144163 -0.182680 0.033165 0.594381 -0.333152 -0.123628 0.062193 0.346742 0.581858 -0.077790 0.157826 0.268582 -0.015496 -0.430912 -0.178321 -0.314494 0.113216 0.219527 -0.007533 0.457320 -0.304109 0.206670 -0.052647 -0.153465 0.442177 -0.340387 0.369019 -0.372177 -0.593429 -0.287305 0.255490 -0.335704 0.166662 -0.576937 -0.222025 0.458639 -0.048767 0.533740 0.849184 0.752443 -0.349129 -0.028044 1.134613 -0.131399 -0.120152 -0.537096 0.086957 0.375203 0.294183 0.270183 0.028695 0.097433 0.001647 0.085976
42429981 -0.374003 -0.388959 -0.441441 -0.136965 -0.354071 0.330736 0.348785 -0.216006 -0.070444 -0.197059 -0.501243 0.538969 -0.004284 -0.325190 -0.198818 -0.451384 0.230040 0.402204 -0.487335 -0.302058 0.169024 -0.051669 0.033971 0.329585 0.227783 -0.001254 -0.134696 0.425481 -0.553565 -0.013095 0.192783 -0.037842 0.242945 0.153873 -0.037618 0.200435 -0.480285 0.407001 -0.082896 0.375663 0.218278 0.166752 -0.068642 0.205375 -0.227315 0.081102 -0.475641 -0.136212 0.136211 -0.252802 -0.395469 -0.560917 -0.138474 -0.484007 0.646550 -0.417823 -0.082472 -0.163876 -0.644105 0.070496 -0.047766 -0.487210 0.053024 -0.015162 -0.114712 0.024113 -0.157036 -0.450107 -0.218737 0.088913 -0.277326 0.035713 -0.244234 0.501694 0.042108 -0.187809 -0.184487 -0.176303 -0.304537 0.050537 -0.415109 0.648488 0.939517 -0.421139 0.500535 0.143884 0.423800 -0.437595 -0.200490 0.194218 -0.219270 0.250347 -0.309346 -0.014904 0.160616 0.459811 -0.077001 0.045965 -0.108550 0.379523 -0.083365 -0.699105 -0.331078 -0.669420 -0.080883 -0.953331 0.128850 -0.276548 -0.483338 0.472997 -0.548326 -0.215996 -0.044282 0.090828 -0.411399 -0.293459 -0.002996 -0.079908 -0.018465 0.223437 -0.257038 0.424044 -0.067610 0.059836 -0.273279 0.439933 0.125112 0.415463
42454522 0.139090 0.290972 -0.403338 0.325430 -0.475001 0.172071 0.144535 -0.297600 -0.002769 0.034417 -0.422060 0.229656 -0.094832 0.131467 0.103952 -0.689419 0.206400 0.057064 -0.421190 -0.188080 -0.070259 0.207790 -0.015544 0.251915 -0.013650 0.113450 0.271316 0.230814 -0.393370 -0.224813 0.967177 0.650505 0.099358 0.818860 0.072557 0.275816 0.216457 -0.433742 -0.045632 0.082088 0.001147 0.205512 0.356971 0.109379 -0.229316 -0.125474 0.052237 -0.090565 0.106696 0.458787 -0.420782 -0.200588 0.533823 -0.497740 -0.238083 -0.691947 -0.000450 -0.117828 -0.625172 0.167534 0.463312 -0.391191 -0.042426 -0.046449 -0.280539 0.434708 0.547710 -0.402283 -0.377232 -0.054862 -0.587440 -0.315921 0.003336 0.392981 0.275360 0.218816 0.198601 0.127463 -0.959558 -0.116793 0.188703 -0.067195 0.450103 0.254619 0.684601 0.001458 -0.067204 -0.749370 0.136692 0.512625 0.035523 -0.218279 -0.185343 0.090237 0.009619 -0.287922 -0.178331 -0.279212 -0.194416 0.327183 -0.430953 -0.140920 -0.428557 -0.494882 -0.126496 0.118037 0.455521 -0.335806 -0.464517 -0.094496 -0.026030 -0.002859 0.058642 -0.276676 -0.539773 -0.606538 0.343531 -0.055295 0.167964 -0.400953 -0.082966 -0.060830 0.292313 0.396167 0.161658 0.481970 -0.450555 0.081753
42430597 0.245277 -0.298273 0.058326 0.551636 0.040195 -0.147970 -0.222696 -0.014031 0.206874 -0.460039 -0.938676 0.105392 0.075057 0.128681 0.259704 -0.416301 -0.184919 -0.131371 -0.219386 -0.232332 -0.024993 0.575531 0.140175 0.394943 0.209635 0.130771 -0.101493 0.523917 -0.318057 -0.381525 0.366904 0.078894 0.535401 -0.222755 -0.223746 0.098862 -0.211783 0.125050 0.277017 -0.215863 0.259727 0.114187 -0.149676 0.356801 0.086632 -0.413291 0.495336 -0.225399 0.251280 0.003710 0.034965 -0.379475 0.110974 -0.391954 0.037537 -0.447513 -0.568878 0.320610 -0.728615 0.005514 0.645151 -0.465285 -0.083455 0.102101 -0.303502 0.749014 0.269426 -0.186431 0.188657 -0.316566 0.156412 -0.181953 -0.407268 0.276597 0.192656 0.376230 -0.337427 0.185750 0.009727 0.265847 0.172885 0.545728 0.167727 -0.195143 -0.025297 0.650949 -0.065636 -0.395216 0.086612 0.258949 0.084462 0.159401 -0.667621 0.155149 0.001921 -0.320296 0.332745 -0.338821 0.171158 -0.809048 -0.418522 -0.247117 -0.527891 -0.275099 0.392755 -0.327219 0.380719 -0.102834 -0.091517 -0.056491 0.016541 0.356616 0.203582 -0.293524 -0.436864 -0.648310 0.282990 -0.056711 0.069316 0.334172 -0.232289 0.168575 0.609388 0.976096 0.011491 0.333745 0.319412 0.129342
42430633 -0.182781 -0.078496 0.250601 1.015627 0.074421 0.230947 -0.246993 0.060133 0.179487 0.042806 -0.685384 0.410416 0.453332 -0.070003 0.135513 -0.273271 0.170255 0.404077 -0.028613 -0.246572 -0.497314 0.092838 0.057294 -0.005570 0.691971 0.249209 -0.060265 -0.002958 -0.339192 -0.130816 0.203029 -0.273913 0.132874 -0.009890 0.146365 0.597730 -0.244410 0.067881 0.613586 0.400976 0.136770 0.131759 0.243932 0.135909 -0.390770 0.185622 0.448674 -0.157952 -0.196779 0.234251 -0.106244 -0.477513 0.147696 -0.390900 -0.013805 -0.699060 -0.246508 0.235279 -0.305801 -0.450415 0.270643 -0.338210 -0.090667 0.119240 0.113774 0.869015 -0.118000 -0.480553 0.257752 -0.061832 0.158209 0.089871 0.038569 0.134891 0.206561 0.486102 0.051862 0.205517 -0.415780 0.407670 0.036544 0.566645 0.305618 -0.549690 0.033792 0.038968 -0.181668 -0.648662 0.428832 -0.023544 -0.162199 -0.117943 -0.593678 -0.007919 0.088189 -0.066344 0.073268 -0.572614 0.034929 -0.207615 -0.218012 -0.143202 -0.214861 -0.083761 0.379390 -0.494245 0.419510 0.293542 0.093784 -0.177932 0.055838 0.367531 0.019454 -0.135843 -0.148222 -0.421142 0.392500 -0.275201 0.329692 0.000149 -0.575601 0.324369 0.729081 0.678070 0.039373 0.024024 -0.295016 0.301191
4597668031 0.149367 0.042733 -0.355735 0.232579 -0.472207 0.175280 0.162687 -0.301770 0.071672 0.006284 -0.374533 0.158278 -0.290723 0.198208 0.192635 -0.646587 0.286222 0.024015 -0.423985 -0.328855 -0.124070 0.030877 -0.064333 0.164463 0.120006 0.190407 0.380502 0.212515 -0.420001 -0.177397 0.914843 0.642704 -0.058347 0.736701 0.063423 0.318314 0.279794 -0.469560 -0.103110 -0.021281 0.101752 0.209455 0.489323 0.092601 -0.211127 -0.135582 0.115157 -0.068480 0.037188 0.577204 -0.382024 -0.254865 0.463101 -0.479074 -0.126573 -0.614421 -0.015157 -0.228805 -0.721481 0.156911 0.532446 -0.461406 -0.112420 -0.213393 -0.223143 0.528309 0.509450 -0.315007 -0.418278 -0.036620 -0.475426 -0.442324 -0.017494 0.208930 0.273700 0.212414 0.332586 0.287864 -0.808939 -0.310215 0.077202 -0.169127 0.449450 0.311655 0.637997 -0.011378 0.039079 -0.725311 0.129113 0.533917 -0.118446 -0.128690 -0.170056 0.118400 0.083808 -0.187929 -0.264691 -0.291404 -0.081181 0.330962 -0.553548 -0.164853 -0.397762 -0.576234 -0.226460 0.166638 0.561506 -0.354155 -0.367793 -0.051471 -0.071153 -0.075642 0.075835 -0.175450 -0.483514 -0.685057 0.330800 -0.170834 0.110208 -0.357459 -0.053648 -0.140502 0.317155 0.322017 0.174651 0.477876 -0.461627 0.170443
42430603 0.091980 -0.227221 0.189246 0.914706 0.091929 0.123278 -0.192065 0.034602 0.293439 -0.164670 -0.944452 0.209678 0.193898 -0.046969 0.370683 -0.387171 -0.135860 0.213509 -0.165825 -0.269724 -0.362919 0.348177 0.095888 0.226000 0.374899 0.106081 -0.089893 0.385678 -0.432830 -0.343903 0.271646 -0.402760 0.352509 -0.143018 -0.055200 0.588487 -0.092066 0.227828 0.415766 0.042818 0.245823 0.034913 0.208209 0.277243 -0.073863 -0.048139 0.618760 -0.196089 0.028128 0.278443 0.016960 -0.453808 0.157933 -0.228879 -0.103991 -0.617480 -0.497894 0.417710 -0.581467 -0.292587 0.444784 -0.409666 0.023566 0.079469 -0.029339 0.862517 0.045916 -0.339801 0.358041 -0.129241 0.112366 -0.116229 -0.170601 0.231132 0.086336 0.373916 -0.052893 0.197365 -0.190780 0.356334 0.166250 0.555869 0.193750 -0.462558 0.028958 0.274029 0.036227 -0.380094 0.363874 0.315479 -0.058271 -0.063607 -0.735904 -0.049711 0.156671 -0.187672 0.296220 -0.393003 0.121969 -0.478350 -0.457185 -0.371696 -0.538215 -0.300397 0.430536 -0.456622 0.538867 0.245849 0.080417 -0.082794 -0.077775 0.421333 0.015956 -0.193194 -0.254167 -0.620397 0.381113 -0.078475 0.199136 0.170329 -0.443290 0.305250 0.796427 1.002474 -0.021058 0.204099 -0.044290 0.191047
42442977 -0.378216 -0.368798 -0.273917 0.268228 -0.290745 0.305979 0.216412 -0.126931 0.065678 -0.310492 -0.380768 0.689065 0.287848 -0.187350 -0.145296 -0.366982 0.302876 0.323031 -0.315505 -0.412641 0.128760 0.091920 -0.170573 0.488760 0.062648 0.418206 0.117023 0.561012 -0.414338 -0.063311 0.301438 -0.067545 0.096957 0.134794 0.010473 0.148371 -0.376666 0.189008 -0.033565 0.158911 0.203429 0.520211 -0.267205 0.357085 -0.275262 -0.044108 -0.563347 -0.072587 0.359333 -0.068970 -0.294335 -0.544259 -0.339061 -0.705312 0.613173 -0.515595 0.008312 -0.200221 -0.549641 -0.152388 0.174115 -0.329059 0.088825 -0.223630 0.042343 0.107000 0.070930 -0.299314 0.035382 0.467336 -0.252613 0.063539 -0.088113 0.800750 -0.030514 -0.106273 -0.178141 -0.398013 -0.167035 -0.181972 -0.220374 0.487962 1.047173 -0.666785 0.527698 0.036394 0.579407 -0.377412 -0.218502 0.102417 -0.090094 0.431738 -0.309918 -0.072153 0.198526 0.295829 0.004195 -0.058924 0.245017 0.536760 -0.030252 -0.536504 -0.229995 -0.749555 0.077215 -0.743108 -0.061773 -0.362282 -0.525447 0.262266 -0.635928 -0.033797 0.006862 0.087638 -0.538799 -0.365731 0.075171 0.162321 -0.108637 0.313013 -0.070856 0.322926 0.220406 0.149826 -0.192198 0.395583 0.477201 0.359343
42430691 -0.188794 -0.499749 0.450710 0.662583 -0.700488 -0.121255 -0.057476 -0.441462 0.095564 -0.151276 -0.496524 -0.106095 -0.010630 0.286035 -0.006789 -0.266594 0.481287 0.193599 -0.093251 -0.091303 0.054128 -0.142193 0.513016 -0.082582 0.834834 0.236261 -0.255451 0.187221 0.164363 -0.313958 0.435536 -0.055335 0.116306 0.086889 -0.057497 0.098261 -0.571664 -0.057717 0.665538 -0.470512 -0.657602 0.277766 0.464941 0.361131 -0.215106 0.225859 0.077692 0.571320 0.440810 0.381929 -0.076867 -0.458309 -0.158991 -0.410049 -0.105735 -0.794436 0.085746 -0.544762 -0.125678 0.182279 0.261241 -0.668803 -0.218303 -0.113032 -0.036995 0.227076 0.201893 -0.513699 0.184898 -0.237694 -0.459542 0.042506 -0.223213 0.237895 0.142311 -0.160562 -0.288030 0.617313 0.082919 0.488284 0.020511 0.415937 0.858558 0.273204 0.305110 0.287882 -0.321457 -0.360252 0.324384 0.094688 -0.028774 0.025909 0.199125 -0.199964 0.141030 0.316441 0.373911 -0.538948 0.009788 -0.019792 -0.058130 -0.299197 0.426253 -0.456201 -0.090407 -0.239422 0.282962 -0.482205 0.028542 0.158823 0.376658 -0.296399 0.188779 0.078283 -0.224313 0.205252 0.238709 -0.161928 -0.023614 -0.285685 -0.409933 -0.554082 0.550131 0.812164 0.020013 -0.171962 0.167688 -0.033050
42437445 -0.398003 -0.372431 -0.102669 0.459068 -0.307519 0.151452 0.112139 0.092577 0.009473 -0.469573 -0.193006 0.504995 0.276403 -0.230023 0.081257 -0.393842 0.376084 0.153730 -0.384535 -0.323393 0.072193 0.011925 -0.231626 0.488307 0.093762 0.647141 0.293615 0.594086 -0.079217 -0.232862 0.482928 -0.084608 -0.088099 0.027361 -0.140789 0.035939 -0.094038 -0.011836 0.017204 0.011351 0.103053 0.892952 -0.203949 0.517530 -0.174029 0.116218 -0.475733 0.144229 0.593078 0.159375 -0.244203 -0.432712 -0.533059 -0.542884 0.516744 -1.014071 -0.090615 -0.273589 -0.305342 -0.275031 0.448339 -0.134223 0.115455 -0.305742 0.245640 0.065814 0.295868 -0.409360 0.352879 0.529895 -0.116902 -0.128367 -0.103812 1.075743 0.024482 0.100953 -0.115690 -0.170375 -0.243979 -0.338449 0.046233 0.474119 0.819878 -0.585059 0.758807 -0.006505 0.447063 -0.401152 -0.084312 0.126648 -0.146419 0.452015 -0.174351 -0.086511 0.169636 0.157163 0.251080 -0.211785 0.391645 0.515958 0.077245 -0.105252 -0.083349 -0.716833 0.096372 -0.418718 -0.148495 -0.674920 -0.269075 -0.161694 -0.390704 0.030831 0.050760 0.180819 -0.498399 -0.461102 0.211913 0.168231 -0.215527 0.096749 -0.166154 0.416516 0.436645 0.235057 -0.305566 0.257655 0.485590 0.125972
42434279 0.222097 -0.391387 0.197473 0.223264 -0.065364 -0.213314 0.003281 0.156073 -0.047079 -0.078909 -0.285851 0.519082 0.322786 0.043916 0.139517 -0.353226 0.027706 0.007508 -0.340580 -0.155198 0.003877 0.561768 0.018492 0.022550 0.177933 -0.103180 -0.090969 0.558319 -0.279764 -0.038731 -0.186524 0.225653 0.568632 -0.060348 0.076249 -0.167954 -0.488325 -0.228091 0.008067 -0.366439 0.191129 0.077271 -0.324526 0.073453 -0.128796 -0.506495 0.483868 -0.310190 0.348657 0.146914 0.009878 -0.324910 0.223477 -0.475370 -0.123542 -1.006555 0.035711 -0.475277 -0.552578 -0.014530 0.584162 -0.521768 -0.006313 0.178231 -0.341933 0.399204 0.157539 -0.268156 -0.695786 0.186038 -0.107154 -0.211104 -0.538210 0.098863 -0.044907 -0.080122 -0.221593 0.427882 -0.194999 -0.000879 0.031525 0.532540 0.476467 -0.153939 0.085382 0.359659 -0.159741 -0.548026 -0.084229 -0.217402 0.221190 0.271814 -0.044973 0.490581 -0.374500 0.158374 0.062006 -0.268067 0.504246 -0.548361 0.099477 -0.262824 -0.664566 -0.252015 0.201691 -0.460596 0.254889 -0.634446 -0.387739 0.445344 -0.068462 0.367074 0.717564 0.289717 -0.400464 0.014995 0.864442 -0.096387 -0.201460 -0.192510 0.087849 0.302041 0.426275 0.672245 0.079265 0.141387 0.213960 -0.054972
42446275 0.081925 0.440803 -0.307443 0.358648 -0.428540 0.174136 0.348269 -0.148563 -0.095810 0.189681 -0.515820 0.360559 0.160648 -0.119452 -0.192242 -0.521840 0.015272 0.055518 -0.251499 0.014181 0.013199 0.349807 -0.066305 0.421214 -0.107636 -0.082051 0.079338 0.416296 -0.244434 -0.248911 1.066967 0.636239 0.287050 0.834101 0.013777 0.188584 0.104298 -0.465608 0.066161 0.196358 -0.249268 0.119051 0.210210 0.218455 -0.190498 -0.142498 0.118092 -0.088545 0.169558 -0.060539 -0.346646 -0.040979 0.650402 -0.563675 -0.397693 -0.788892 0.077719 -0.126766 -0.497019 0.125428 0.220844 -0.140820 0.067494 0.309199 -0.252898 0.356163 0.684440 -0.563943 -0.290104 -0.023636 -0.759820 -0.231797 0.113810 0.490863 0.075484 0.103073 0.019636 -0.045838 -1.064156 0.105840 0.461181 -0.029453 0.795264 0.092840 0.753848 -0.192293 -0.262860 -0.673748 -0.088377 0.286190 0.097431 -0.422388 -0.283196 -0.172546 -0.099887 -0.285614 -0.057299 -0.266543 -0.272004 0.269724 -0.214697 0.103447 -0.455742 -0.277816 -0.006682 -0.250841 0.244968 -0.187630 -0.507100 -0.174621 -0.056649 0.055974 0.090662 -0.331866 -0.783118 -0.543826 0.310688 -0.058129 0.362889 -0.545052 -0.127788 0.085205 0.245400 0.650171 0.175401 0.446222 -0.389865 -0.158681
42430607 -0.038169 -0.104318 0.253740 1.022761 0.122859 0.125559 -0.161293 0.127222 0.201063 0.034963 -0.867749 0.265082 0.309148 -0.159808 0.285733 -0.377933 0.023670 0.351334 -0.174687 -0.241385 -0.420061 0.214766 0.124286 0.152242 0.423929 0.093585 -0.062301 0.185407 -0.316531 -0.314554 0.149766 -0.338398 0.282884 -0.107621 0.011815 0.617984 -0.193341 0.242374 0.460553 0.217323 0.216991 0.025993 0.278373 0.164858 -0.300155 0.052477 0.586544 -0.104362 -0.073844 0.317944 -0.014927 -0.503205 0.181869 -0.307874 -0.134119 -0.687069 -0.368038 0.402128 -0.419877 -0.409824 0.312684 -0.374578 0.010095 0.028230 0.165449 0.762668 -0.033097 -0.420696 0.316265 -0.025419 0.156879 0.012369 -0.061724 0.200014 0.108022 0.349724 0.039186 0.266362 -0.297597 0.354537 0.175687 0.596312 0.263671 -0.567494 0.127955 0.112257 -0.047665 -0.472613 0.441097 0.119179 -0.032465 -0.162978 -0.689824 -0.110123 0.168499 -0.068416 0.191644 -0.488679 0.062927 -0.322739 -0.359929 -0.263035 -0.390322 -0.206340 0.451273 -0.594572 0.505122 0.333288 0.098973 -0.027314 -0.028345 0.439074 0.018661 -0.091480 -0.229579 -0.520982 0.409853 -0.188999 0.265375 0.122255 -0.462719 0.310005 0.810348 0.950757 0.084611 0.121736 -0.183773 0.155434
42438674 0.035229 -0.350899 0.182620 0.774638 0.159522 0.000029 -0.166464 0.125493 0.141842 -0.195416 -0.857255 0.197955 0.070188 0.048883 0.407217 -0.334492 -0.159519 0.199638 -0.234420 -0.290881 -0.387092 0.265285 0.061372 0.272793 0.337541 0.034417 -0.082086 0.279986 -0.381625 -0.340261 0.128682 -0.228427 0.231751 0.048507 -0.011241 0.453296 -0.027496 0.147178 0.409902 -0.063010 0.327370 0.034043 0.207583 0.256356 -0.043996 -0.044385 0.657562 -0.251755 -0.024329 0.330481 0.162834 -0.439911 0.083293 -0.241263 -0.026105 -0.622805 -0.441953 0.254963 -0.668640 -0.238543 0.312445 -0.482562 -0.113747 0.061779 0.015290 0.766853 0.157374 -0.219321 0.188000 -0.070550 0.155511 -0.065739 -0.315091 0.148114 -0.017501 0.372445 -0.044043 0.181365 -0.133336 0.234848 0.134514 0.486757 0.169155 -0.377693 0.038664 0.271522 -0.074504 -0.418946 0.250637 0.386959 0.027110 -0.009476 -0.715090 0.061877 0.070558 -0.238627 0.357899 -0.406201 0.175678 -0.623257 -0.376090 -0.393348 -0.493745 -0.304349 0.336090 -0.587595 0.552431 0.293698 0.051268 0.042560 -0.078172 0.501523 0.097224 0.008472 -0.223221 -0.634117 0.422529 -0.141040 0.352095 0.128993 -0.261710 0.514794 0.803734 0.909635 0.199966 0.198019 0.011133 0.207498
42437425 0.570871 -0.446450 -0.150353 0.320108 -0.808049 0.320774 -0.308523 -0.340546 -0.040413 -0.501328 -0.218546 0.498884 0.066127 0.366483 -0.126275 -0.594075 0.441813 0.265906 -0.116956 0.170750 0.493424 0.081560 -0.135053 0.400973 0.232858 0.418945 0.168013 0.809764 0.114023 -0.195086 0.142000 -0.467952 0.367089 -0.208012 0.323158 -0.161082 0.007794 -0.368260 0.234570 0.149725 0.080441 0.583805 -0.113588 0.272699 0.055484 0.238494 -0.169289 0.150237 0.713868 0.158993 -0.088323 -0.199391 -0.163930 -0.278899 0.058667 -0.870671 0.057532 -0.302979 0.289480 -0.301313 0.582481 -0.475227 0.034111 -0.638065 0.476224 0.265473 0.436197 -0.351865 0.117762 0.031623 -0.041394 -0.227533 -0.150523 0.069538 0.137726 0.045816 -0.267988 -0.269599 -0.308871 0.072702 0.831739 -0.047103 -0.013388 -0.271304 0.189472 -0.153297 -0.001012 -0.443225 0.181410 0.176638 -0.321384 0.491410 0.047778 -0.163542 0.582883 0.062669 0.149529 0.370150 0.286653 -0.129290 -0.042629 -0.208279 -0.280242 -0.484517 -0.443093 -0.727093 0.215794 0.142687 -0.026002 -0.070837 -0.251041 0.621095 -0.171024 0.127343 -0.649870 -0.223721 0.518322 -0.048384 0.243125 -0.187018 -0.522652 0.124916 0.917031 0.291988 -0.340923 0.069426 0.352685 -0.543265
42430589 0.496921 -0.136123 0.273354 0.069723 -0.130422 -0.402991 -0.081422 0.035380 -0.034451 -0.220721 -0.593364 0.206352 0.427019 0.055603 -0.097552 -0.378221 0.139287 -0.180703 -0.399888 -0.252339 0.137907 0.733440 -0.069357 0.285146 0.274391 -0.100767 -0.124850 0.506827 -0.144505 -0.107992 0.000203 0.599462 0.726414 -0.180063 -0.141168 -0.399784 -0.446329 -0.256722 0.239758 -0.294898 0.228689 0.151242 -0.431160 0.168276 -0.095687 -0.622899 0.290670 -0.234039 0.309605 -0.380505 -0.089805 -0.434528 0.213816 -0.682592 0.106005 -0.622690 -0.347799 -0.116120 -0.557908 0.099275 0.757126 -0.565576 -0.111337 0.146223 -0.428707 0.468808 0.416187 -0.364659 -0.521555 -0.208606 0.022000 -0.264596 -0.655601 0.190911 0.075069 0.193532 -0.297006 0.254273 0.005648 -0.055641 -0.123596 0.652058 0.462674 -0.216256 0.166197 0.624373 -0.393762 -0.850086 0.043996 -0.099237 0.235053 0.384988 -0.104797 0.374659 -0.236425 -0.115354 0.048373 -0.355575 0.381768 -0.834554 -0.066281 0.036709 -0.238378 -0.069136 0.251847 -0.461206 0.236856 -0.671571 -0.382227 0.209934 0.027302 0.268935 0.382005 -0.223061 -0.480168 -0.181492 0.590090 -0.242776 -0.317619 0.278214 -0.073078 0.080890 0.532164 0.868439 0.101392 0.374329 0.441490 -0.044183
42445413 0.210326 0.254409 -0.252358 0.207417 -0.536476 0.313258 0.335885 0.019139 -0.062551 0.226374 -0.622162 0.376021 0.372973 -0.137906 -0.480211 -0.144501 0.086388 0.042991 -0.141405 -0.005803 0.041243 0.103043 -0.306204 0.637683 0.225505 -0.094795 -0.062941 0.469774 -0.047112 -0.215628 0.874922 0.373958 0.412433 0.924556 -0.200666 0.017924 0.008630 -0.136228 -0.103829 0.056560 -0.232162 0.146946 0.319988 0.313727 0.021448 -0.520492 0.090686 0.041983 -0.072415 -0.246759 -0.302168 -0.125240 0.665182 -0.430370 -0.360335 -0.478067 0.108718 -0.279753 -0.703963 0.249575 -0.069139 -0.067144 0.139694 0.270937 -0.128823 0.420009 0.600220 -0.590516 -0.208557 0.087319 -0.653580 -0.068602 0.306665 0.257911 0.099685 0.257753 -0.117189 -0.124126 -0.949244 0.091624 0.546638 -0.060294 0.950032 0.021726 0.421757 -0.302173 -0.316289 -0.396257 -0.119186 -0.005714 0.063781 -0.542567 -0.300394 -0.297027 -0.054273 -0.221695 -0.056380 0.092496 -0.020355 0.146340 0.238364 0.106140 -0.540792 -0.116122 -0.166460 -0.505282 0.145830 -0.075497 -0.302133 -0.057849 -0.019875 0.005377 0.106790 -0.167275 -0.824016 -0.332885 0.333534 -0.233203 0.616116 -0.751038 -0.325582 0.282366 0.223311 0.663399 0.305387 0.303479 -0.167810 -0.161293
42443674 0.234526 -0.388307 0.157430 0.281839 -0.198988 -0.148812 0.066889 0.210133 -0.022667 0.035491 -0.238646 0.594578 0.345375 -0.029982 0.095560 -0.325682 0.104952 0.058285 -0.227805 -0.183575 0.017582 0.583731 0.067510 -0.069958 0.166832 -0.111890 -0.161822 0.608578 -0.321080 -0.155015 -0.238171 0.187573 0.605812 -0.100148 0.135627 -0.135832 -0.576955 -0.178878 0.058139 -0.327330 0.075747 0.052968 -0.329441 -0.004318 -0.120986 -0.509255 0.510175 -0.201525 0.338725 0.152050 -0.073848 -0.224483 0.274830 -0.471950 -0.239427 -1.041132 0.199434 -0.627306 -0.495015 -0.088377 0.583844 -0.504604 0.151220 0.215790 -0.374236 0.338369 0.046034 -0.336514 -0.740261 0.336597 -0.215484 -0.134927 -0.425327 0.194507 -0.090811 -0.158023 -0.211373 0.451752 -0.336809 -0.020396 0.121582 0.481146 0.486227 -0.183527 0.200071 0.316979 -0.099091 -0.521959 -0.062561 -0.302287 0.183481 0.208741 0.049235 0.465761 -0.354495 0.332467 -0.033234 -0.227474 0.561677 -0.306463 0.138839 -0.274175 -0.680302 -0.253441 0.116353 -0.336550 0.196030 -0.809093 -0.405023 0.413976 -0.014712 0.197930 0.853744 0.253581 -0.379054 0.171807 0.925141 -0.063390 -0.227524 -0.236519 0.002169 0.091742 0.429525 0.621382 0.021172 0.090789 0.137801 -0.191579
42429980 -0.345671 -0.417051 -0.412471 -0.196431 -0.333387 0.422069 0.208848 -0.239209 -0.049193 -0.216403 -0.466919 0.549600 0.017224 -0.273702 -0.251405 -0.568115 0.154532 0.451389 -0.454287 -0.166113 0.270482 0.035865 0.034093 0.366372 0.213326 0.067434 -0.062051 0.525686 -0.436966 0.110243 0.037637 -0.087027 0.334079 0.055750 0.013611 0.185755 -0.459588 0.218653 -0.015957 0.431844 0.259510 0.224943 -0.219723 0.205126 -0.158495 0.073842 -0.447759 -0.015287 0.205608 -0.270537 -0.311310 -0.535435 -0.211826 -0.463246 0.502274 -0.324846 0.012153 -0.162777 -0.454621 0.125285 0.016341 -0.593757 -0.019515 -0.090748 -0.099299 0.017922 -0.092788 -0.351846 -0.106235 0.037105 -0.321251 -0.031479 -0.276169 0.339015 0.144479 -0.194937 -0.346510 -0.413477 -0.371238 0.141455 -0.246783 0.515212 0.846795 -0.325761 0.421677 0.165123 0.377610 -0.507096 -0.201415 0.290239 -0.279954 0.339319 -0.319619 0.040031 0.247312 0.496593 -0.126379 0.219399 -0.060685 0.302272 -0.155585 -0.663939 -0.368955 -0.682089 -0.181694 -0.959561 0.157629 -0.127951 -0.417450 0.515739 -0.576447 -0.147943 -0.091292 0.094366 -0.570568 -0.254017 0.025481 -0.097445 0.070366 0.257892 -0.340879 0.288915 0.027964 0.158904 -0.141023 0.288176 0.199737 0.243451
42446270 0.135498 0.380957 -0.365500 0.294304 -0.471033 0.210407 0.305634 -0.226531 -0.066985 0.150104 -0.486614 0.320840 0.011959 -0.033644 -0.124119 -0.550445 0.110888 0.038913 -0.308985 -0.070373 -0.050101 0.219157 -0.079144 0.381921 -0.043142 0.003564 0.143559 0.340047 -0.261057 -0.187750 1.039917 0.648787 0.211811 0.825459 -0.047749 0.187371 0.152497 -0.439304 -0.003973 0.108622 -0.133845 0.156305 0.316867 0.181365 -0.170453 -0.155594 0.113629 -0.083384 0.080306 0.096783 -0.373079 -0.070941 0.651621 -0.557148 -0.335336 -0.729837 0.097272 -0.209900 -0.578254 0.168316 0.259728 -0.239860 0.004869 0.175073 -0.291404 0.441992 0.651811 -0.530897 -0.363692 -0.043287 -0.676125 -0.262501 0.134922 0.391064 0.172874 0.154029 0.096678 0.050738 -1.028859 0.002304 0.349807 -0.105094 0.688078 0.194762 0.677308 -0.156275 -0.146706 -0.656367 0.024703 0.336122 0.012095 -0.347320 -0.229474 -0.041260 -0.075802 -0.249797 -0.146207 -0.243029 -0.232512 0.310171 -0.322051 0.055077 -0.440184 -0.325509 -0.089378 -0.123878 0.357446 -0.262648 -0.458909 -0.188959 -0.046861 0.024225 0.078071 -0.271393 -0.721156 -0.570607 0.324695 -0.093383 0.326774 -0.545978 -0.125899 0.021204 0.254525 0.510823 0.237927 0.420330 -0.415447 -0.015291
4597668030 0.206093 0.098461 -0.343766 0.162235 -0.520064 0.289437 0.145383 -0.307660 0.115861 0.024999 -0.431953 0.209742 -0.200622 0.119759 0.066623 -0.477869 0.185588 0.004207 -0.376493 -0.310272 -0.080585 -0.076035 -0.215578 0.265884 0.202419 0.123255 0.357528 0.283850 -0.408254 -0.162279 0.961833 0.572695 -0.033957 0.792717 -0.069420 0.314465 0.323929 -0.391057 -0.149850 0.047215 0.058493 0.201309 0.503142 0.163762 -0.080654 -0.213233 0.160681 -0.026319 -0.084763 0.336299 -0.399211 -0.244311 0.432182 -0.481071 -0.165219 -0.549095 0.022949 -0.360107 -0.807525 0.183918 0.449442 -0.341506 -0.155279 -0.128322 -0.190393 0.584912 0.504306 -0.383677 -0.507160 -0.026457 -0.608293 -0.487467 0.085796 0.192972 0.252683 0.274072 0.306598 0.200036 -0.829495 -0.314803 0.113393 -0.196736 0.551083 0.329524 0.520994 -0.028719 0.020171 -0.633524 0.084503 0.580128 -0.120305 -0.208992 -0.173353 0.051327 0.102964 -0.198939 -0.224946 -0.151512 -0.048440 0.299094 -0.475557 -0.208628 -0.361667 -0.442527 -0.278372 0.102785 0.512132 -0.302241 -0.350863 -0.106290 -0.045771 -0.065997 0.029304 -0.201944 -0.514541 -0.543515 0.374183 -0.116617 0.226757 -0.404280 -0.075574 -0.117302 0.339998 0.455730 0.153226 0.427354 -0.378877 0.118205
42430673 -0.186665 -0.008705 0.587648 0.822947 -0.361378 0.185183 -0.222866 -0.119913 0.203652 -0.037039 -0.499642 0.175735 0.506024 0.161227 0.005412 -0.290019 0.330741 0.652405 -0.112199 -0.088975 -0.130801 0.075381 0.508627 -0.043217 0.876819 0.486169 -0.126595 -0.049912 0.267835 -0.334904 0.130885 -0.073232 0.085670 0.209100 -0.066255 0.037702 -0.632148 -0.263852 0.564497 0.285620 -0.273680 0.243902 0.429289 0.120604 -0.594707 0.425185 0.246824 0.058842 0.140486 0.000025 -0.211835 -0.533881 0.221392 -0.554375 -0.052718 -0.833116 0.050198 -0.355534 -0.057459 -0.217050 -0.068408 -0.411912 -0.268227 0.017265 -0.102743 0.731325 0.381168 -0.612701 0.229407 -0.184343 -0.212211 -0.041479 0.117785 -0.044893 0.357012 0.250816 -0.152146 0.558300 -0.236099 0.499069 0.244161 0.636255 0.735623 -0.120463 0.336295 0.177384 -0.294310 -0.610537 0.190276 -0.190406 -0.005185 -0.091951 -0.131731 -0.208204 0.097201 -0.087366 0.374866 -0.588612 -0.168365 0.057671 0.042031 0.045579 -0.039230 -0.264095 -0.139634 -0.444593 0.344129 -0.312214 0.177517 0.088310 0.416795 0.002549 0.159912 0.242900 -0.126863 0.047032 0.668806 -0.226718 0.130986 -0.271072 -0.700190 -0.549348 0.299927 0.655617 0.143821 -0.282949 -0.123729 0.007072
42431659 -0.352596 -0.389059 -0.397570 0.072567 -0.328567 0.351677 0.294148 -0.242989 -0.004060 -0.261763 -0.446466 0.624753 0.173530 -0.223215 -0.208324 -0.398269 0.261162 0.361800 -0.372675 -0.368845 0.181598 0.077398 -0.122739 0.409877 0.087030 0.192323 -0.075226 0.492167 -0.555086 -0.001859 0.217233 -0.097730 0.178322 0.183675 0.029702 0.180857 -0.461455 0.313054 -0.076173 0.286590 0.239071 0.309382 -0.178512 0.261280 -0.273469 -0.025278 -0.555191 -0.134380 0.262338 -0.180034 -0.350096 -0.565674 -0.178575 -0.605098 0.655006 -0.394202 -0.034793 -0.151587 -0.641683 -0.031969 0.032981 -0.402751 0.048929 -0.127735 -0.079811 0.058441 -0.080431 -0.373089 -0.140629 0.292067 -0.288889 0.081611 -0.152619 0.636400 0.006084 -0.157579 -0.185109 -0.364779 -0.194173 -0.051002 -0.355155 0.567845 1.016006 -0.549290 0.451159 0.057473 0.526218 -0.403932 -0.216322 0.146771 -0.134764 0.365042 -0.291455 -0.036048 0.208627 0.386820 -0.037767 0.022813 0.076474 0.474376 -0.069631 -0.695252 -0.290709 -0.732097 -0.018327 -0.889610 0.022447 -0.280742 -0.571738 0.438516 -0.664130 -0.121088 -0.033522 0.041699 -0.478048 -0.294001 0.012821 0.034614 -0.051254 0.295633 -0.144038 0.372243 0.040510 0.057164 -0.263203 0.430702 0.332388 0.426578
42427426 0.032598 -0.393766 0.118512 0.116522 0.147028 -0.014702 -0.018824 0.023259 -0.114722 -0.319522 -0.254464 0.327428 0.052072 0.276453 0.525819 -0.558484 0.030536 0.104971 -0.272376 0.000706 0.024311 0.100171 0.060569 0.003087 0.244290 0.028300 0.221506 0.453756 0.011276 -0.018193 0.107963 0.244763 0.264841 0.206681 0.115674 -0.129908 -0.225427 -0.222937 -0.138850 -0.509724 0.388665 0.068744 -0.044117 0.385722 -0.090557 -0.346463 0.338148 -0.513950 0.160185 0.482063 -0.189446 -0.559870 0.222546 -0.369446 -0.012744 -0.978662 -0.027446 -0.333503 -0.807969 -0.010698 0.362747 -0.553983 -0.191918 -0.078049 -0.072937 0.446506 0.330328 -0.176952 -0.270753 0.093419 -0.151038 -0.368161 -0.375380 -0.247757 0.288260 -0.125972 0.026402 0.542362 -0.191465 -0.134951 -0.086469 0.237364 0.545858 0.084057 0.067632 0.418479 0.152560 -0.418806 -0.263710 -0.034928 -0.002021 0.372306 -0.178447 0.320303 -0.218054 -0.071323 0.132825 -0.196853 0.432728 -0.625078 0.067316 -0.359824 -0.682836 -0.375474 0.335821 -0.431789 0.377085 -0.294016 -0.177464 0.245032 -0.118763 0.679643 0.667879 0.658431 -0.340091 -0.348656 0.920971 -0.126533 -0.107616 -0.362091 0.020761 0.465677 0.230745 0.317134 0.111092 0.236998 0.049714 0.287771
42444933 0.193208 -0.471251 0.132809 0.410364 0.142162 -0.136786 -0.129170 0.088535 0.097017 -0.377425 -0.634744 0.168337 -0.026745 0.206375 0.456261 -0.338928 -0.133674 0.040637 -0.292333 -0.229274 -0.209718 0.178012 0.025593 0.295293 0.221098 -0.012488 -0.008655 0.372732 -0.255605 -0.294479 0.069717 -0.013220 0.207984 0.085056 -0.106642 0.124326 -0.060598 0.067730 0.171836 -0.441028 0.432645 0.008384 0.035247 0.343973 0.051886 -0.188846 0.627783 -0.399636 0.147429 0.363069 0.132860 -0.420072 0.066193 -0.239408 0.031693 -0.667863 -0.344531 0.015737 -0.770988 -0.128559 0.371182 -0.571749 -0.203276 -0.023525 -0.100255 0.665576 0.294138 -0.146246 -0.059417 -0.067049 0.101770 -0.267719 -0.544351 -0.013034 -0.023979 0.154633 -0.101535 0.262684 0.047116 0.039508 -0.015956 0.407728 0.284212 -0.141134 -0.059631 0.442263 0.032050 -0.347877 0.047150 0.370723 0.115160 0.241264 -0.520219 0.178341 -0.077157 -0.199211 0.369500 -0.326928 0.298560 -0.846965 -0.290642 -0.440286 -0.546516 -0.402172 0.301778 -0.521934 0.550317 0.051727 -0.041329 0.108679 -0.074661 0.567160 0.275911 0.198184 -0.349655 -0.495167 0.532851 -0.083310 0.160530 0.047706 -0.010591 0.497118 0.619842 0.748618 0.205943 0.303522 0.253215 0.215853
42446701 0.399548 0.238512 -0.476915 0.080767 -0.826589 0.757873 0.252666 -0.225769 0.314311 0.121489 -0.233090 0.425133 -0.144733 -0.085919 -0.163385 -0.213631 0.676022 -0.340699 -0.074381 -0.126754 -0.012527 -0.778003 -0.620167 0.160817 0.458263 -0.089019 0.142333 0.500455 -0.388677 -0.047410 0.011242 0.198113 0.077111 0.061633 -0.145135 0.034468 -0.245640 0.366650 -0.526914 -0.396205 -0.043715 0.605744 -0.021084 0.565819 0.315451 -0.343528 0.211598 0.205512 0.073904 0.296291 -0.092090 -0.088929 0.052968 -0.386273 -0.228399 -0.515061 0.337665 -0.589600 -0.590926 -0.272498 0.107845 -0.469763 -0.237324 -0.348842 -0.016843 0.474985 0.243297 -0.279357 -0.797821 -0.323444 -0.663960 -0.067767 0.005987 0.277329 0.165062 0.163964 0.400627 0.293462 -0.113660 0.109907 -0.167612 0.008458 0.379728 0.246384 -0.231739 0.081110 -0.071863 -0.247994 0.380405 0.703057 -0.279436 0.093033 -0.052622 0.142295 0.086851 0.490555 0.111370 0.309908 0.045010 -0.033148 0.290140 -0.554761 0.155187 0.071039 -0.454653 0.161248 0.433247 -0.425667 0.204625 -0.408037 0.312163 -0.237821 -0.179575 -0.124850 -0.546943 0.121497 0.551048 0.086574 0.271753 -0.239265 0.088576 0.305808 0.759388 0.360373 0.000822 0.515647 0.210874 0.171387
42439836 0.136179 -0.332376 0.248734 0.255172 -0.148887 0.004146 0.104648 0.128656 -0.154649 0.123270 -0.121792 0.749447 0.235493 0.105908 0.244077 -0.478524 0.224748 0.168653 -0.042151 -0.018221 -0.028535 0.120776 0.046187 -0.141406 0.217303 -0.002692 0.034663 0.554061 -0.091540 -0.203938 -0.407116 0.261212 0.448458 -0.019410 0.319267 -0.171593 -0.533554 -0.116434 -0.086170 -0.237755 0.110123 0.157874 -0.308878 0.166984 -0.169489 -0.383519 0.423858 -0.225580 0.193717 0.283089 -0.197828 -0.378173 0.235452 -0.332087 -0.215914 -1.161585 0.495347 -0.813779 -0.578142 -0.241973 0.476468 -0.516980 0.116593 -0.082890 -0.079316 0.311607 -0.007257 -0.266407 -0.729173 0.417734 -0.251207 -0.143021 -0.285505 0.073254 0.075714 -0.187450 -0.006603 0.532750 -0.417877 -0.128730 0.112622 0.353769 0.608063 -0.112944 0.277072 0.227784 -0.037224 -0.507325 -0.074109 -0.275055 0.040338 0.207758 -0.007081 0.504515 -0.227106 0.369631 -0.181507 -0.105675 0.463638 -0.113784 0.418799 -0.392517 -0.511596 -0.274411 0.145988 -0.206306 0.183861 -0.710065 -0.208421 0.436955 0.030216 0.395197 0.936021 0.679920 -0.399219 0.091693 1.142162 -0.179836 -0.090694 -0.510160 -0.025675 0.191939 0.338906 0.276949 0.004242 0.094509 -0.046209 -0.114447
42430600 0.172269 -0.273441 0.038551 0.795452 0.026668 0.023488 -0.224622 0.047004 0.278754 -0.333408 -1.036945 0.125361 0.019245 0.039126 0.259688 -0.332833 -0.199387 0.008744 -0.153491 -0.266247 -0.175582 0.484608 0.149660 0.361843 0.257650 0.126039 -0.154062 0.484728 -0.464583 -0.432775 0.378242 -0.136757 0.498264 -0.237483 -0.164205 0.341065 -0.153791 0.216198 0.426797 -0.089581 0.180284 0.113327 0.016527 0.286159 0.062012 -0.223616 0.597652 -0.144164 0.107952 0.133555 0.134049 -0.339804 0.093311 -0.338444 -0.044405 -0.482666 -0.577547 0.383832 -0.644409 -0.127159 0.600152 -0.470639 -0.013982 0.115460 -0.204743 0.855182 0.161962 -0.221191 0.374082 -0.238504 0.141873 -0.039654 -0.298811 0.409083 0.105191 0.418834 -0.259809 0.156579 -0.048224 0.372483 0.274550 0.486164 0.098689 -0.305313 0.044437 0.517844 -0.033400 -0.327767 0.237874 0.332192 -0.044232 -0.000206 -0.791598 0.098155 0.034113 -0.270060 0.309509 -0.331542 0.141622 -0.632267 -0.522818 -0.316026 -0.541909 -0.303781 0.344196 -0.310860 0.417035 0.067678 -0.000297 -0.132373 -0.012776 0.309768 0.058381 -0.368484 -0.358358 -0.686468 0.248021 -0.005371 0.243221 0.353196 -0.335277 0.208653 0.770931 1.056650 0.036593 0.260303 0.160067 0.139757
42430698 -0.199002 -0.612350 0.351808 0.409138 -0.647404 -0.168590 -0.055631 -0.434382 0.216309 -0.055960 -0.365174 0.227966 -0.053936 0.341442 0.087789 -0.253059 0.424219 -0.050374 0.028624 -0.208876 -0.030497 -0.043798 0.469593 -0.187643 0.843167 -0.007526 -0.159657 0.227463 -0.142299 -0.163988 0.677190 0.005481 -0.064439 -0.024114 0.209424 0.314184 -0.489098 -0.056326 0.438751 -0.385300 -0.672335 0.287207 0.424370 0.325676 -0.222342 0.107636 0.020800 0.465135 0.690764 0.607647 -0.043340 -0.555209 -0.093647 -0.313111 -0.167522 -0.700831 -0.006556 -0.379387 -0.088817 0.047721 0.454832 -0.588108 -0.331316 -0.160532 0.044165 0.132458 0.108484 -0.488147 0.030315 -0.110962 -0.470828 -0.114373 -0.347324 0.180806 0.072640 -0.345885 -0.148575 0.430440 -0.069164 0.540711 -0.141586 0.405396 0.795204 0.182613 0.100439 0.124893 -0.345434 -0.390593 0.238456 0.469789 0.099408 0.118908 0.283951 -0.180077 0.520696 0.617031 0.457433 -0.436526 0.184917 -0.008902 0.037645 -0.438025 0.496762 -0.455631 0.080494 -0.228836 0.137983 -0.441314 0.060733 0.157441 0.252636 -0.439761 0.056375 0.098336 -0.075503 0.424416 0.139999 -0.281843 -0.229448 -0.078629 -0.336222 -0.332297 0.660853 0.906243 -0.404842 -0.024492 0.442966 0.116986
42438672 0.062582 -0.558236 0.210795 0.577778 0.188148 -0.040528 -0.095771 0.125621 0.151564 -0.238303 -0.652769 0.165795 0.046405 0.118722 0.463237 -0.285198 -0.200595 0.161453 -0.219436 -0.225155 -0.406017 0.053327 -0.072378 0.255630 0.389994 -0.076911 0.001221 0.363494 -0.357801 -0.406564 0.041880 -0.313045 0.053850 0.203492 0.008096 0.444963 0.094838 0.075995 0.321711 -0.307062 0.435737 -0.066840 0.103091 0.345039 0.036571 0.065751 0.688450 -0.438353 -0.000483 0.470910 0.183351 -0.399178 0.046166 -0.107360 0.060887 -0.626020 -0.357837 0.092777 -0.748494 -0.253277 0.234728 -0.492918 -0.117608 0.057403 -0.007815 0.711599 0.229700 -0.121733 0.112823 0.023717 0.053841 -0.277036 -0.484424 -0.062751 -0.206448 0.130325 0.032439 0.171713 -0.078175 0.061418 -0.052182 0.353835 0.317697 -0.270463 -0.070163 0.296338 0.087241 -0.378241 0.107086 0.527225 0.059394 0.160985 -0.587348 0.015098 0.002507 -0.211914 0.355799 -0.333058 0.195370 -0.726615 -0.288331 -0.538523 -0.627027 -0.440933 0.353874 -0.596095 0.641675 0.303284 0.030902 0.034726 -0.137693 0.604518 0.185749 0.187128 -0.241379 -0.545408 0.476163 -0.104473 0.247053 -0.011080 -0.185790 0.593196 0.727074 0.801408 0.187870 0.293487 0.115057 0.193155
42440170 -0.243482 -0.712158 0.215983 0.300961 -0.611856 -0.074824 0.084933 -0.266660 0.112971 0.056422 -0.212941 0.470630 -0.087376 0.418359 -0.111661 -0.172848 0.413604 -0.140102 0.118000 -0.134363 0.103532 -0.084249 0.350725 0.027165 0.800442 -0.064931 0.030693 0.220101 -0.176415 -0.140592 0.745998 0.180917 -0.063776 -0.025231 0.277349 0.333131 -0.399395 -0.094077 0.234455 -0.345211 -0.648657 0.302721 0.348152 0.248927 -0.250450 0.209413 0.183787 0.238872 0.729576 0.395669 -0.001672 -0.341406 0.121317 -0.415270 -0.016278 -0.603073 0.017515 -0.141511 -0.095264 -0.161726 0.569679 -0.435754 -0.385974 0.012033 0.115993 0.140304 0.254470 -0.302934 0.049259 -0.024151 -0.464159 -0.140968 -0.236609 0.035443 -0.017983 -0.536401 0.012857 0.374535 -0.144409 0.427443 -0.071309 0.283188 0.692502 0.039681 0.066742 0.114257 -0.339762 -0.321233 -0.089979 0.413581 0.229142 0.123219 0.110581 -0.320380 0.411691 0.694527 0.453436 -0.380202 0.182967 0.049647 0.165247 -0.451203 0.492658 -0.564891 0.054944 -0.303664 0.068077 -0.237344 -0.074293 0.107318 0.304036 -0.585605 0.167785 0.003039 -0.155554 0.490446 0.142499 -0.428042 -0.298641 0.045942 -0.465565 -0.307041 0.462628 0.824626 -0.581809 0.249780 0.313470 0.019012
42437428 0.306240 -0.417213 -0.267563 0.244600 -0.559531 0.339681 0.002662 -0.302465 -0.027634 -0.525942 -0.205799 0.354258 0.137926 -0.010102 -0.060252 -0.448039 0.435006 0.246572 -0.333989 0.052765 0.425167 0.045410 -0.164497 0.446047 0.061081 0.611315 0.199450 0.769808 0.055435 -0.044462 0.224101 -0.386693 0.134547 -0.143417 0.163366 -0.114480 -0.026959 -0.191408 0.174063 0.176359 0.164667 0.761945 0.022935 0.506144 0.098813 0.281472 -0.199994 0.272725 0.641533 -0.038970 -0.321437 -0.266965 -0.289927 -0.378914 0.270419 -0.903049 0.088962 -0.380020 0.047755 -0.226533 0.522088 -0.329343 0.085233 -0.369879 0.363822 0.115354 0.330740 -0.420136 0.253887 0.227044 -0.065248 -0.332428 -0.143006 0.454588 -0.016653 0.123942 -0.475777 -0.352488 -0.312358 -0.207478 0.500862 0.315564 0.393563 -0.500297 0.451171 -0.248351 0.209539 -0.502145 0.006489 0.220226 -0.187130 0.473472 -0.044880 -0.136205 0.471060 0.058889 0.174407 0.169541 0.395631 0.196250 -0.089584 -0.150892 -0.203653 -0.732170 -0.409428 -0.698602 0.053226 -0.207055 -0.291838 -0.044398 -0.371268 0.203189 -0.213270 0.193898 -0.541886 -0.336383 0.437199 -0.067739 0.183921 -0.186946 -0.343670 0.316880 0.746565 0.262822 -0.343824 0.129318 0.476227 -0.286801
42431678 0.178101 -0.348271 -0.220175 0.333338 -0.502988 0.225091 0.091241 -0.146556 -0.011427 -0.515851 -0.174804 0.354384 0.197258 -0.050445 0.091696 -0.333887 0.485725 0.148654 -0.334148 -0.060367 0.324254 0.000317 -0.221676 0.463817 0.123776 0.662149 0.293107 0.786581 0.131341 -0.155994 0.454158 -0.303516 -0.053841 -0.056151 0.068464 -0.118394 0.047542 -0.172970 0.120212 0.026981 0.100028 0.947357 0.079632 0.643671 0.081888 0.299066 -0.176338 0.285558 0.666978 0.045729 -0.353405 -0.274256 -0.340833 -0.469653 0.317107 -1.068942 0.014147 -0.449491 -0.037154 -0.314519 0.566530 -0.178317 0.171526 -0.387637 0.416300 0.122616 0.503955 -0.433911 0.334383 0.391318 -0.062418 -0.362308 -0.096112 0.719593 -0.087505 0.196114 -0.308116 -0.135285 -0.298581 -0.371538 0.456971 0.368472 0.582323 -0.544767 0.624832 -0.297302 0.285498 -0.498496 -0.026578 0.236654 -0.160292 0.418493 -0.025224 -0.213484 0.366364 -0.048074 0.241474 -0.039417 0.449439 0.274130 0.048345 0.028711 -0.160763 -0.670397 -0.225717 -0.517861 -0.037393 -0.442880 -0.241546 -0.260817 -0.264357 0.144177 -0.147617 0.177421 -0.459362 -0.430385 0.474265 -0.008726 0.044246 -0.241597 -0.248534 0.394181 0.765675 0.347776 -0.376942 0.204216 0.468455 -0.192865
42445888 0.233012 -0.034403 -0.206766 0.021012 -0.470114 0.287785 0.192025 -0.293385 0.155001 0.007471 -0.354280 0.176166 -0.318550 0.124178 0.180278 -0.422119 0.151484 -0.045447 -0.333117 -0.320978 -0.101604 -0.238413 -0.275509 0.164245 0.268345 0.005479 0.462587 0.367282 -0.369959 -0.122212 0.845749 0.519923 -0.111977 0.689107 -0.068254 0.320935 0.384210 -0.399795 -0.201154 -0.064566 0.142957 0.124890 0.535194 0.224227 0.000081 -0.131330 0.216211 -0.074228 -0.142273 0.362755 -0.345827 -0.274449 0.356276 -0.452264 -0.155894 -0.544627 0.022572 -0.471142 -0.849897 0.108873 0.412369 -0.313425 -0.195834 -0.167075 -0.146036 0.563306 0.489462 -0.323790 -0.571266 -0.013354 -0.628267 -0.652620 0.053027 0.041335 0.195104 0.180545 0.467831 0.324283 -0.702640 -0.447814 -0.026141 -0.291826 0.587877 0.358601 0.442210 0.041547 0.088894 -0.620636 -0.010530 0.672842 -0.252639 -0.100074 -0.094448 0.034915 0.153028 -0.072019 -0.198586 -0.110160 0.039934 0.199910 -0.453333 -0.257150 -0.288611 -0.401856 -0.264184 0.069023 0.556316 -0.302117 -0.245458 -0.189964 -0.055873 -0.040273 0.068654 -0.044160 -0.466393 -0.501105 0.446720 -0.090274 0.140236 -0.383945 -0.064790 -0.104533 0.366871 0.434327 0.152652 0.388196 -0.327766 0.155860
42432825 -0.448287 -0.150114 0.021198 0.205515 0.048310 0.422065 -0.098733 0.349770 0.107601 0.244455 -0.184752 0.439092 0.390366 -0.321422 -0.446015 -0.617985 0.051270 -0.114195 -0.242735 0.260994 0.299932 -0.082854 -0.062126 0.276610 0.657644 -0.313297 0.182555 0.399398 0.586723 -0.393440 0.110124 0.453319 -0.004642 -0.141085 -0.001920 0.478127 -0.279033 -0.742148 -0.181973 0.492335 0.106783 0.150074 -0.446918 0.263332 -0.057171 -0.225008 0.204169 0.180592 0.137447 0.199650 0.258175 -0.181462 -0.263179 -0.341418 -0.320633 -0.103968 -0.238555 -0.116616 -0.077220 0.034198 0.230355 -0.457027 -0.266605 0.026357 0.077827 0.165986 0.326324 0.058218 0.217061 -0.166399 -0.572990 -0.265802 -0.173224 0.185499 0.257537 -0.005844 -0.099900 0.186913 -0.334751 0.605763 0.071428 -0.206314 0.430085 0.497991 0.244346 0.491643 -0.183950 -0.562853 -0.331137 0.709099 -0.497879 0.067448 -0.410266 0.292921 0.293584 0.522461 0.063311 0.308878 -0.485865 -0.199412 0.206550 -0.068465 -0.330583 -0.044271 0.079541 -0.147542 0.405640 -0.162281 0.405084 -0.017879 0.315306 0.130243 0.136228 -0.081899 -0.835120 -0.066568 0.016997 -0.366716 -0.174548 0.077574 -0.448458 -0.050035 0.195589 0.960754 -0.009393 0.157772 0.148299 -0.122071
42430688 -0.160543 -0.355565 0.472549 0.712762 -0.689580 -0.042034 -0.113055 -0.413374 0.101400 -0.059977 -0.548573 -0.134690 0.097299 0.312726 -0.084303 -0.290652 0.478801 0.355750 -0.126171 -0.048696 -0.059918 -0.075528 0.511961 -0.074572 0.880482 0.376285 -0.307950 0.123965 0.252131 -0.310550 0.372794 -0.125093 0.166627 0.253984 -0.130126 0.015113 -0.575485 -0.153531 0.738700 -0.276203 -0.539255 0.276387 0.489189 0.294175 -0.288014 0.359849 0.099968 0.466405 0.245306 0.248499 -0.159660 -0.478722 -0.045748 -0.478901 -0.059813 -0.812170 0.073202 -0.624363 -0.115434 0.133685 0.125351 -0.636716 -0.201919 -0.015209 -0.112410 0.380256 0.299715 -0.578707 0.116046 -0.225554 -0.424530 0.086236 -0.052163 0.159321 0.212286 -0.022256 -0.299577 0.633810 -0.015858 0.532428 0.206072 0.427127 0.840892 0.223267 0.336472 0.260568 -0.338149 -0.417262 0.336877 -0.050271 -0.044293 -0.048460 0.110602 -0.180900 0.080952 0.062739 0.385158 -0.534756 -0.097802 -0.013977 -0.064725 -0.188657 0.312069 -0.422562 -0.169964 -0.240366 0.315210 -0.481069 0.007052 0.160866 0.480259 -0.243064 0.209283 0.162478 -0.163237 0.109255 0.341335 -0.144934 0.074016 -0.419475 -0.529586 -0.672924 0.468808 0.729103 0.217223 -0.265813 0.085751 -0.016234
596775973 0.485630 -0.403615 -0.269124 0.225169 -0.690887 0.353131 -0.099995 -0.351824 -0.035051 -0.518637 -0.197642 0.371741 0.058435 0.152316 -0.090142 -0.482721 0.440582 0.269299 -0.240840 0.124346 0.475186 0.031175 -0.126501 0.398220 0.121490 0.529409 0.190000 0.780678 0.069823 -0.075644 0.185505 -0.487356 0.249717 -0.196902 0.266352 -0.141844 0.024414 -0.221546 0.222632 0.159121 0.127077 0.676801 0.047440 0.423710 0.107711 0.308132 -0.139897 0.245538 0.656152 0.028785 -0.225275 -0.207569 -0.211850 -0.282200 0.136557 -0.892963 0.108370 -0.353342 0.182738 -0.272603 0.557420 -0.391239 0.066556 -0.491312 0.416234 0.186440 0.388781 -0.411180 0.215814 0.111400 -0.054087 -0.320030 -0.134457 0.229506 0.039669 0.117733 -0.419287 -0.304387 -0.314563 -0.084445 0.662359 0.169222 0.181713 -0.380933 0.330645 -0.217826 0.068429 -0.487726 0.077694 0.191416 -0.275420 0.478660 0.011351 -0.134745 0.514603 0.028576 0.137185 0.269001 0.343987 0.029802 -0.082268 -0.169511 -0.227911 -0.614010 -0.487246 -0.709352 0.141266 -0.004200 -0.188975 -0.091289 -0.272284 0.363893 -0.226418 0.167814 -0.551631 -0.262637 0.523998 -0.128778 0.264573 -0.236259 -0.447471 0.237488 0.837542 0.274606 -0.370567 0.083305 0.382875 -0.407474
42427423 0.001617 -0.423648 0.079559 0.095488 0.126506 0.001704 0.033783 0.020490 -0.163620 -0.312441 -0.180797 0.302471 -0.009021 0.319113 0.554223 -0.627889 0.112940 0.127078 -0.289562 0.007040 0.078176 0.075428 0.105546 -0.076687 0.228470 0.070110 0.287756 0.412644 0.060443 0.045069 0.176838 0.305984 0.242578 0.253547 0.155553 -0.146708 -0.260900 -0.256509 -0.168690 -0.560556 0.399864 0.053825 0.051857 0.350507 -0.161457 -0.379602 0.231508 -0.527810 0.145115 0.649112 -0.228004 -0.607971 0.323124 -0.422064 0.014540 -1.037935 0.012471 -0.329782 -0.794367 0.005093 0.355368 -0.560587 -0.208832 -0.115643 -0.059543 0.381200 0.320591 -0.192119 -0.260043 0.162141 -0.156875 -0.352517 -0.326882 -0.297324 0.402564 -0.201656 0.095280 0.646939 -0.251044 -0.168528 -0.109369 0.170604 0.592471 0.138336 0.105232 0.394715 0.184554 -0.386536 -0.306400 -0.152131 -0.064339 0.386824 -0.104193 0.337727 -0.221695 -0.006120 0.085427 -0.218673 0.501927 -0.518037 0.063577 -0.336013 -0.695166 -0.472849 0.306621 -0.451946 0.359261 -0.348590 -0.210274 0.234561 -0.143146 0.642668 0.739281 0.757131 -0.331793 -0.365891 0.945132 -0.149651 -0.151337 -0.430011 0.001261 0.481324 0.183259 0.195238 0.133262 0.196041 -0.040272 0.360529
42437693 0.008200 -0.253201 0.155018 0.888045 0.106784 0.037843 -0.037207 0.293256 0.058873 0.007228 -0.819133 0.286589 0.098630 -0.090400 0.347383 -0.279423 -0.005845 0.374881 -0.261920 -0.328395 -0.432329 0.124512 0.098773 0.267849 0.314158 0.078024 -0.073739 0.116795 -0.340261 -0.408037 -0.007602 -0.161124 0.146365 0.019610 0.024356 0.462002 -0.170267 0.268860 0.472811 0.039353 0.259778 0.063083 0.289975 0.096148 -0.206438 0.060405 0.755868 -0.096517 -0.066248 0.415713 0.207818 -0.385431 0.068354 -0.332300 -0.103722 -0.692059 -0.309387 0.193749 -0.486950 -0.394026 0.178124 -0.541567 -0.106887 -0.086903 0.210570 0.653251 0.137652 -0.245567 0.168671 0.108200 0.159469 0.149219 -0.276697 0.176737 -0.095192 0.321669 0.092469 0.227801 -0.170478 0.240159 0.226261 0.455647 0.190851 -0.519900 0.250202 0.088207 -0.129829 -0.404594 0.357149 0.256128 0.058591 -0.119740 -0.684882 0.023729 0.070851 -0.035051 0.285386 -0.463810 0.145084 -0.440103 -0.294327 -0.318285 -0.377731 -0.266515 0.222613 -0.701983 0.513129 0.369525 0.175286 0.111401 -0.009864 0.449136 0.015151 0.065536 -0.188511 -0.525994 0.485611 -0.192748 0.504016 0.153029 -0.143651 0.504667 0.957301 0.900537 0.323354 0.173559 -0.097686 0.128453
42452975 -0.350311 -0.139645 0.063405 0.837798 -0.199461 0.375058 -0.172033 0.248940 0.066505 0.039363 -0.536777 0.515149 0.353911 0.110075 -0.092048 -0.118314 0.320791 0.608373 0.107169 -0.262221 -0.454806 -0.196978 0.089172 0.046418 0.901663 0.320856 -0.070142 -0.264611 -0.311146 -0.282787 0.200507 0.136589 -0.103967 0.241406 0.329131 0.415867 -0.300237 -0.081501 0.827256 0.541505 0.006732 0.323979 0.302330 0.065518 -0.387714 0.425295 0.447921 -0.142813 -0.298035 0.214797 0.108159 -0.301256 0.034700 -0.582805 0.106051 -0.684108 -0.025757 -0.146912 -0.198088 -0.486021 -0.050258 -0.417055 -0.261783 0.083184 0.149525 0.866896 0.089976 -0.321027 0.291079 -0.013359 0.028646 0.445842 0.085571 0.155294 0.063220 0.462853 0.185466 0.073341 -0.410655 0.351191 0.202807 0.206123 0.383159 -0.483376 0.182915 0.000606 -0.386298 -0.739242 0.218296 0.057598 -0.239006 -0.145861 -0.586628 0.020759 0.001818 -0.014662 0.115979 -0.574466 -0.003489 -0.030647 0.024711 -0.081789 -0.023197 -0.072674 -0.064448 -0.485590 0.285885 0.225040 0.184026 -0.229187 0.308840 0.084617 -0.040679 0.040797 -0.092720 -0.322646 0.430212 -0.361959 0.664554 -0.050786 -0.557706 0.308530 0.719950 0.375585 0.269517 0.028613 -0.284445 0.340289
42440025 -0.420574 -0.041565 0.043922 0.641697 0.134753 0.284813 -0.103162 0.019694 0.287135 0.467311 -0.463732 0.651110 0.502690 -0.036377 -0.266019 -0.349697 0.262481 -0.163564 0.111903 0.193847 0.601502 0.015298 -0.326937 0.080766 0.696195 -0.245742 -0.017792 0.501546 0.606665 -0.633465 0.266043 0.453572 -0.124345 0.079341 0.481955 0.349232 -0.293540 -0.705654 -0.522216 0.398314 0.538173 0.099636 -0.480098 0.191464 -0.304396 -0.289722 -0.022934 0.023473 0.056750 0.598354 0.176124 -0.391246 0.251433 -0.744092 -0.046270 -0.275718 -0.371252 -0.241946 -0.292580 0.154304 0.119577 -0.267843 -0.327648 -0.063533 -0.035190 0.284784 0.345825 -0.188391 -0.087231 -0.170878 -0.452165 -0.189726 0.049653 0.371385 0.206096 -0.176007 0.244188 0.312694 0.129581 0.523766 0.338394 -0.244941 0.599619 0.188160 -0.302254 0.078564 0.034179 -0.385835 -0.194208 0.764662 -0.115815 -0.352163 -0.145258 0.084630 0.470966 0.454518 0.400059 0.191880 -0.185003 -0.222791 0.196442 -0.319457 -0.629187 -0.226060 0.252322 -0.453137 0.562752 -0.309802 0.115178 0.332927 0.190663 0.208258 0.054223 -0.179538 -0.393164 -0.368402 -0.087167 0.024951 -0.252076 0.070769 -0.223612 -0.082446 0.214093 0.718533 0.064140 0.128377 0.224593 0.273527
42430694 -0.211427 -0.613724 0.410923 0.516329 -0.692410 -0.136330 -0.066264 -0.431962 0.116649 -0.142030 -0.413251 0.068535 -0.039544 0.342107 0.044651 -0.235564 0.464474 0.102700 -0.022382 -0.107064 0.031154 -0.092521 0.483329 -0.106892 0.891285 0.120542 -0.193071 0.193251 0.038665 -0.224442 0.547074 0.000750 0.005083 0.027460 0.053848 0.167508 -0.489773 -0.069326 0.544898 -0.454115 -0.668039 0.294291 0.431954 0.325375 -0.178429 0.212878 0.070916 0.539246 0.546237 0.489349 -0.009059 -0.490682 -0.138077 -0.373229 -0.140491 -0.748908 0.056478 -0.513361 -0.141855 0.108238 0.368727 -0.659923 -0.292752 -0.175085 -0.023012 0.164681 0.165485 -0.461087 0.175858 -0.159115 -0.454461 -0.010937 -0.288538 0.187087 0.113283 -0.231606 -0.215509 0.500634 0.032541 0.491577 -0.073770 0.329434 0.795171 0.252495 0.220493 0.242940 -0.353154 -0.370755 0.252035 0.292709 0.041038 0.084976 0.235837 -0.161421 0.274068 0.502322 0.434251 -0.497582 0.134852 -0.007248 0.027691 -0.412391 0.453677 -0.445666 -0.033851 -0.216722 0.207039 -0.510912 0.044436 0.176373 0.316625 -0.345753 0.128874 0.074856 -0.146608 0.303437 0.201051 -0.215094 -0.080510 -0.175690 -0.378376 -0.460495 0.588655 0.839730 -0.181530 -0.125700 0.302458 0.030326
42435624 0.142339 -0.355890 0.178521 0.140996 0.071623 -0.134223 -0.028011 0.085065 -0.113996 -0.233271 -0.263017 0.421381 0.195362 0.184172 0.361674 -0.472016 -0.019119 0.084824 -0.300648 -0.001927 0.004578 0.270140 0.057744 0.050699 0.161394 -0.005408 0.076226 0.485260 -0.095774 -0.079951 -0.100238 0.237200 0.430715 0.113462 0.074653 -0.227368 -0.381673 -0.165897 -0.113483 -0.434117 0.287709 0.068414 -0.223880 0.285519 -0.097336 -0.454192 0.407584 -0.455007 0.279915 0.252989 -0.110181 -0.467884 0.155827 -0.375982 -0.071652 -1.035651 0.067936 -0.436327 -0.718593 -0.005446 0.416070 -0.531263 -0.113749 0.018723 -0.153717 0.408004 0.234185 -0.187681 -0.511989 0.105817 -0.118535 -0.293364 -0.477159 -0.095844 0.127945 -0.082328 -0.102363 0.465803 -0.186817 -0.082980 0.027500 0.430058 0.531718 -0.042244 0.036391 0.393781 -0.018697 -0.448620 -0.175420 -0.149750 0.171606 0.332236 -0.116657 0.409060 -0.302609 -0.037538 0.113996 -0.216256 0.388047 -0.660615 0.152666 -0.328614 -0.653658 -0.282558 0.327536 -0.448153 0.278782 -0.437584 -0.252821 0.419077 -0.077041 0.609375 0.732932 0.599487 -0.389400 -0.149619 0.934129 -0.118685 -0.088945 -0.350267 0.136201 0.425550 0.307734 0.426558 0.112234 0.228694 0.166924 0.125111
42437909 0.247555 -0.400777 0.206701 0.219576 0.009360 -0.255048 -0.075803 0.120893 -0.080026 -0.235035 -0.377965 0.395105 0.320751 0.129966 0.205382 -0.383911 -0.018198 0.010803 -0.382620 -0.124592 -0.011159 0.551067 0.022867 0.112254 0.170361 -0.080015 -0.078441 0.482964 -0.237315 -0.062641 -0.096406 0.253851 0.552408 0.031992 0.008756 -0.242969 -0.417763 -0.213180 0.020750 -0.416108 0.251018 0.068879 -0.278693 0.163913 -0.107366 -0.541837 0.449767 -0.402752 0.321639 0.119204 -0.027430 -0.401517 0.216395 -0.467984 -0.049070 -0.957416 -0.095612 -0.325146 -0.661308 0.025344 0.550496 -0.552745 -0.088252 0.163298 -0.320552 0.441666 0.235588 -0.276144 -0.581006 0.081012 -0.033918 -0.245061 -0.569532 0.035946 0.010800 -0.013796 -0.222214 0.396712 -0.122750 -0.012615 0.015689 0.572042 0.464410 -0.131307 0.034869 0.429624 -0.139929 -0.546233 -0.087349 -0.176424 0.276002 0.330528 -0.113973 0.439569 -0.367876 -0.035727 0.168605 -0.319780 0.455394 -0.717063 0.036358 -0.280934 -0.629482 -0.262895 0.300225 -0.497040 0.288462 -0.521240 -0.363147 0.442097 -0.079043 0.485118 0.714063 0.313857 -0.397196 -0.110893 0.832398 -0.108760 -0.157695 -0.157704 0.086895 0.355850 0.409139 0.681920 0.104781 0.238758 0.260653 0.039300
42432598 -0.220804 -0.746751 0.327529 0.440065 -0.680319 -0.146521 -0.017015 -0.354275 0.145672 -0.030106 -0.301086 0.209127 -0.113518 0.420830 -0.069942 -0.250581 0.458541 -0.137598 0.067145 -0.065399 0.085197 -0.060349 0.396131 0.023698 0.761385 -0.045433 -0.083530 0.241931 -0.099954 -0.213794 0.695468 0.060799 0.014636 -0.022845 0.248992 0.284746 -0.411068 -0.154719 0.400028 -0.404555 -0.704599 0.278740 0.335229 0.261791 -0.205263 0.180292 0.091682 0.364647 0.656438 0.419835 0.044538 -0.395242 -0.011486 -0.472590 -0.021073 -0.639749 0.008886 -0.311234 -0.146850 -0.046355 0.454558 -0.503529 -0.394268 -0.061206 0.132316 0.084523 0.156829 -0.414268 0.012935 -0.091166 -0.457544 -0.097393 -0.279736 0.178963 0.003845 -0.497335 -0.073998 0.479151 0.017654 0.430177 -0.062228 0.285534 0.761746 0.107482 0.056293 0.170913 -0.369933 -0.370226 0.026462 0.347372 0.171502 0.132414 0.160921 -0.325384 0.395167 0.614331 0.513499 -0.437678 0.103066 -0.014652 0.052200 -0.477872 0.554177 -0.595056 0.074301 -0.296109 0.099484 -0.342117 -0.072165 0.184921 0.274909 -0.538700 0.261300 0.031358 -0.141448 0.419618 0.114113 -0.343721 -0.229288 -0.039611 -0.347343 -0.360745 0.518784 0.789210 -0.448679 0.105114 0.340550 0.031221
42431680 -0.114443 -0.367587 -0.121491 0.448627 -0.412208 0.164317 0.096124 0.008005 0.013613 -0.492158 -0.146270 0.440698 0.217405 -0.135719 0.148012 -0.357260 0.477541 0.119828 -0.331760 -0.221859 0.179647 -0.034825 -0.275309 0.489998 0.110481 0.722088 0.346833 0.728776 0.081242 -0.197838 0.493507 -0.193737 -0.154697 -0.025228 -0.034703 -0.067226 0.023459 -0.136849 0.094947 -0.055162 0.074249 1.008171 -0.094586 0.636454 -0.005435 0.266988 -0.277685 0.253141 0.677626 0.113021 -0.258969 -0.345823 -0.501609 -0.534244 0.440282 -1.085155 -0.065826 -0.391755 -0.146982 -0.335128 0.543994 -0.154766 0.145464 -0.399688 0.381473 0.134636 0.480920 -0.378278 0.397013 0.456483 -0.084260 -0.263507 -0.129698 0.918498 -0.028737 0.158818 -0.155083 -0.118471 -0.221032 -0.397524 0.279362 0.418257 0.731730 -0.569696 0.682903 -0.199037 0.391046 -0.434496 -0.047442 0.228588 -0.167053 0.462377 -0.065965 -0.196194 0.269867 0.037135 0.283988 -0.146169 0.423595 0.399395 0.056075 0.001604 -0.061843 -0.679843 -0.051409 -0.402191 -0.086835 -0.569765 -0.212001 -0.282812 -0.301541 0.105275 -0.057913 0.201535 -0.496147 -0.470528 0.341975 0.123164 -0.144674 -0.074188 -0.213347 0.373573 0.700273 0.343040 -0.351706 0.229135 0.513980 -0.052436
42445392 -0.066039 0.008730 -0.157557 -0.085583 -0.286088 0.413440 0.065303 0.545186 0.651969 0.066490 -0.644636 0.356013 0.182776 0.478414 -0.375368 -0.008910 0.052826 0.204233 -0.041941 -0.568446 0.215585 0.273319 0.309799 0.077657 0.597944 0.124443 -0.057527 0.690024 -0.181071 -0.728044 -0.030688 0.276825 0.279972 0.424904 0.707463 0.416354 -0.265808 0.114956 0.253875 0.008828 0.142139 0.432750 0.018667 0.369032 -0.104762 -0.449794 -0.586873 -0.283342 -0.020408 0.675915 -0.335147 -0.770841 -0.077635 -0.034654 0.008126 -0.210597 -0.098702 0.271972 -0.206458 -0.516228 0.437665 -0.341855 0.578258 -0.450156 0.212060 0.358433 0.049890 0.153048 -0.013327 0.125111 -0.295497 -0.193592 -0.057742 0.493256 -0.143318 0.133898 0.057836 0.162533 -0.488855 0.012978 0.446924 0.380955 0.506508 -0.128720 0.497390 0.318094 -0.623595 -0.564339 -0.150818 0.350749 -0.128371 -0.232774 -0.194783 -0.225580 0.038779 0.014640 -0.446584 0.179208 0.287801 -0.549222 0.820286 -0.134331 -0.467724 -0.766040 -0.439750 -0.084653 0.180538 0.188947 -0.177370 0.101703 0.163346 -0.383511 0.189635 0.196708 -0.385394 0.069165 0.688087 0.024783 0.103495 -0.099182 0.081492 0.233422 -0.064647 0.575440 -0.319145 0.535703 0.259560 -0.233726
42436751 0.223524 0.347095 -0.312478 0.242691 -0.527364 0.306524 0.302979 -0.113129 -0.066766 0.171624 -0.623378 0.304911 0.162655 -0.101977 -0.275675 -0.338279 0.095378 0.104182 -0.278554 -0.049659 -0.111970 0.064331 -0.204740 0.492539 0.074771 -0.050928 0.036997 0.361373 -0.200172 -0.239419 0.967959 0.543251 0.253617 0.978967 -0.171946 0.164420 0.202548 -0.346128 -0.060681 0.043243 -0.092306 0.108547 0.389416 0.227112 -0.055316 -0.349318 0.200423 -0.070409 -0.079092 -0.017679 -0.346840 -0.118117 0.656918 -0.467533 -0.370243 -0.639775 0.127155 -0.331632 -0.715594 0.258343 0.064712 -0.188314 0.033520 0.194779 -0.174203 0.523562 0.617937 -0.559492 -0.372302 0.045483 -0.691462 -0.250099 0.186330 0.289084 0.114875 0.245953 0.044217 -0.017305 -1.046599 -0.012164 0.449936 -0.124242 0.811521 0.169719 0.524833 -0.245609 -0.179470 -0.505037 0.027612 0.247023 0.058284 -0.466154 -0.294831 -0.159534 -0.093582 -0.313696 -0.077870 -0.059503 -0.193989 0.200957 -0.162445 0.031577 -0.481986 -0.218426 -0.160053 -0.261554 0.316136 -0.219941 -0.401629 -0.118162 -0.034750 0.091561 0.064555 -0.177612 -0.758161 -0.464728 0.363591 -0.106198 0.547377 -0.748783 -0.185752 0.154978 0.310255 0.591183 0.330600 0.395989 -0.243824 -0.022548
42445976 0.455297 -0.443097 -0.179635 0.249994 -0.718985 0.438463 -0.335651 -0.455580 0.051478 -0.361512 -0.270801 0.527589 0.036621 0.302175 -0.128865 -0.636125 0.430227 0.310743 -0.069458 0.148415 0.496641 0.133276 -0.161893 0.357304 0.145100 0.506126 0.118152 0.782417 -0.027889 -0.048013 0.037815 -0.335910 0.367961 -0.080914 0.370009 -0.131589 -0.118446 -0.354860 0.338648 0.173659 0.068081 0.518693 -0.170284 0.189323 0.041006 0.230099 -0.229053 0.156837 0.628602 0.069214 -0.079856 -0.245400 -0.054893 -0.363628 0.137814 -0.717866 0.043117 -0.195578 0.194777 -0.210514 0.441474 -0.519298 -0.095525 -0.499442 0.306947 0.343346 0.409881 -0.272508 0.044875 -0.087777 -0.163734 -0.156043 -0.203301 -0.037219 0.275398 0.011765 -0.329079 -0.393348 -0.297135 0.143255 0.825722 -0.047037 0.112891 -0.337322 0.034446 -0.240533 -0.019214 -0.439737 0.130274 0.318411 -0.139892 0.421445 0.028324 -0.169085 0.590897 0.165044 0.061583 0.454811 0.212288 0.013514 -0.262357 -0.285638 -0.269122 -0.633578 -0.567902 -0.732786 0.272277 0.152674 -0.132162 0.136151 -0.362723 0.433284 -0.164554 0.194598 -0.747703 -0.212015 0.410189 0.048002 0.193247 -0.043155 -0.570207 -0.014880 0.878911 0.291706 -0.201463 0.051266 0.328248 -0.498188
42454042 -0.245045 -0.670468 0.174347 0.265729 -0.473872 -0.008278 0.143842 -0.158876 0.120043 0.143376 -0.174731 0.623657 -0.001763 0.466222 -0.196190 -0.122395 0.399100 -0.194575 0.201833 -0.125790 0.124420 -0.121269 0.223774 0.022885 0.787509 -0.142488 0.135571 0.244466 -0.180816 -0.118819 0.759526 0.201190 -0.103246 -0.032792 0.342015 0.355850 -0.395126 -0.041749 0.033066 -0.189606 -0.490936 0.275253 0.256941 0.185569 -0.308315 0.250569 0.199816 0.035521 0.767073 0.388889 -0.051616 -0.344025 0.243365 -0.432104 0.026998 -0.521030 -0.048704 -0.020121 -0.044182 -0.294246 0.600752 -0.311569 -0.406358 0.090639 0.150073 0.177647 0.281390 -0.261152 0.004179 0.058749 -0.482210 -0.175556 -0.159961 -0.041012 -0.030505 -0.521805 0.136800 0.329471 -0.242386 0.464672 -0.007897 0.252787 0.660659 -0.056215 0.092942 0.033752 -0.298371 -0.309732 -0.178592 0.479770 0.304773 0.161147 0.049167 -0.307669 0.541288 0.647913 0.492406 -0.364679 0.175838 -0.035600 0.272810 -0.474184 0.442980 -0.581408 0.168336 -0.311167 0.034081 -0.163588 -0.128981 0.088164 0.319950 -0.548388 0.104466 -0.062304 -0.130754 0.442831 0.132539 -0.491112 -0.325124 0.131989 -0.470215 -0.260009 0.399206 0.837412 -0.694432 0.367709 0.382962 0.028807
3270031002 -0.248226 -0.161144 0.009237 0.937887 -0.091574 0.289104 -0.119749 0.227694 0.084897 0.152606 -0.636746 0.586029 0.414817 -0.061268 -0.055641 -0.226414 0.249309 0.383266 0.106149 -0.263972 -0.545686 -0.023916 -0.100272 0.032495 0.856407 0.250340 -0.085571 -0.077761 -0.426075 -0.228875 0.289688 -0.065544 0.065143 0.027008 0.311828 0.611284 -0.267802 0.026129 0.776921 0.492222 0.072967 0.256051 0.136298 0.159245 -0.263135 0.167932 0.492357 -0.111019 -0.316652 0.229222 0.005667 -0.373666 0.049338 -0.528870 0.076558 -0.632890 -0.200105 0.122502 -0.258239 -0.471260 0.231180 -0.385432 -0.065444 0.100078 0.215703 0.810893 -0.063828 -0.333582 0.190530 -0.037645 0.118362 0.413673 0.030444 0.221569 0.054558 0.570703 0.175785 0.107528 -0.505258 0.419246 0.154482 0.380717 0.306524 -0.613745 0.056472 -0.081929 -0.395541 -0.778687 0.338210 0.024707 -0.280793 -0.173266 -0.647303 0.078993 0.110949 -0.035538 -0.029850 -0.515176 -0.038010 -0.175608 0.044410 -0.073427 -0.146706 0.014130 0.236390 -0.514930 0.337667 0.345883 0.205985 -0.290264 0.186768 0.178823 -0.051979 -0.185747 -0.144027 -0.499392 0.311964 -0.399928 0.549811 -0.038423 -0.534870 0.523408 0.923024 0.565701 0.167056 0.180253 -0.354949 0.345539
42440022 -0.464063 -0.076139 0.006910 0.578419 0.143146 0.243008 -0.017790 0.082527 0.163557 0.461101 -0.398393 0.687598 0.443685 -0.009131 -0.380887 -0.296102 0.278211 -0.301796 0.160868 0.229245 0.661597 -0.031825 -0.338508 0.129843 0.650505 -0.340668 0.081756 0.486917 0.519590 -0.624431 0.327500 0.460992 -0.075697 0.035483 0.412084 0.384495 -0.238691 -0.602165 -0.576789 0.349901 0.458973 0.110809 -0.488730 0.106655 -0.340888 -0.238540 0.165110 -0.097191 0.079856 0.505749 0.187304 -0.338628 0.337079 -0.725584 -0.011882 -0.175985 -0.363345 -0.182174 -0.315739 0.048797 0.273666 -0.198728 -0.313431 -0.018282 0.036059 0.221685 0.392856 -0.175069 -0.087963 -0.073686 -0.451836 -0.232628 0.108755 0.208130 0.191681 -0.257171 0.273984 0.411767 0.096593 0.500785 0.285729 -0.309013 0.556447 0.162123 -0.239857 0.135719 0.013410 -0.382523 -0.302146 0.731393 -0.110947 -0.219782 -0.255408 -0.000467 0.448152 0.439164 0.312159 0.189596 -0.318914 -0.297333 0.327134 -0.277342 -0.551649 -0.230965 0.328771 -0.398559 0.393764 -0.163038 0.093299 0.227364 0.276852 0.175668 0.132352 -0.312470 -0.398755 -0.241061 -0.062308 -0.096292 -0.300964 0.068214 -0.276431 -0.164840 0.162907 0.772140 -0.062710 0.239942 0.237794 0.222251
42447230 0.260264 -0.406836 -0.232564 0.218571 -0.556098 0.427956 -0.035615 -0.384196 -0.003009 -0.530315 -0.304811 0.442326 0.076245 0.012642 -0.170071 -0.517615 0.401276 0.329814 -0.293663 0.010044 0.399481 0.046036 -0.143377 0.473544 0.024014 0.671120 0.159171 0.711996 -0.146964 0.058325 0.075289 -0.305947 0.275516 -0.084845 0.127179 -0.117276 -0.152061 -0.053224 0.284846 0.171806 0.114157 0.658096 -0.133311 0.437687 0.078196 0.215710 -0.302225 0.245539 0.522384 -0.133734 -0.298023 -0.333795 -0.257859 -0.451556 0.298205 -0.743560 0.157209 -0.287739 -0.026859 -0.183541 0.372246 -0.434515 0.024576 -0.357303 0.295981 0.186492 0.220032 -0.397656 0.218186 0.147774 -0.108547 -0.136514 -0.169331 0.288736 0.144979 0.029491 -0.552396 -0.544526 -0.296404 -0.092259 0.424935 0.311959 0.464925 -0.596777 0.321424 -0.206806 0.240010 -0.470530 0.003222 0.140408 -0.104424 0.517935 -0.084648 -0.152687 0.422446 0.165533 0.078414 0.229253 0.359961 0.259202 -0.182233 -0.312537 -0.138998 -0.812900 -0.442289 -0.758581 0.027442 -0.075374 -0.368983 0.167071 -0.503632 0.125935 -0.181245 0.232559 -0.666772 -0.286723 0.396578 0.012247 0.205302 0.001521 -0.395374 0.187876 0.718573 0.197513 -0.179359 0.085727 0.452191 -0.243722
42444928 0.208588 -0.490565 0.106712 0.317154 0.142462 -0.209978 -0.131341 0.075700 0.042327 -0.413242 -0.530070 0.300407 0.072886 0.210403 0.386824 -0.330697 -0.120827 -0.074628 -0.288952 -0.229478 -0.140904 0.329515 0.050780 0.246104 0.219402 0.023506 -0.022364 0.411832 -0.263160 -0.222685 0.029508 0.110057 0.281888 0.046223 -0.109632 -0.045394 -0.171603 -0.012336 0.079566 -0.485374 0.394918 0.065295 -0.132875 0.345671 0.064249 -0.375025 0.604066 -0.442555 0.232282 0.241736 0.089658 -0.362269 0.130700 -0.324114 0.027997 -0.708856 -0.258966 -0.084716 -0.780647 -0.047848 0.434164 -0.561167 -0.191284 0.035621 -0.235113 0.616011 0.298375 -0.151729 -0.214560 -0.057532 0.120519 -0.253942 -0.587256 -0.064012 0.006335 0.126764 -0.207536 0.318738 0.033846 0.044541 -0.043798 0.483678 0.314036 -0.078737 -0.096664 0.481551 -0.008540 -0.402580 -0.059692 0.155641 0.162641 0.340281 -0.418942 0.312703 -0.209880 -0.178520 0.276184 -0.345199 0.341354 -0.875611 -0.162019 -0.361657 -0.605605 -0.328736 0.305620 -0.492692 0.495710 -0.103858 -0.109236 0.160450 -0.063221 0.567988 0.460849 0.202579 -0.419113 -0.394084 0.599109 -0.093337 0.086155 -0.001163 0.055495 0.480280 0.505065 0.716266 0.153040 0.330273 0.252402 0.171777
596776032 0.320630 -0.447403 -0.267875 0.094149 -0.570455 0.522780 -0.136823 -0.475396 0.020649 -0.366984 -0.313312 0.467686 0.024196 0.073446 -0.203478 -0.596897 0.344113 0.372355 -0.258796 0.080058 0.488016 0.090276 -0.168570 0.390609 0.026781 0.502134 0.057454 0.711946 -0.181921 0.119876 -0.062899 -0.304289 0.346193 -0.050163 0.253296 -0.081116 -0.187522 -0.179101 0.279286 0.267531 0.142757 0.468576 -0.143277 0.275871 0.081515 0.194650 -0.267412 0.186851 0.477928 -0.140628 -0.227316 -0.321165 -0.133833 -0.384808 0.266848 -0.564821 0.124248 -0.203315 -0.015363 -0.065981 0.312524 -0.532812 -0.090447 -0.313181 0.186645 0.246453 0.176647 -0.302817 0.021093 -0.065836 -0.193558 -0.190288 -0.232028 0.018597 0.233865 -0.002976 -0.512585 -0.574500 -0.344813 0.067421 0.513553 0.194786 0.355716 -0.416918 0.109888 -0.228257 0.125627 -0.485903 0.025776 0.312785 -0.103045 0.456511 -0.054360 -0.101672 0.517419 0.255028 0.006310 0.427582 0.195811 0.151980 -0.332365 -0.421909 -0.253412 -0.767911 -0.595166 -0.793748 0.212850 0.084149 -0.327370 0.312792 -0.525039 0.149135 -0.200196 0.226880 -0.713763 -0.199061 0.315633 -0.005604 0.215724 0.017892 -0.462073 0.057716 0.686540 0.207403 -0.170463 0.077430 0.369026 -0.323896
42437890 0.093105 -0.354270 0.203768 0.097552 0.072739 -0.056790 0.033683 0.039241 -0.134124 -0.168351 -0.183032 0.420723 0.064902 0.250299 0.485012 -0.574967 0.091829 0.120137 -0.254510 -0.001283 0.009005 0.083941 0.067081 -0.058403 0.197799 0.040226 0.219009 0.475941 -0.016145 -0.005986 -0.045601 0.315364 0.313184 0.130770 0.163124 -0.161757 -0.313639 -0.233778 -0.166073 -0.449153 0.349851 0.076576 -0.094729 0.303884 -0.149623 -0.412432 0.347424 -0.453379 0.182415 0.465213 -0.184493 -0.553745 0.222732 -0.377661 -0.034175 -1.071634 0.157417 -0.472584 -0.773347 -0.072659 0.434544 -0.544826 -0.129069 -0.136688 -0.079475 0.408468 0.225714 -0.152110 -0.483321 0.171648 -0.143112 -0.361290 -0.367856 -0.180905 0.263992 -0.116166 0.067141 0.601756 -0.258354 -0.198425 -0.045901 0.261652 0.564210 0.038960 0.118641 0.365223 0.055724 -0.468742 -0.214285 -0.150771 0.016145 0.315281 -0.080640 0.419854 -0.241313 0.046247 -0.019742 -0.186703 0.453428 -0.492991 0.153289 -0.321188 -0.623278 -0.365127 0.289283 -0.338483 0.304529 -0.446310 -0.211291 0.325328 -0.110354 0.612094 0.752700 0.724231 -0.376017 -0.254190 1.025832 -0.159526 -0.136927 -0.439185 0.072536 0.426219 0.241155 0.246237 0.115219 0.164555 -0.010803 0.227263
42431656 -0.195481 -0.415658 -0.346503 0.015665 -0.345640 0.427297 0.163689 -0.305202 0.011039 -0.291170 -0.429723 0.625410 0.104387 -0.146830 -0.234121 -0.498431 0.239176 0.406425 -0.348210 -0.228468 0.285838 0.090030 -0.089224 0.419430 0.078801 0.287007 -0.024563 0.583559 -0.412599 0.067201 0.068891 -0.163137 0.255376 0.081459 0.085202 0.103772 -0.418120 0.147673 0.044451 0.362940 0.242671 0.360534 -0.225096 0.260890 -0.150876 0.077367 -0.492603 -0.017913 0.331080 -0.203131 -0.294191 -0.530649 -0.225762 -0.546758 0.538296 -0.411516 0.065380 -0.176482 -0.427733 -0.013250 0.080693 -0.500698 -0.001285 -0.151800 0.011533 0.110873 -0.025864 -0.325822 -0.069915 0.171246 -0.247143 0.007972 -0.189291 0.434778 0.086444 -0.147324 -0.351800 -0.482490 -0.247950 0.010067 -0.085548 0.451732 0.853669 -0.525211 0.349234 -0.005345 0.408765 -0.472459 -0.163627 0.245567 -0.130255 0.388523 -0.278795 -0.053689 0.337152 0.370308 -0.056950 0.176775 0.093494 0.345241 -0.172831 -0.621322 -0.285947 -0.790870 -0.192426 -0.918772 0.081093 -0.118628 -0.505282 0.492055 -0.640229 -0.048786 -0.110502 0.107866 -0.589027 -0.291302 0.093192 0.013493 0.037785 0.274499 -0.240690 0.268833 0.223403 0.123189 -0.166963 0.297353 0.351736 0.212727
42437436 -0.159940 -0.411793 -0.082720 0.440916 -0.394904 0.219179 0.016441 -0.056210 0.034088 -0.537150 -0.193550 0.506854 0.267561 -0.103290 0.050220 -0.436115 0.415494 0.198475 -0.297506 -0.209963 0.173818 0.051341 -0.230971 0.492201 0.101076 0.768861 0.307436 0.698031 -0.026635 -0.157339 0.370322 -0.197306 -0.026813 -0.070278 -0.053059 -0.050202 -0.085103 -0.087304 0.129091 0.022165 0.089582 0.931560 -0.217160 0.526472 -0.052473 0.189347 -0.428278 0.239296 0.660129 0.115161 -0.247720 -0.368267 -0.501917 -0.525672 0.441164 -0.996411 -0.014555 -0.321345 -0.129076 -0.308043 0.496224 -0.215028 0.102634 -0.378377 0.326156 0.115616 0.358354 -0.392220 0.392362 0.459699 -0.068512 -0.148520 -0.105932 0.873059 0.026156 0.109729 -0.278873 -0.310095 -0.207312 -0.299246 0.252938 0.393031 0.679230 -0.646543 0.626591 -0.111815 0.401566 -0.420248 -0.029168 0.134480 -0.115329 0.508536 -0.125145 -0.120083 0.288747 0.126358 0.251110 -0.083207 0.478828 0.442662 0.027677 -0.112042 -0.080285 -0.756327 -0.062269 -0.510823 -0.122619 -0.514320 -0.245552 -0.118450 -0.427585 0.121024 -0.045377 0.200555 -0.559709 -0.445015 0.313130 0.177067 -0.099000 0.065864 -0.231554 0.340650 0.627154 0.246425 -0.267851 0.177797 0.557045 -0.045373
4347534767 -0.310594 -0.199578 0.028281 0.415321 0.071192 0.544405 -0.332942 -0.002079 0.371778 0.352338 -0.329195 0.379479 0.433747 -0.189089 -0.215668 -0.710131 0.214719 0.059059 -0.161969 0.242719 0.387058 0.044283 -0.252073 0.094984 0.607499 0.014897 -0.036535 0.464045 0.649828 -0.409756 -0.039099 0.504301 -0.111442 0.045784 0.505261 0.369409 -0.314728 -0.855514 -0.049982 0.479402 0.371434 0.141967 -0.366742 0.169779 -0.092088 -0.153243 -0.117848 0.232193 0.225305 0.435033 0.314838 -0.370086 0.027027 -0.430320 -0.055058 -0.297941 -0.402516 0.079603 -0.101093 0.225535 0.043492 -0.456038 -0.419894 -0.001029 -0.146904 0.371610 0.192684 0.078472 0.094216 -0.431714 -0.561893 -0.155225 -0.258874 0.381335 0.351561 0.027024 -0.000005 -0.112686 -0.165516 0.630709 0.309405 -0.100393 0.354944 0.315191 -0.248279 0.090451 -0.202258 -0.549881 -0.099544 0.888245 -0.216677 -0.412878 -0.179900 0.225695 0.463281 0.644972 0.288771 0.450733 -0.172791 -0.084906 -0.215480 -0.280765 -0.493079 -0.318684 -0.135023 -0.409085 0.789068 -0.296995 0.125055 0.438868 0.120764 0.049324 -0.061476 0.112316 -0.571235 -0.304569 -0.240299 -0.062828 -0.186557 0.041743 -0.515100 -0.004149 0.320419 0.732344 0.164056 0.034985 0.129559 -0.058236
42447030 -0.364335 -0.422610 -0.437649 -0.270221 -0.251411 0.540299 0.133880 -0.101263 -0.097685 -0.111235 -0.470515 0.480952 -0.047529 -0.440065 -0.313572 -0.702279 0.059585 0.382455 -0.620841 -0.133028 0.263312 -0.012486 0.035766 0.340042 0.146258 0.076816 -0.076453 0.449271 -0.292593 0.150989 -0.169603 -0.032806 0.428947 0.010393 0.008242 0.225748 -0.398998 0.100152 0.073858 0.547930 0.328173 0.224215 -0.261599 0.216083 -0.063782 0.095302 -0.311698 0.037555 0.191564 -0.198622 -0.182353 -0.587745 -0.250293 -0.252194 0.374030 -0.398781 0.035539 -0.006284 -0.371998 0.157801 0.060366 -0.659628 -0.096425 0.039467 -0.144356 0.134118 -0.147079 -0.272701 -0.100729 -0.203775 -0.413078 -0.155420 -0.387688 0.225704 0.307147 -0.125771 -0.410798 -0.423274 -0.533871 0.258826 -0.100477 0.512295 0.658004 -0.157292 0.422073 0.274089 0.095072 -0.626045 -0.187475 0.457889 -0.364598 0.256397 -0.340068 0.150633 0.311728 0.613106 -0.174519 0.394815 -0.125191 0.159206 -0.280436 -0.517380 -0.418247 -0.720366 -0.365674 -0.839127 0.310698 -0.108552 -0.366943 0.528108 -0.386717 -0.230499 -0.123127 0.208085 -0.684128 -0.191178 0.005296 -0.301508 0.069024 0.124868 -0.514662 0.301707 0.111657 0.326638 -0.092177 0.183692 0.046174 0.080667
42445972 0.421187 -0.432912 -0.242781 0.123671 -0.668976 0.533876 -0.295279 -0.531388 0.050016 -0.282798 -0.366499 0.513301 -0.033269 0.237435 -0.219334 -0.675448 0.364386 0.350954 -0.109979 0.132726 0.512423 0.111687 -0.134942 0.371325 0.095561 0.443018 -0.001727 0.708495 -0.159571 0.087622 -0.113694 -0.251624 0.443545 -0.016936 0.332953 -0.092717 -0.217203 -0.244657 0.375781 0.229566 0.076946 0.395571 -0.155050 0.144208 0.079489 0.205971 -0.192097 0.128645 0.494420 -0.064768 -0.103119 -0.305939 0.011826 -0.363010 0.196445 -0.564732 0.081641 -0.132141 0.084943 -0.073177 0.299051 -0.600509 -0.172452 -0.352456 0.189070 0.383322 0.279740 -0.242267 -0.048966 -0.244740 -0.231198 -0.129300 -0.234045 -0.220961 0.332562 -0.007903 -0.430211 -0.494476 -0.359126 0.241131 0.698590 0.057232 0.190374 -0.312645 -0.090696 -0.230745 -0.035151 -0.483657 0.108647 0.400159 -0.077812 0.393670 -0.026994 -0.131516 0.546389 0.267870 -0.016475 0.518617 0.084212 0.025508 -0.385448 -0.413522 -0.276619 -0.693197 -0.672175 -0.790688 0.329638 0.221429 -0.219175 0.309431 -0.441519 0.266697 -0.192014 0.233232 -0.805612 -0.146175 0.351807 0.005951 0.223189 0.022584 -0.603318 -0.062091 0.794977 0.258050 -0.105990 0.054526 0.267893 -0.459221
596775979 0.400081 -0.447136 -0.226101 0.187184 -0.643115 0.424415 -0.170551 -0.457725 0.036225 -0.430558 -0.266126 0.459280 0.060638 0.173449 -0.154718 -0.567751 0.408124 0.349582 -0.209287 0.112108 0.486985 0.092343 -0.136992 0.408679 0.098735 0.510483 0.128288 0.784622 -0.041148 0.030512 0.092710 -0.384982 0.292637 -0.089880 0.277658 -0.117175 -0.134331 -0.260693 0.255018 0.223803 0.124035 0.561816 -0.092435 0.322599 0.052210 0.250461 -0.252297 0.198970 0.567416 -0.066608 -0.224520 -0.259645 -0.160371 -0.408646 0.206935 -0.695407 0.104180 -0.310164 0.067658 -0.154396 0.423840 -0.470642 -0.038593 -0.449094 0.312031 0.231098 0.319439 -0.343102 0.089146 0.028402 -0.143607 -0.222408 -0.176761 0.121035 0.146805 0.020428 -0.443685 -0.443615 -0.296708 0.025631 0.592587 0.133787 0.331114 -0.404372 0.194977 -0.242071 0.115350 -0.477893 0.059765 0.243360 -0.138068 0.468916 -0.034968 -0.143871 0.543941 0.147715 0.089893 0.347106 0.236937 0.125834 -0.213572 -0.326236 -0.219242 -0.708726 -0.521926 -0.785767 0.173398 0.052548 -0.259682 0.178284 -0.440802 0.313578 -0.189085 0.178742 -0.672086 -0.247388 0.402318 -0.007853 0.235993 -0.049003 -0.444097 0.107039 0.755596 0.242911 -0.240953 0.113868 0.406819 -0.347642
42445885 0.172561 -0.158838 -0.187327 0.052599 -0.356841 0.169014 0.214837 -0.249221 0.131337 -0.034436 -0.325631 0.122143 -0.397149 0.224236 0.216906 -0.557819 0.223871 -0.006368 -0.361978 -0.365621 -0.088763 -0.119737 -0.105544 0.084098 0.196833 0.134292 0.438364 0.283569 -0.259929 -0.152202 0.845205 0.606100 -0.134748 0.614896 0.043305 0.300825 0.272571 -0.498948 -0.090293 -0.105020 0.240626 0.091520 0.545149 0.162673 -0.142133 -0.073782 0.125955 -0.175491 -0.102689 0.518933 -0.334494 -0.339168 0.432198 -0.465339 -0.037602 -0.558893 -0.023355 -0.305342 -0.730988 0.073177 0.495999 -0.409525 -0.136586 -0.235545 -0.179488 0.523504 0.491776 -0.274474 -0.381586 0.010059 -0.452040 -0.568347 0.027609 0.017866 0.276453 0.076886 0.409194 0.370527 -0.655394 -0.450879 -0.010658 -0.259532 0.583470 0.317103 0.563707 0.035223 0.091700 -0.690810 -0.053954 0.510319 -0.347856 -0.008396 -0.126540 0.094641 0.149662 -0.067602 -0.326895 -0.227156 0.029175 0.232720 -0.547565 -0.126720 -0.392519 -0.571428 -0.234780 0.057865 0.578304 -0.318777 -0.276087 -0.154348 -0.123467 -0.059866 0.133580 0.042155 -0.466087 -0.680667 0.362456 -0.202571 -0.003815 -0.325178 -0.099355 -0.133663 0.245365 0.265562 0.175277 0.408378 -0.392456 0.237023
42446266 0.219511 0.282711 -0.397596 0.240427 -0.556699 0.233447 0.202884 -0.235593 0.026769 0.123415 -0.459384 0.263616 -0.088481 0.046809 -0.043158 -0.490293 0.164382 0.057013 -0.375648 -0.177916 -0.155930 -0.002995 -0.165029 0.342569 0.074695 0.091917 0.233227 0.225378 -0.381979 -0.241168 0.978535 0.615183 0.066203 0.875522 -0.085433 0.284025 0.275547 -0.372181 -0.089661 0.068302 -0.038422 0.175370 0.439716 0.134864 -0.095233 -0.228517 0.185775 -0.029931 -0.024456 0.303590 -0.366533 -0.146657 0.501297 -0.474094 -0.274310 -0.620621 0.078214 -0.272958 -0.707233 0.207880 0.349141 -0.314980 -0.066560 -0.054526 -0.182204 0.505776 0.547150 -0.391556 -0.486218 0.008566 -0.650017 -0.341157 0.062833 0.323665 0.161176 0.292876 0.238222 0.140712 -0.947206 -0.153919 0.241343 -0.158559 0.550195 0.259475 0.576135 -0.118389 -0.075621 -0.621738 0.134501 0.475494 0.025604 -0.353073 -0.201835 0.006148 0.002984 -0.269460 -0.204240 -0.163996 -0.238970 0.333344 -0.372548 -0.123086 -0.353676 -0.380391 -0.209882 0.080348 0.442233 -0.296468 -0.367044 -0.106593 -0.012974 -0.041174 -0.017265 -0.242335 -0.590762 -0.500276 0.337126 -0.074676 0.318188 -0.552148 -0.019061 -0.023370 0.354228 0.446564 0.225116 0.467599 -0.411335 0.087399
