391 128
1723738829 -0.091505 0.271388 -0.154269 0.377995 0.126595 0.598392 -0.396342 0.270791 -0.508600 -0.504357 0.171679 -0.390004 -0.256703 -0.269771 -0.103482 0.042877 0.451076 -0.323884 -0.082026 -0.115939 0.245571 0.105943 -0.567808 -0.046081 -0.111552 0.046288 0.415585 0.487609 -0.184018 0.221989 -0.332867 -0.137293 0.122457 0.203707 0.115949 -0.352373 0.235825 -0.244529 -0.066954 0.256131 -0.190704 0.046095 0.048855 -0.285288 0.297740 0.314342 0.110767 -0.135656 -0.014880 0.167771 -0.210338 0.045169 -0.487191 -0.051628 0.166365 -0.022420 0.150681 0.474185 0.345096 -0.452514 0.031944 -0.134201 -0.081389 0.320604 -0.012335 -0.111254 0.174774 0.270961 -0.377243 -0.448075 0.358641 -0.619784 -0.360022 -0.265848 -0.384733 0.047544 0.337598 -0.283822 -0.015524 0.253363 0.045637 -0.183481 0.291708 -0.053203 -0.742129 0.594722 -0.360885 0.127040 0.101928 -0.302623 0.173551 -0.048527 0.146757 -0.378083 0.186663 0.311134 0.043722 0.048423 0.540001 0.307185 -0.477539 -0.377932 -0.261464 0.351116 0.004787 0.160432 -0.218032 -0.084277 -0.550980 0.381194 -0.002743 -0.184460 -0.600475 -0.023008 -0.252638 -0.688277 0.394879 0.066315 0.161555 -0.089625 -0.000096 0.079087 -0.154334 0.052312 -0.366479 -0.364540 0.088770 -0.245070
65315836 0.010737 0.329616 -0.104217 0.301567 -0.526837 0.508478 -0.057812 0.488122 -0.285786 -0.239888 0.079366 -0.103284 0.110084 -0.465565 -0.422346 0.031680 0.342877 -0.360932 0.266286 -0.341790 0.391599 0.135094 -0.361039 -0.600504 0.087342 0.099921 0.044214 0.099152 -0.230050 0.245717 -0.447743 0.035368 -0.095911 -0.339324 -0.057663 -0.508020 -0.094251 0.044315 0.258742 -0.166995 0.295893 0.099468 0.672916 0.185238 -0.572612 -0.160114 0.292862 0.101580 0.304792 0.475522 0.149106 0.027082 -0.067296 0.197334 0.468965 -0.011079 0.548073 0.164751 0.385922 -0.424438 0.232980 -0.234543 -0.352035 -0.350008 0.194778 0.177835 -0.333945 -0.160811 -0.241354 -0.151976 0.014231 -0.294319 -0.602970 -0.090353 0.042456 0.220922 -0.014751 -0.326214 0.307301 -0.346333 0.441395 0.197104 -0.264339 0.057513 -0.435439 0.131185 -0.402544 0.136194 0.179519 -0.375294 0.161081 0.123300 0.104685 0.016642 0.152030 0.098576 0.301865 -0.236422 0.271551 0.562126 -0.740187 -0.225758 0.204177 0.375780 0.058203 0.302721 0.003692 0.411649 -0.098811 -0.577340 -0.369274 -0.037684 -0.475999 -0.477593 0.198361 0.079117 -0.163896 0.237102 0.185854 0.592912 0.187943 0.518812 -0.003027 -0.094202 -0.469952 -0.625798 -0.268178 0.134342
260193330 0.074828 -0.084490 0.469514 0.343295 -0.112428 0.673788 -0.108039 0.700143 -0.165334 -0.214787 0.084714 -0.304214 0.118978 -1.121614 0.371780 0.094543 0.171878 -0.029630 0.309106 -0.142947 0.099570 0.083481 -0.129732 -0.546573 -0.060488 0.045118 0.003139 0.403314 -0.287872 -0.147780 -0.594814 -0.638291 -0.251618 0.043351 0.271529 0.228836 0.022969 0.065353 -0.703516 -0.121519 0.208044 0.061390 -0.523788 -0.290539 -0.300627 -0.043135 -0.042566 0.036083 -0.432973 0.164258 0.542344 0.580578 -0.096736 -0.202833 0.251940 0.241747 0.036830 0.014217 0.322844 -0.159294 0.098299 -0.339880 -0.486559 0.295661 0.190804 0.675151 -0.349100 0.075715 -0.010879 -0.163881 -0.160286 -0.302456 -0.742804 -0.483708 0.399245 0.470853 -0.351048 -0.171983 -0.073270 -0.015549 0.063731 -0.062039 -0.081712 0.278346 -0.226805 0.224974 -0.213651 0.466919 -0.402881 -0.180864 -0.113550 0.109814 -0.216372 -0.232810 0.208849 -0.077561 -0.123625 0.425585 0.221803 0.354995 0.073732 -0.208318 -0.226371 0.200749 0.050922 0.042979 0.075598 -0.043484 -0.139519 0.181418 0.436035 -0.097549 -0.504095 0.560382 0.203716 -0.141091 0.497922 -0.063540 0.218028 0.008639 -0.139049 -0.006297 -0.082787 0.117813 -0.285556 -0.399998 -0.122017 0.283289
54891446 0.065398 -0.096733 0.227378 0.543981 -0.114075 0.876204 -0.015263 0.782845 -0.297932 -0.031905 0.022873 -0.676481 0.027186 -0.810440 0.605951 0.251395 0.062343 -0.515884 0.244048 -0.161406 0.264977 0.184836 -0.028370 -0.737536 -0.216953 -0.068609 0.614538 0.400537 -0.700784 0.151844 -0.358897 -0.012872 -0.024538 -0.215352 -0.133534 -0.079202 -0.206820 0.420602 -0.558286 -0.324588 0.275000 -0.197188 -0.446856 0.114970 -0.126362 -0.034106 0.004479 -0.076901 -0.108823 -0.078496 0.652517 0.320190 -0.346120 -0.866717 0.052481 -0.358541 -0.166780 0.508539 0.243619 -0.486955 0.109723 -0.614699 0.187357 -0.050785 0.250580 0.337093 -0.489763 -0.637023 -0.095677 -0.136307 0.091590 0.062747 -0.761645 0.092270 0.116045 0.175503 0.031445 0.301189 -0.316488 -0.503167 -0.032475 -0.334997 -0.104903 -0.346040 -0.164612 0.664869 -0.241368 0.131360 -0.238869 -0.139182 0.048378 -0.383572 0.002891 -0.353182 0.125600 0.149018 0.088403 0.019296 0.256435 0.128155 -0.368429 -0.144865 -0.181854 0.709151 -0.106107 0.153978 0.156604 0.289025 0.021926 -0.332546 0.480460 -0.135553 0.012622 0.185896 0.022457 0.138740 0.650219 -0.024330 0.544556 0.435418 0.162412 0.161631 0.182709 0.499700 -0.237375 -0.075828 0.211861 0.194336
65305832 -0.153275 0.082754 0.202642 0.263832 -0.407076 0.659394 -0.318166 0.379963 0.009783 0.216709 -0.150905 -0.442205 0.072123 -0.354306 -0.424360 0.643231 0.589674 0.062148 0.528431 0.089957 0.291905 0.072220 -0.203893 -0.370343 0.741260 0.006438 0.430524 0.129313 -0.370020 -0.248711 -0.222310 -0.225146 0.068861 -0.244046 0.269850 -0.172217 -0.158004 -0.263089 -0.626415 -0.852156 0.228458 0.066075 -0.552105 0.140439 0.044498 0.180713 -0.197542 0.505015 -0.265417 -0.101175 0.086527 0.457955 -0.026030 -0.091025 0.257492 0.295477 0.419816 0.074589 -0.042764 -0.328054 0.320585 -0.092931 -0.307123 0.180294 0.104267 -0.069034 -0.504973 -0.736143 -0.154675 0.049621 0.266006 -0.337016 -0.710060 0.074462 -0.020007 0.138602 0.038881 0.015858 0.179860 -0.115091 0.400336 0.246635 -0.369250 -0.043230 -0.013993 -0.184613 -0.365886 0.380331 -0.146689 -0.746445 0.028131 0.312397 -0.232935 0.098200 0.196024 0.245230 -0.157678 0.301489 0.208022 -0.166680 -0.110140 -0.361491 0.184986 0.142277 -0.190541 0.809679 -0.694654 0.547703 0.005272 -0.098482 0.248114 0.212908 -0.121036 -0.356806 -0.124501 -0.194493 0.121447 0.317878 0.273707 0.280401 0.449471 0.603009 0.167085 0.287157 0.120944 0.504237 0.274092 -0.087107
2548141867 -0.148123 -0.019493 0.058534 0.473221 -0.154851 0.903821 -0.319242 0.117345 -0.200109 0.093253 0.210898 -0.182680 0.498641 -0.463173 0.164969 0.283421 0.247847 -0.143194 0.389285 0.010119 0.256309 0.529291 -0.250911 -0.592405 0.324261 -0.257392 0.569320 0.122879 -0.137675 -0.135857 -0.345126 -0.281326 0.132535 0.259358 0.261724 0.230723 0.183350 0.180925 -0.353480 -0.035394 -0.341581 0.097440 -0.271527 -0.313164 0.110483 -0.049277 0.330074 0.088659 -0.330268 -0.202904 0.348165 0.692390 -0.353058 -0.117710 0.174342 -0.311720 -0.399560 0.199731 -0.207273 -0.144847 0.271003 -0.170369 -0.436704 0.437194 0.278035 0.311129 -0.724856 -0.139132 0.185562 -0.449420 0.121816 -0.520092 -0.939487 -0.690091 -0.340201 0.260414 0.384259 -0.456362 -0.035070 0.308247 0.187281 -0.252062 -0.259922 0.111160 -0.223829 0.269191 -0.456035 0.149988 -0.380844 -0.382380 -0.165462 0.427246 0.427278 0.178079 -0.060638 0.060944 -0.268061 0.452092 0.579894 -0.115343 0.310119 -0.605792 0.107814 -0.155705 0.184384 -0.014410 -0.041369 -0.275556 0.004635 0.335376 0.266022 0.092121 -0.602658 0.038436 0.350756 0.223268 -0.289710 0.236733 0.382641 0.074005 -0.193557 -0.079203 0.050269 -0.265490 0.002392 -0.276557 -0.206494 0.247584
293818041 0.089338 0.008843 0.351629 0.454189 -0.116853 0.883036 0.025119 0.854565 -0.285076 -0.117144 0.169497 -0.589655 0.056774 -0.656400 0.565780 0.240136 0.063956 -0.508382 0.437016 -0.257385 0.332462 0.271449 -0.061419 -0.659648 -0.225735 -0.177202 0.603905 0.529316 -0.746554 0.074396 -0.325116 0.031504 -0.060257 -0.170101 -0.121274 0.002811 -0.323234 0.424376 -0.638450 -0.323042 0.233235 -0.108315 -0.374928 0.164179 -0.358096 -0.113641 0.120768 -0.019463 -0.001176 -0.116390 0.562529 0.383102 -0.385786 -0.704348 0.014858 -0.343864 -0.212964 0.397139 0.345648 -0.597355 0.075406 -0.605462 0.191347 -0.090192 0.206608 0.289938 -0.525374 -0.645933 -0.237198 -0.122985 0.071623 -0.090124 -0.711814 0.022647 0.112437 0.201655 0.103065 0.213642 -0.325557 -0.542511 0.017370 -0.288793 0.027993 -0.363573 -0.086803 0.621239 -0.335950 0.015477 -0.303184 -0.138346 0.034821 -0.328045 0.024272 -0.383235 0.114263 0.094892 -0.073377 0.130494 0.452342 0.234936 -0.229386 -0.128161 -0.090201 0.658538 -0.121958 0.119634 0.222307 0.218284 0.000426 -0.251324 0.509276 -0.088733 -0.005134 -0.001651 0.172761 -0.000752 0.542399 -0.056225 0.507450 0.279506 0.042486 0.273256 0.119144 0.459748 -0.256403 -0.037258 0.190693 0.296167
65325009 -0.130666 0.370668 -0.018744 0.272540 -0.440362 0.551661 -0.379742 0.206529 -0.266710 -0.106552 0.191339 -0.106800 0.194531 -0.310918 -0.312056 0.061337 0.526191 -0.453209 0.337780 -0.476933 0.553624 0.074858 -0.369205 -0.777345 0.149157 -0.055364 0.158857 0.227234 -0.201867 0.415966 -0.378914 0.095117 0.041032 -0.082871 0.111073 -0.409958 -0.100276 -0.095773 0.360658 -0.131117 0.063251 -0.009707 0.595071 0.022124 -0.332072 -0.111450 0.321670 0.038395 0.264044 0.299477 0.133615 0.171303 -0.204497 0.068741 0.533466 -0.111656 0.556499 0.192856 0.297086 -0.384180 0.361417 -0.159944 -0.355492 -0.293376 0.241589 0.096224 -0.300600 -0.101260 -0.232406 -0.204556 0.057775 -0.421198 -0.731579 -0.154886 -0.127257 0.083347 0.182133 -0.423094 0.313186 -0.057520 0.255571 0.016019 -0.053668 -0.059945 -0.575878 0.156394 -0.476957 0.028310 0.139446 -0.359871 0.133411 0.177539 0.329453 0.140327 -0.084050 -0.067074 0.162749 -0.266021 0.448630 0.483999 -0.637121 -0.280865 0.143829 0.212265 -0.032731 0.198093 0.002389 0.285480 -0.247828 -0.168322 -0.348968 -0.016321 -0.604641 -0.427488 0.176580 0.186125 -0.141589 0.195052 0.428908 0.463272 0.060491 0.403224 -0.028377 -0.297551 -0.448793 -0.674213 -0.159483 -0.050608
293820891 0.012059 -0.040657 0.305805 0.521383 0.023472 0.718238 -0.025728 0.767830 -0.242358 -0.131904 0.039349 -0.630407 0.075420 -0.889433 0.537241 0.340029 0.088081 -0.379142 0.342825 -0.092798 0.226679 0.004451 -0.071700 -0.701469 -0.190946 -0.124332 0.244198 0.368790 -0.598883 0.154222 -0.306940 -0.065021 0.008143 -0.083047 -0.154925 -0.016526 -0.286818 0.374432 -0.533889 -0.185162 0.268021 -0.152913 -0.561747 0.081671 -0.264321 0.117998 -0.017404 0.017115 -0.250699 -0.090505 0.552571 0.444352 -0.253963 -0.812496 -0.005036 -0.156148 -0.101043 0.319291 0.456230 -0.534760 0.090179 -0.559860 0.135219 -0.050780 0.225914 0.540729 -0.385281 -0.460912 -0.183855 -0.072150 0.021368 -0.010734 -0.886615 0.064660 0.446942 0.240750 -0.015652 0.175147 -0.266239 -0.601884 -0.010604 -0.283342 0.056971 -0.216163 -0.105384 0.659763 -0.405470 0.125721 -0.344019 -0.153902 0.082332 -0.328099 -0.117404 -0.354800 0.234495 0.054510 0.064841 0.067506 0.294276 0.268899 -0.175531 -0.194874 -0.202916 0.576635 0.037801 0.188263 0.209727 0.193778 -0.130697 -0.154351 0.401745 -0.218328 -0.013966 0.289458 0.169948 -0.002620 0.804381 -0.047116 0.453079 0.401698 0.123305 0.213548 0.206804 0.449727 -0.292622 -0.164417 0.337960 0.232699
293820904 0.114625 0.014391 0.354599 0.446495 0.006997 0.768327 0.020193 0.837933 -0.298988 -0.180962 0.114630 -0.597194 0.091401 -0.808090 0.553797 0.282785 0.046512 -0.388489 0.457573 -0.201504 0.283466 0.048158 -0.105395 -0.697149 -0.187668 -0.201027 0.266598 0.443794 -0.620732 0.092167 -0.330718 -0.025281 -0.018500 -0.081218 -0.148690 0.071010 -0.360731 0.381341 -0.592510 -0.221403 0.225057 -0.127531 -0.432478 0.119099 -0.413592 0.012370 0.085116 0.067851 -0.229683 -0.096796 0.547373 0.452846 -0.275534 -0.670458 -0.053006 -0.133552 -0.134165 0.283792 0.537699 -0.603375 0.070458 -0.601800 0.208681 -0.054658 0.117582 0.564012 -0.429819 -0.515559 -0.278824 -0.075449 -0.032127 -0.057910 -0.845849 -0.044005 0.362182 0.229165 0.030512 0.128560 -0.235384 -0.621336 0.069151 -0.232360 0.164427 -0.217308 -0.022574 0.609041 -0.490349 0.033147 -0.402836 -0.165278 0.066934 -0.268607 -0.139294 -0.365030 0.240665 0.047224 -0.044098 0.139012 0.382061 0.307315 -0.048394 -0.170342 -0.187160 0.517639 0.013416 0.250719 0.280372 0.156675 -0.115094 -0.111131 0.459660 -0.203377 0.012391 0.232561 0.232075 -0.087491 0.691833 -0.007565 0.417333 0.304220 0.023714 0.303609 0.186620 0.412155 -0.252237 -0.076341 0.298773 0.327286
1723738842 -0.131284 0.311329 -0.218145 0.337254 -0.614562 0.440653 -0.144949 0.470856 -0.139551 -0.282354 -0.124131 -0.119369 0.110733 -0.443922 -0.679279 0.157620 0.343068 -0.251549 0.369587 -0.270764 0.276675 0.299843 -0.196113 -0.743263 0.380560 0.124940 -0.025567 -0.079919 -0.131712 0.089389 -0.493088 0.111930 -0.158607 -0.263178 -0.072731 -0.475862 -0.218489 -0.114237 0.187877 -0.350701 0.188313 0.163299 0.482386 0.021632 -0.699440 -0.216362 0.323048 0.051497 0.518595 0.662055 0.253858 -0.045645 -0.059807 -0.079470 0.373133 -0.012387 0.507527 -0.114499 0.380540 -0.495524 0.220976 -0.185890 -0.327009 -0.445216 0.353542 0.276919 -0.238782 -0.357897 -0.291793 -0.151363 -0.029199 -0.074888 -0.488019 0.086130 0.042121 0.341719 -0.058185 -0.124252 0.427073 -0.514066 0.348563 0.355623 -0.309950 0.040721 -0.639269 0.231165 -0.343833 0.371285 0.077762 -0.317699 0.297689 0.019033 0.130873 0.079406 0.476407 0.025327 0.254166 -0.374821 0.439516 0.637340 -0.789539 -0.290774 0.256751 0.440873 0.105216 0.198766 -0.135445 0.471444 -0.039845 -0.820605 -0.317750 0.103256 -0.604258 -0.362603 0.166552 0.054568 -0.246780 0.026337 0.310489 0.494270 0.498279 0.350605 -0.027667 0.116724 -0.322879 -0.663715 -0.258682 -0.086438
590607921 0.031114 0.003334 0.357725 0.493088 0.048455 0.679434 -0.050038 0.766117 -0.230268 -0.210474 0.034764 -0.561070 0.067722 -0.951638 0.475713 0.320635 0.074233 -0.286533 0.382590 -0.139668 0.176826 -0.028832 -0.112220 -0.677612 -0.159210 -0.121768 0.108010 0.366348 -0.536538 0.060637 -0.335713 -0.139599 -0.028170 -0.042775 -0.114454 0.043549 -0.297355 0.293475 -0.575421 -0.143764 0.234200 -0.095766 -0.562786 0.039753 -0.348308 0.143512 0.018938 0.045689 -0.342745 -0.071101 0.533827 0.462164 -0.200769 -0.702380 -0.008476 -0.031203 -0.068745 0.261925 0.517833 -0.528947 0.105842 -0.530792 0.094692 0.016126 0.178376 0.630539 -0.358431 -0.339098 -0.198206 -0.054792 -0.047777 -0.093919 -0.906765 -0.021726 0.544444 0.280712 -0.058705 0.106812 -0.196167 -0.574153 0.023745 -0.212773 0.141411 -0.133794 -0.048400 0.622283 -0.465216 0.145986 -0.392147 -0.153598 0.077966 -0.233564 -0.190067 -0.347412 0.273547 0.044205 0.016474 0.148864 0.319504 0.309721 -0.068220 -0.181209 -0.215363 0.488220 0.049805 0.272272 0.209788 0.145208 -0.174270 -0.070874 0.397806 -0.234761 -0.029270 0.388155 0.230695 -0.056809 0.801638 -0.040817 0.371275 0.300744 0.061818 0.230067 0.183607 0.398565 -0.302082 -0.173084 0.335441 0.279357
65317754 -0.327446 0.342458 0.190846 0.341667 -0.308157 0.563863 -0.450767 -0.122086 -0.380413 -0.024792 0.184005 -0.004352 0.355134 -0.403112 -0.365083 0.214361 0.618639 -0.455497 0.257086 -0.558687 0.253265 0.121338 -0.321325 -0.778159 0.470507 -0.260752 0.428656 0.341291 -0.025861 0.391611 0.016436 0.104797 0.103609 -0.030259 0.115996 -0.371646 0.188474 0.101374 0.337801 0.154009 -0.242639 -0.137982 0.113744 -0.208535 -0.173985 0.175809 0.283827 0.220019 0.004230 -0.022354 0.457488 0.709650 -0.364189 -0.361686 0.033484 -0.229640 0.366987 0.265216 -0.253171 -0.551635 0.562912 0.125877 -0.279491 0.234004 0.554715 0.285551 -0.544017 -0.128584 -0.437665 -0.226625 -0.039171 -0.577750 -1.042950 -0.514846 -0.044128 0.191005 0.304287 -0.371790 0.074508 -0.097379 0.203581 0.030308 0.058712 -0.075442 -0.587379 0.248129 -0.297308 -0.334767 -0.078553 -0.606468 0.100078 0.199231 0.453895 0.391282 -0.299404 -0.179869 0.040367 0.008388 0.372819 0.180675 -0.155766 -0.140240 0.447904 -0.071891 -0.126527 0.274918 0.043626 0.179123 -0.054620 0.043006 -0.265880 0.064703 -0.724959 -0.232610 0.268641 0.613690 -0.215154 -0.073554 0.592009 0.257442 -0.220744 0.282408 0.111265 -0.356942 -0.284342 -0.444242 -0.110649 0.001450
276543853 0.316047 0.175970 -0.002957 0.361311 -0.331050 0.553501 0.170710 0.699541 -0.463692 -0.525260 0.190429 -0.109453 -0.090789 -0.709798 -0.163604 -0.097762 0.335954 -0.427070 0.224052 -0.249451 0.187643 -0.221184 -0.541861 -0.322147 -0.125285 0.005038 -0.051485 0.437010 -0.390274 0.052743 -0.291466 -0.131873 -0.125784 -0.434321 -0.189846 -0.612255 -0.120825 0.294998 0.030805 -0.322153 0.268434 0.249352 0.658978 0.172806 -0.687473 -0.252420 0.068681 0.228832 0.216811 0.606859 -0.031239 0.074659 0.085655 0.228588 0.216091 0.342056 0.533825 0.222133 0.376571 -0.739421 0.053018 -0.540506 -0.365207 -0.274654 0.239306 0.185341 -0.456284 -0.253980 -0.240401 -0.044977 0.126920 -0.465607 -0.662595 -0.275931 0.203809 0.270207 -0.184393 -0.269413 0.184368 -0.198542 0.473367 0.334283 -0.389859 0.158452 -0.228058 0.139032 -0.310930 0.066042 0.125787 -0.296155 0.172410 0.020983 -0.167196 -0.210488 0.099272 0.324243 0.395485 -0.058931 0.198643 0.618930 -0.702968 -0.062084 0.268439 0.339065 0.025873 0.364732 -0.053255 0.544871 0.129465 -0.882145 -0.466127 -0.167775 -0.432512 -0.513968 -0.078569 -0.038340 0.040533 0.278453 -0.011302 0.705040 0.147962 0.864660 0.032601 0.015341 -0.364661 -0.574048 -0.258135 0.242808
65317572 -0.237598 0.370130 0.159239 0.252522 -0.368452 0.623661 -0.414012 0.070548 -0.417882 0.013384 0.208335 -0.044666 0.309998 -0.432295 -0.290767 0.133022 0.631195 -0.420977 0.342600 -0.507896 0.292519 0.007819 -0.319555 -0.763555 0.411401 -0.244108 0.381912 0.331976 -0.110131 0.395637 -0.104769 0.136173 0.097163 0.049407 0.174288 -0.343801 0.132565 0.145693 0.356489 0.069099 -0.093552 -0.054908 0.291012 -0.141442 -0.335120 0.077857 0.380489 0.257678 0.118383 0.095071 0.448341 0.612909 -0.320488 -0.231916 0.210133 -0.194515 0.381129 0.303643 -0.086253 -0.426634 0.417115 0.168435 -0.335580 0.174529 0.479320 0.276381 -0.592163 -0.126090 -0.453509 -0.242850 -0.020079 -0.549534 -1.020972 -0.450701 -0.043116 0.219856 0.183182 -0.446890 0.165840 -0.138404 0.296738 0.045605 -0.007490 -0.040869 -0.537957 0.209262 -0.410340 -0.202928 -0.060145 -0.548249 0.106037 0.181144 0.413541 0.357693 -0.224993 -0.172160 0.089324 -0.014941 0.394851 0.301251 -0.308096 -0.208738 0.306998 0.027685 -0.127340 0.291384 0.097671 0.164910 -0.143961 -0.027301 -0.321053 0.042014 -0.717425 -0.260274 0.362584 0.493675 -0.248740 0.071666 0.539435 0.412219 -0.137441 0.422665 0.103560 -0.349955 -0.368402 -0.478261 -0.281121 -0.058184
65362975 0.347479 0.144033 0.022285 0.301827 -0.356865 0.556122 0.227520 0.793354 -0.447468 -0.504666 0.212074 -0.134778 -0.157757 -0.767685 -0.116710 -0.088515 0.347190 -0.398599 0.247735 -0.245869 0.114774 -0.325572 -0.490926 -0.287065 -0.080973 -0.093245 -0.080847 0.469957 -0.362180 -0.033232 -0.228589 -0.119942 -0.144361 -0.384456 -0.163635 -0.567431 -0.113842 0.377037 0.056640 -0.386547 0.236235 0.286003 0.574777 0.148761 -0.781231 -0.242661 0.103184 0.288711 0.264369 0.734708 -0.028508 0.103104 0.120966 0.122547 0.149110 0.373257 0.467724 0.221758 0.349057 -0.827534 -0.066032 -0.461370 -0.349437 -0.151285 0.317306 0.244265 -0.518474 -0.353958 -0.313281 -0.065988 0.131937 -0.525773 -0.684928 -0.292307 0.139942 0.367399 -0.268627 -0.189383 0.220046 -0.177180 0.481916 0.330688 -0.427639 0.242355 -0.215662 0.249930 -0.294469 0.118394 0.105578 -0.300419 0.305101 -0.034880 -0.217957 -0.214482 0.154912 0.305292 0.395119 -0.027472 0.257529 0.647364 -0.674135 -0.019669 0.342368 0.321735 -0.055688 0.308861 -0.116878 0.567322 0.180739 -1.016057 -0.487487 -0.129582 -0.427173 -0.480632 -0.119406 -0.075350 -0.035134 0.223634 -0.033807 0.758148 0.182719 0.970266 0.088855 0.107692 -0.255041 -0.544642 -0.272033 0.149576
1723739266 0.035264 -0.297934 0.019128 0.180135 -0.338574 0.551259 -0.420183 -0.107989 0.057804 -0.182483 0.089903 -0.165479 -0.062222 -0.146379 -0.383597 0.206213 0.186242 -0.097387 0.591075 0.361269 0.386202 0.361967 -0.229253 -0.550413 -0.093709 -0.750162 -0.163680 0.405314 -0.475338 -0.208736 0.095718 -0.165539 -0.030807 -0.250994 -0.099775 -0.079203 -0.148620 0.003427 -0.627724 0.139584 -0.271321 0.030488 0.083334 -0.098480 -0.006809 -0.027694 0.049128 -0.007170 -0.749446 0.171422 -0.093534 -0.005271 -0.197331 -0.341312 -0.096066 0.433040 0.329919 -0.420533 -0.047782 -0.429611 0.092337 0.067813 -0.040585 0.157944 0.292756 0.232328 -0.301193 -0.103674 -0.451458 -0.173151 0.270325 0.016727 -0.323285 -0.243926 -0.110852 -0.199405 0.052748 0.098073 -0.274670 0.237771 0.352860 0.436534 -0.463960 -0.157038 -0.124323 0.512454 0.020300 0.008859 -0.254839 0.119393 -0.190533 0.352151 -0.242753 0.249666 0.579471 0.542182 0.166738 0.025493 0.370754 -0.090703 -0.065104 -0.353165 0.585427 0.119246 -0.345391 0.182907 -0.234681 0.188920 0.232848 -0.350047 0.178339 0.200251 -0.262600 0.134313 0.051774 -0.542206 0.343086 -0.198994 -0.081768 -0.007918 0.417009 1.016938 -0.055526 0.273292 -0.106998 -0.542327 0.245937 -0.081308
5352469988 -0.223437 0.128439 -0.419083 0.580022 -0.402851 0.446266 -0.220824 0.178965 -0.071354 -0.389541 -0.237618 -0.271875 0.390416 -0.224429 -0.864637 0.380524 0.206610 -0.288798 0.290343 0.119749 0.371726 0.925658 -0.285993 -0.670528 0.348031 0.447105 0.278053 -0.311830 -0.143211 0.067704 -0.605602 -0.020010 -0.074047 -0.445014 -0.235140 -0.518613 -0.186337 -0.318719 -0.369423 -0.053567 0.137078 0.079507 0.273843 0.207750 -0.149413 -0.018458 0.104788 -0.059144 0.285125 0.090185 0.427772 -0.048570 -0.245286 -0.027054 0.297523 -0.101490 0.372142 -0.266276 0.274035 -0.305643 0.573032 -0.472566 -0.257323 -0.561850 0.053515 0.052935 0.159404 -0.067134 0.024152 -0.198547 -0.002091 0.202165 -0.228246 0.141464 0.362384 0.084366 0.308786 -0.197790 0.089200 -0.598105 0.221934 0.199594 -0.318818 -0.381777 -0.672359 -0.047996 -0.190054 0.221092 -0.167907 -0.392192 -0.106058 0.123907 0.189430 0.049469 0.606441 0.210051 0.219725 -0.275077 0.188519 0.378647 -0.576542 -0.402860 0.041573 0.434925 0.358041 0.396649 -0.074090 0.384462 -0.089648 -0.412367 0.096821 0.078804 -0.443408 -0.161546 0.173808 0.015789 0.080450 0.073298 0.394574 0.161941 0.477368 -0.120192 -0.169957 0.173738 -0.409478 -0.529538 -0.014016 0.293118
65306840 -0.207068 0.416997 0.104097 0.246389 -0.421317 0.587151 -0.458396 0.121868 -0.389080 -0.017414 0.188101 -0.064355 0.245711 -0.332640 -0.323344 0.146260 0.606113 -0.453752 0.324586 -0.480188 0.452004 -0.025663 -0.372723 -0.771612 0.269585 -0.140794 0.298416 0.311143 -0.174781 0.499705 -0.250399 0.132406 0.055296 -0.009426 0.149983 -0.401907 0.056261 -0.021858 0.400859 0.010971 -0.005605 -0.040528 0.468183 -0.045814 -0.308748 0.060457 0.359750 0.146767 0.197758 0.124259 0.295546 0.440791 -0.340123 -0.059640 0.389241 -0.134223 0.558978 0.294460 0.091066 -0.324725 0.379086 0.051016 -0.339953 -0.043247 0.374388 0.158806 -0.452466 -0.076741 -0.402799 -0.258382 0.032530 -0.462949 -0.924936 -0.281492 -0.028365 0.117192 0.149514 -0.460598 0.200122 -0.116271 0.267826 0.000556 0.030575 -0.106324 -0.546188 0.176887 -0.452796 -0.109159 0.078010 -0.427784 0.046272 0.172394 0.397208 0.306642 -0.206954 -0.129228 0.138600 -0.155230 0.379420 0.434467 -0.480829 -0.222535 0.185721 0.100239 -0.101988 0.308303 0.068495 0.235963 -0.233085 -0.014106 -0.356388 -0.031440 -0.644822 -0.303196 0.289132 0.373526 -0.134983 0.134609 0.525795 0.475343 -0.053752 0.477934 0.036020 -0.377043 -0.474367 -0.568102 -0.219410 -0.077549
65310799 -0.102791 0.062445 -0.273278 0.593918 -0.390243 0.463490 -0.330645 0.076996 -0.052572 -0.408229 -0.124574 -0.381674 0.460694 -0.245546 -0.810075 0.362012 0.360516 -0.432285 0.341982 0.105107 0.530731 0.866263 -0.304025 -0.804138 0.218176 0.331630 0.265311 -0.253957 -0.239406 0.174255 -0.544398 -0.006137 -0.006947 -0.460587 -0.242770 -0.458947 -0.273614 -0.332428 -0.389432 -0.169880 0.008210 0.028044 0.268099 0.289425 -0.073606 -0.066567 0.081390 -0.119243 0.218384 -0.007814 0.395377 -0.021618 -0.160362 0.019253 0.359101 -0.047286 0.483877 -0.219320 0.324071 -0.383411 0.682106 -0.628238 -0.302983 -0.643102 0.072896 -0.006967 0.178842 -0.053949 0.126124 -0.177096 0.037099 0.123665 -0.345711 0.186595 0.424075 -0.003781 0.442889 -0.228300 0.058997 -0.465316 0.163699 0.136220 -0.305195 -0.467447 -0.668501 -0.049912 -0.230676 0.080321 -0.190658 -0.332522 -0.132374 0.200305 0.236468 0.069930 0.488573 0.203626 0.282534 -0.301832 0.196473 0.336204 -0.624529 -0.400609 0.076401 0.354649 0.249312 0.443220 -0.024724 0.385768 -0.083463 -0.329562 0.035323 0.091309 -0.405419 -0.251331 0.168219 0.117369 0.127694 0.134087 0.453055 0.202992 0.396527 0.005027 -0.161049 0.113697 -0.440606 -0.566036 0.145982 0.260192
65303721 -0.058821 -0.080253 0.047537 0.367320 -0.212989 0.816584 -0.287271 0.340895 -0.156936 -0.109495 0.102219 -0.152059 0.482668 -0.698887 0.229591 -0.012281 0.235267 0.085657 0.364838 0.041175 0.244237 0.319237 -0.182178 -0.579178 0.209135 0.082405 0.451067 0.309464 -0.149701 -0.104247 -0.699396 -0.525058 -0.144713 0.188549 0.412294 0.273767 0.185735 0.224754 -0.713161 -0.209188 0.061786 0.123086 -0.334208 -0.408502 0.028455 -0.323028 0.105634 0.062675 -0.212720 -0.050787 0.368776 0.659513 -0.165988 -0.100188 0.324406 0.001057 -0.238604 -0.016126 -0.040469 -0.029649 0.138755 -0.341724 -0.689279 0.192347 0.125986 0.346108 -0.585562 -0.136299 0.396190 -0.531804 0.093649 -0.439445 -0.752585 -0.784976 -0.208834 0.319245 0.037334 -0.322579 -0.014489 0.444823 0.029962 -0.199894 -0.200422 0.185512 -0.258620 0.059948 -0.252202 0.313368 -0.412077 -0.168712 -0.311556 0.254570 0.179680 -0.001369 -0.033845 -0.139134 -0.297562 0.475979 0.407401 0.118567 0.122676 -0.474129 -0.101299 0.055192 0.097636 -0.118461 -0.020330 -0.147576 -0.073242 0.225070 0.404852 0.087454 -0.725658 0.368153 0.162117 0.015698 -0.083141 0.240939 0.329774 0.023198 -0.265672 -0.252415 -0.109669 -0.316896 -0.067467 -0.247376 -0.334328 0.383520
65300028 0.035785 -0.177298 0.086228 0.661174 -0.166454 0.943106 -0.107083 0.650223 -0.350948 0.074568 -0.120763 -0.693219 0.007484 -0.844737 0.598648 0.272099 0.039637 -0.652796 0.013799 -0.091455 0.249353 0.269945 0.032903 -0.814950 -0.126556 0.052700 0.709715 0.285840 -0.700341 0.186005 -0.371031 0.057064 -0.031417 -0.292332 -0.118039 -0.172159 -0.072838 0.362720 -0.432268 -0.354304 0.189597 -0.251159 -0.403864 0.085378 0.111882 0.034060 -0.035976 -0.111127 -0.118347 -0.132050 0.712914 0.235542 -0.339073 -0.943526 0.044141 -0.489965 -0.094156 0.640011 0.090238 -0.412145 0.171125 -0.684754 0.213060 0.009476 0.300347 0.249631 -0.501755 -0.684988 -0.017835 -0.233716 0.118635 0.202832 -0.758644 0.052163 -0.050898 0.092296 0.083901 0.405890 -0.361481 -0.451040 -0.054320 -0.400833 -0.171700 -0.362887 -0.283415 0.712824 -0.142578 0.190541 -0.136080 -0.114881 0.110437 -0.374445 0.144406 -0.266777 0.111932 0.306573 0.195732 -0.097355 0.078996 -0.052602 -0.476336 -0.183942 -0.241457 0.766525 -0.200161 0.248711 0.072244 0.351741 0.126790 -0.387967 0.527706 -0.109694 0.053424 0.267177 -0.159203 0.306860 0.668525 0.027331 0.692724 0.509625 0.268583 0.129587 0.158012 0.604221 -0.169763 -0.049937 0.208975 0.059795
1723739183 -0.107600 0.276701 -0.166766 0.402799 -0.594373 0.482479 -0.087479 0.445240 -0.168778 -0.292203 -0.104038 -0.162570 0.169059 -0.502748 -0.624195 0.139456 0.343338 -0.320206 0.305844 -0.261508 0.406107 0.433523 -0.276495 -0.668540 0.224194 0.240382 0.018914 -0.057484 -0.188382 0.173213 -0.498219 0.028090 -0.174854 -0.399964 -0.133530 -0.512666 -0.148545 -0.113555 0.131996 -0.181105 0.299351 0.082093 0.572770 0.202797 -0.558822 -0.179338 0.262212 0.044845 0.330058 0.468096 0.244130 -0.013337 -0.069909 0.082518 0.400855 -0.049823 0.626430 -0.035528 0.369733 -0.428949 0.291991 -0.267085 -0.346235 -0.430501 0.281028 0.172846 -0.256222 -0.200526 -0.260572 -0.215822 -0.018877 -0.072259 -0.491119 0.030714 0.131520 0.280594 -0.007330 -0.184094 0.313786 -0.512117 0.413055 0.297147 -0.282855 -0.007719 -0.607239 0.188115 -0.296584 0.199418 0.183246 -0.398639 0.208654 0.059262 0.128102 0.061780 0.389495 0.120680 0.304637 -0.343762 0.266047 0.528968 -0.833748 -0.272593 0.179918 0.487532 0.174229 0.290197 -0.012700 0.447580 -0.069504 -0.655149 -0.256766 0.050693 -0.460737 -0.467708 0.224379 0.068429 -0.128190 0.183091 0.207762 0.456490 0.377951 0.333620 -0.101749 0.077968 -0.512286 -0.679930 -0.221578 0.121743
65350740 -0.027788 0.055216 -0.335015 0.640622 -0.226394 0.514647 -0.383836 -0.010288 -0.096078 -0.418023 -0.074136 -0.400786 0.437341 -0.104550 -0.692605 0.421488 0.301055 -0.469037 0.299282 0.206473 0.630251 0.768202 -0.384065 -0.776229 0.078405 0.365908 0.305798 -0.203141 -0.271959 0.240237 -0.559529 0.030532 0.023978 -0.386829 -0.230575 -0.442212 -0.302435 -0.383084 -0.443449 -0.143041 -0.049739 0.011841 0.182481 0.242560 0.111540 0.018815 0.007754 -0.063478 0.134889 -0.167840 0.285528 -0.071990 -0.252097 0.128938 0.416355 -0.077679 0.494316 -0.084172 0.344513 -0.321519 0.695768 -0.695099 -0.326584 -0.619748 -0.062400 -0.087046 0.272506 0.020813 0.185420 -0.135696 0.129579 0.071653 -0.341279 0.094154 0.381269 -0.127311 0.549160 -0.285592 -0.046773 -0.334185 0.137218 0.037921 -0.261068 -0.501812 -0.567382 -0.062406 -0.260271 0.110656 -0.261247 -0.308181 -0.220195 0.279293 0.276203 -0.013484 0.383580 0.253283 0.255898 -0.197947 0.168834 0.319510 -0.548885 -0.407002 -0.036110 0.292251 0.164403 0.497698 -0.064117 0.320616 -0.173815 -0.107075 0.120021 0.040484 -0.515986 -0.132659 0.106925 0.006540 0.286590 0.133544 0.577482 0.198575 0.328190 0.006069 -0.172707 0.112706 -0.412170 -0.519674 0.199358 0.248167
276543369 0.294415 0.184081 -0.034672 0.281407 -0.476588 0.480433 0.108265 0.702142 -0.346626 -0.523815 0.145226 -0.194072 -0.068076 -0.616340 -0.365311 -0.004630 0.353357 -0.432438 0.324587 -0.248259 0.273560 -0.173187 -0.434682 -0.510904 -0.037300 -0.016597 -0.098046 0.316402 -0.308258 0.047495 -0.309882 -0.014852 -0.136442 -0.442636 -0.184974 -0.588429 -0.216107 0.194376 0.034427 -0.476483 0.222786 0.210204 0.559510 0.245245 -0.749415 -0.258970 0.147050 0.208188 0.408570 0.732477 0.046914 -0.001097 0.129555 0.097280 0.288803 0.340612 0.562819 0.111409 0.488819 -0.795885 0.057416 -0.459697 -0.323044 -0.363705 0.311516 0.199274 -0.271712 -0.351718 -0.298005 -0.043813 0.076802 -0.357845 -0.567469 -0.071713 0.173246 0.311654 -0.147340 -0.196400 0.318294 -0.291638 0.433348 0.316344 -0.439877 0.106686 -0.336787 0.194568 -0.313531 0.228662 0.086212 -0.298061 0.284376 -0.024520 -0.145465 -0.132834 0.293886 0.190605 0.430107 -0.193086 0.254007 0.688652 -0.799336 -0.088094 0.334857 0.375335 -0.085962 0.361735 -0.117345 0.627423 0.100158 -0.985316 -0.457696 -0.008834 -0.494597 -0.434690 -0.082216 -0.083878 -0.092925 0.150725 0.042409 0.710263 0.304042 0.883490 0.099352 0.177974 -0.278847 -0.559072 -0.158351 0.097081
65314340 0.156623 0.265577 -0.072999 0.294684 -0.459550 0.472737 0.070355 0.667384 -0.368776 -0.442525 0.144115 -0.093580 -0.030002 -0.576859 -0.346666 -0.010154 0.351211 -0.405619 0.281753 -0.297282 0.263973 -0.120239 -0.431431 -0.482497 0.011341 0.058076 -0.034844 0.285450 -0.277215 0.121025 -0.353235 -0.006762 -0.143075 -0.415106 -0.125925 -0.622006 -0.144317 0.165603 0.158237 -0.322615 0.283683 0.176173 0.666826 0.216320 -0.709248 -0.207920 0.181697 0.198695 0.375664 0.626403 0.063862 0.046483 0.024422 0.156865 0.321828 0.211639 0.546933 0.162570 0.430099 -0.624963 0.103304 -0.377278 -0.340112 -0.300143 0.268645 0.188768 -0.359482 -0.260150 -0.299058 -0.070875 0.065963 -0.373219 -0.614803 -0.133922 0.117433 0.282980 -0.138699 -0.265384 0.296121 -0.316064 0.459985 0.286998 -0.336472 0.117255 -0.345639 0.118096 -0.330643 0.143194 0.133587 -0.345775 0.231983 0.020070 -0.063843 -0.080086 0.189097 0.176658 0.370607 -0.187659 0.231694 0.674931 -0.751865 -0.124421 0.280353 0.384122 -0.003868 0.361877 -0.076494 0.560531 0.053510 -0.842377 -0.452081 -0.091781 -0.496988 -0.480150 0.007610 0.007215 -0.097890 0.179275 0.096353 0.708932 0.201245 0.770449 0.041669 0.019191 -0.379390 -0.584399 -0.251613 0.146733
4061762661 0.143230 0.362767 -0.420335 0.415422 -0.091663 0.537209 -0.430850 0.031210 -0.367314 -0.342121 0.221390 -0.348002 0.125161 0.217281 -0.487386 0.270167 0.280885 -0.523444 0.131429 0.186765 0.475804 0.092722 -0.528292 -0.595984 -0.103073 0.065278 0.381468 0.177726 -0.271622 0.477976 -0.467270 0.189478 0.148273 -0.145105 -0.033735 -0.451016 -0.217102 -0.262557 -0.021444 0.060177 -0.071461 0.013740 0.121621 -0.122009 0.162406 0.126284 0.001408 -0.051103 0.243755 -0.052352 0.054099 -0.100757 -0.473839 0.135625 0.465086 -0.123940 0.291873 0.232220 0.299977 -0.426702 0.547594 -0.369862 -0.263747 -0.366180 -0.235409 -0.068376 0.330538 0.095004 0.052406 -0.040714 0.327626 -0.401115 -0.405278 -0.067444 0.123732 -0.072437 0.478066 -0.433702 -0.057227 -0.028064 -0.046345 -0.004344 -0.049798 -0.285887 -0.512124 0.110743 -0.488897 0.111773 -0.300533 -0.328659 -0.143429 0.190316 0.274158 -0.335103 0.246666 0.178431 0.241795 0.108238 0.453789 0.681243 -0.350662 -0.395559 -0.112107 0.125149 0.022724 0.391017 -0.082362 0.117923 -0.473171 0.146307 -0.045969 -0.199486 -0.775629 0.062906 -0.030298 -0.333712 0.362139 0.031363 0.729020 0.331303 0.117551 0.056911 -0.111325 -0.226722 -0.285217 -0.412801 -0.005024 -0.113988
5352470014 0.254619 0.017318 -0.764292 0.688872 0.087027 0.494748 0.139024 0.094512 -0.224474 -0.324984 -0.043753 -0.245529 0.436184 0.089883 -0.570541 0.311962 -0.114605 -0.532310 0.253499 0.368531 0.235360 0.368322 -0.588708 -0.270093 -0.077757 0.386478 0.300256 0.154524 0.042575 -0.213241 -0.489079 0.099170 0.015106 -0.058608 -0.617254 -0.466527 -0.270883 -0.163583 -0.665956 -0.159289 -0.050055 0.011174 -0.236558 0.071686 0.088290 0.017507 -0.069237 0.388715 0.108940 -0.290152 0.092317 -0.012238 -0.329646 0.107317 0.152008 0.014151 0.203176 0.335174 -0.068406 -0.542182 0.436371 -0.711867 -0.252193 -0.447423 -0.228123 -0.070962 0.264697 0.095363 0.168284 -0.109848 0.225457 -0.317253 -0.136989 -0.252072 0.368878 0.215013 0.321708 -0.297731 -0.179268 -0.088325 0.092588 0.086025 -0.397984 -0.229617 -0.084402 0.160616 0.036971 0.239886 -0.442741 -0.463880 -0.278649 0.076971 0.062065 -0.395661 0.528216 0.342906 0.385051 0.295003 0.191436 0.392978 -0.068491 -0.190302 -0.231575 0.020681 0.115195 0.586988 -0.071483 0.215741 -0.068015 -0.317015 0.210563 0.046689 -0.814394 0.259438 -0.019994 -0.295849 0.378827 -0.098133 0.748084 0.201917 0.447854 0.002786 -0.232902 0.329085 0.249327 -0.367396 -0.267522 0.506456
65350752 0.444901 0.088433 -0.686099 0.544093 0.128095 0.629743 0.165249 0.046050 -0.307381 -0.282129 0.071001 -0.331231 0.298417 0.197096 -0.466464 0.321539 -0.099979 -0.448216 0.256234 0.400588 0.075205 0.048679 -0.630898 -0.197469 -0.126387 0.231656 0.278191 0.220946 0.005332 -0.179301 -0.359443 0.174465 0.037519 0.035891 -0.631946 -0.317944 -0.427065 0.024544 -0.659793 -0.193827 -0.132692 0.048005 -0.286044 -0.085684 -0.040744 -0.121456 -0.082278 0.363415 0.124755 -0.190508 0.073459 -0.076475 -0.289705 0.059712 0.085609 0.068390 0.085915 0.317616 -0.060554 -0.758504 0.274514 -0.517315 -0.189303 -0.394908 -0.230160 -0.072093 0.259826 0.050193 0.125002 -0.133284 0.209897 -0.435402 -0.128834 -0.326415 0.329653 0.358981 0.226496 -0.238584 -0.135464 -0.023795 -0.011380 0.175188 -0.395240 -0.197542 -0.078198 0.362771 -0.077377 0.223886 -0.555946 -0.379305 -0.206382 -0.002116 0.103514 -0.464041 0.485430 0.268701 0.344357 0.361261 0.455365 0.537570 -0.095165 -0.070740 -0.244885 -0.061501 0.086975 0.482403 -0.022313 0.111725 -0.223181 -0.376467 0.099028 0.071325 -0.871040 0.362540 -0.024778 -0.375764 0.165772 -0.125569 0.800634 0.220729 0.534267 0.058089 -0.121699 0.276778 0.299861 -0.409287 -0.315207 0.249582
65317752 -0.346985 0.217691 0.148635 0.341600 -0.200341 0.690828 -0.378703 -0.089256 -0.351122 0.126644 0.299267 -0.107598 0.285818 -0.342693 -0.164353 0.247063 0.542960 -0.439646 0.217012 -0.404944 0.175163 0.263467 -0.221142 -0.666499 0.436503 -0.385621 0.485642 0.109994 -0.054860 0.245433 0.086071 0.109856 0.133178 -0.004067 0.237158 -0.303959 0.154307 0.091071 0.305595 0.194613 -0.171009 -0.035004 0.097111 -0.235941 -0.049441 0.181587 0.334265 0.208486 -0.025817 0.005156 0.454234 0.574016 -0.339901 -0.256587 0.249932 -0.373562 0.080432 0.276955 -0.215234 -0.470147 0.557176 0.176553 -0.287402 0.363416 0.324036 0.280834 -0.459982 0.016125 -0.316112 -0.177139 -0.074760 -0.558306 -0.942858 -0.556583 -0.111815 0.225225 0.474059 -0.458815 0.115992 -0.029404 0.301191 -0.044422 -0.071419 0.025403 -0.486483 0.137726 -0.365224 -0.255626 -0.214147 -0.660146 0.085561 0.354461 0.438005 0.271201 -0.228698 0.010879 -0.044729 0.191088 0.338733 -0.022071 -0.177865 -0.331319 0.340699 -0.009428 -0.154691 0.272429 0.025907 -0.029997 -0.135522 0.148567 -0.178452 0.016854 -0.678483 -0.270865 0.400138 0.430841 -0.276649 0.051640 0.553964 0.279040 -0.257048 0.165404 0.039821 -0.350225 -0.288021 -0.391740 -0.293934 0.068191
1723739367 -0.192690 0.255671 -0.230768 0.481519 -0.529020 0.455995 -0.237763 0.303354 -0.129448 -0.389425 -0.145251 -0.216867 0.192798 -0.384148 -0.749845 0.236277 0.352432 -0.309879 0.286360 -0.090498 0.419186 0.628502 -0.276690 -0.724613 0.286271 0.296910 0.079575 -0.189080 -0.232879 0.192805 -0.537973 0.044635 -0.116524 -0.442580 -0.119536 -0.551891 -0.209102 -0.235653 -0.004377 -0.145060 0.213326 0.106749 0.508597 0.163967 -0.402193 -0.123101 0.206496 -0.060636 0.374731 0.388416 0.267728 -0.081919 -0.123468 0.026222 0.388315 -0.044178 0.555871 -0.207445 0.403900 -0.434533 0.421770 -0.377923 -0.298510 -0.543975 0.229319 0.102082 -0.050113 -0.207530 -0.159163 -0.177766 -0.004645 0.051176 -0.401412 0.135908 0.214553 0.163440 0.128556 -0.169083 0.266985 -0.564014 0.322205 0.304410 -0.261663 -0.159167 -0.722736 0.060600 -0.313123 0.211256 0.040462 -0.342636 0.140669 0.087426 0.168244 0.045665 0.511621 0.167186 0.265543 -0.389498 0.292868 0.501002 -0.833620 -0.369830 0.144481 0.510298 0.255135 0.298172 -0.106123 0.393248 -0.100597 -0.587110 -0.175467 0.018583 -0.460730 -0.404007 0.164709 0.023672 -0.020355 0.162307 0.286329 0.351137 0.440330 0.145618 -0.127893 0.093787 -0.517397 -0.653533 -0.077350 0.073978
4061762663 0.089270 0.159206 -0.149185 0.503528 -0.196405 0.500529 -0.538426 -0.026576 -0.218264 -0.493728 0.169057 -0.414136 0.185495 -0.038257 -0.444639 0.278064 0.461280 -0.531321 0.278396 0.066013 0.635933 0.327195 -0.392090 -0.892978 -0.063241 0.066074 0.212373 -0.026495 -0.396312 0.427446 -0.395854 0.148104 0.102478 -0.286121 -0.004319 -0.439853 -0.376991 -0.256329 -0.081182 -0.272483 -0.142509 0.056061 0.317685 0.067241 0.012027 -0.069276 0.041214 -0.189198 0.327830 0.096796 0.048002 -0.156276 -0.170264 0.145778 0.505375 -0.036815 0.453469 -0.062445 0.551381 -0.506670 0.617228 -0.653964 -0.300348 -0.605129 -0.004346 -0.066217 0.254052 -0.117745 0.133027 0.009044 0.168295 -0.141214 -0.522138 0.074731 0.178365 -0.180069 0.569439 -0.338767 0.139059 -0.137131 0.075214 0.074523 -0.130796 -0.343836 -0.611849 -0.056506 -0.529444 0.045855 -0.254135 -0.146941 -0.031918 0.269151 0.323565 -0.132073 0.210118 0.157846 0.232474 -0.232873 0.387522 0.424032 -0.659317 -0.426671 0.060951 0.239737 0.011916 0.342644 -0.141840 0.210482 -0.268795 -0.064469 -0.175007 -0.088308 -0.613850 -0.340261 -0.030262 -0.062195 0.205311 0.195833 0.550891 0.324418 0.124334 0.166513 -0.057358 -0.128879 -0.446902 -0.536385 0.232167 -0.092669
65287111 0.389651 0.175730 -0.654358 0.468757 0.028792 0.757928 0.241441 -0.023957 -0.320445 -0.127467 0.080324 -0.326105 0.240317 0.265101 -0.418441 0.398532 -0.084731 -0.400796 0.299115 0.360767 -0.005678 0.001977 -0.718044 -0.178549 0.019769 0.239004 0.328730 0.323698 0.060286 -0.188283 -0.289119 0.116276 -0.006341 0.109831 -0.675330 -0.240841 -0.425315 0.136159 -0.613755 -0.058676 -0.100428 0.053671 -0.243287 -0.190839 -0.111673 -0.195326 -0.113387 0.435946 0.038129 -0.158673 0.113091 -0.017697 -0.320316 -0.014117 0.020258 0.028541 0.109120 0.263448 -0.146899 -0.840709 0.099462 -0.248163 -0.119834 -0.334743 -0.154337 -0.047154 0.162485 0.104668 -0.013223 -0.242544 0.124920 -0.518396 -0.106654 -0.515102 0.313416 0.587424 0.082146 -0.198974 -0.120007 -0.005230 -0.006877 0.253518 -0.379754 -0.160356 -0.190421 0.505764 -0.097344 0.184985 -0.538578 -0.394177 -0.158614 -0.156666 0.196037 -0.444079 0.530053 0.217877 0.288981 0.363509 0.626660 0.610472 -0.118692 -0.026939 -0.291913 -0.077352 0.219240 0.347565 0.083790 -0.007491 -0.398641 -0.347183 0.051337 0.052327 -0.886649 0.299572 0.020660 -0.383456 0.032568 -0.075207 0.810412 0.160700 0.615363 -0.022448 -0.123301 0.239746 0.217664 -0.543936 -0.433647 0.244379
65306838 -0.173189 0.373687 0.020933 0.285821 -0.308475 0.645650 -0.425198 0.119379 -0.344746 0.082506 0.231715 -0.134584 0.194396 -0.271670 -0.190649 0.147232 0.570374 -0.443691 0.262222 -0.424066 0.498224 0.083143 -0.387089 -0.704852 0.192475 -0.118391 0.322746 0.232245 -0.227834 0.464910 -0.230072 0.109699 0.095342 0.023676 0.209799 -0.372494 0.060622 -0.036003 0.382227 0.052891 0.052411 -0.013166 0.454226 -0.077675 -0.199542 0.110215 0.323660 0.160926 0.090146 0.099127 0.271870 0.324775 -0.356980 0.082000 0.538818 -0.224267 0.455710 0.366599 0.123537 -0.258236 0.407995 0.042157 -0.360508 0.001864 0.179505 0.127831 -0.351774 0.031259 -0.306956 -0.222979 0.054525 -0.454278 -0.864339 -0.346661 -0.080613 0.064532 0.289728 -0.558691 0.179846 -0.051844 0.314213 -0.066186 -0.032493 -0.071669 -0.471008 0.133693 -0.519262 -0.074902 0.033825 -0.509471 0.042610 0.258458 0.408770 0.186302 -0.194942 -0.025043 0.129460 -0.049312 0.379637 0.326230 -0.497363 -0.294670 0.106482 0.147540 -0.094948 0.328644 0.051414 0.126969 -0.315360 0.132724 -0.265195 -0.091870 -0.643205 -0.380174 0.341509 0.215826 -0.096414 0.217807 0.533631 0.453253 -0.071467 0.368797 -0.006832 -0.340164 -0.479047 -0.547401 -0.262113 -0.020312
65317060 0.027794 -0.087773 0.480384 0.305866 -0.083776 0.391159 -0.189887 0.468285 -0.119777 -0.341790 0.038988 -0.264895 0.214587 -1.025279 -0.030374 0.278049 0.439493 -0.108507 0.117077 0.307636 -0.036019 -0.034397 -0.081862 -0.496564 0.091715 0.111714 -0.015034 0.397821 -0.179563 -0.026531 -0.334019 -0.733836 -0.403430 0.031862 0.291370 0.024263 0.112175 -0.012053 -0.563102 -0.257287 0.055508 0.128956 -0.618375 -0.398607 -0.148725 0.067922 -0.223322 0.037178 -0.118210 0.267067 0.543510 0.536745 -0.021255 -0.206004 0.273439 0.375432 0.314059 -0.173636 0.118877 -0.115407 -0.005088 -0.185849 -0.742950 0.195267 0.487526 0.426319 -0.213532 0.201027 -0.114565 -0.055277 -0.069061 -0.234585 -0.799514 -0.367758 0.752665 0.665262 -0.446517 -0.163580 -0.182231 0.109795 -0.031938 0.069295 -0.438945 0.341598 -0.470883 0.007699 0.088920 0.683177 -0.374858 -0.047957 -0.045277 0.033211 -0.096291 -0.289173 0.155975 -0.109135 0.047305 0.363164 0.028531 0.568308 -0.110306 -0.153803 -0.016005 0.134236 0.029774 -0.114589 -0.005731 0.052547 -0.134144 -0.030454 0.099904 0.007786 -0.713867 0.406721 0.045094 -0.040128 0.627735 -0.252896 0.156070 0.159935 0.061784 0.057771 -0.066720 0.164122 -0.325963 -0.595151 -0.135091 0.142251
1723739120 -0.053843 0.145735 -0.176439 0.524663 -0.441390 0.452424 -0.341494 0.093340 -0.081728 -0.398691 -0.048829 -0.372250 0.321601 -0.257170 -0.717073 0.280264 0.443766 -0.493376 0.345887 -0.018212 0.583115 0.598246 -0.304650 -0.867506 0.129582 0.241272 0.114301 -0.169918 -0.297111 0.314850 -0.462286 0.102159 -0.023941 -0.434574 -0.202296 -0.507801 -0.341738 -0.278062 -0.120968 -0.264606 0.034577 0.014434 0.381630 0.250950 -0.212352 -0.137734 0.108593 -0.114766 0.324426 0.152201 0.256453 -0.109214 -0.078150 0.064207 0.414275 -0.015926 0.643382 -0.172766 0.442114 -0.505883 0.593361 -0.590863 -0.307792 -0.694137 0.170260 -0.032945 0.134705 -0.156387 0.006764 -0.100171 0.018132 0.034424 -0.409528 0.187295 0.350701 0.010519 0.345209 -0.182953 0.202194 -0.428817 0.159490 0.211611 -0.219365 -0.322488 -0.687739 0.003607 -0.331310 0.039314 -0.070019 -0.254774 0.056091 0.130677 0.261363 0.033785 0.378283 0.132859 0.324102 -0.423586 0.270053 0.433612 -0.810305 -0.322280 0.118905 0.375602 0.143075 0.355004 -0.020549 0.370286 -0.147094 -0.421990 -0.158480 0.064780 -0.449888 -0.405938 0.122397 0.107845 0.089595 0.160392 0.440638 0.319440 0.386144 0.138328 -0.117036 0.054740 -0.501191 -0.643968 0.151027 0.067323
65334473 -0.040263 -0.164917 0.379727 0.391993 -0.112920 0.665525 -0.176335 0.479905 -0.001529 -0.066379 0.055810 -0.240007 0.309774 -1.026949 0.331907 0.091797 0.149696 -0.033887 0.282187 -0.082851 0.082565 0.252792 -0.017274 -0.499451 -0.000136 0.007874 0.068644 0.301011 -0.123961 -0.207794 -0.556164 -0.605533 -0.261243 0.079550 0.264544 0.245372 0.065890 0.081270 -0.705635 -0.218005 0.087731 0.086578 -0.460129 -0.342551 -0.140618 -0.148196 -0.025467 -0.053637 -0.378888 0.132956 0.491318 0.623395 -0.093201 -0.221673 0.292241 0.112008 -0.044152 -0.077720 0.096611 -0.045454 0.060743 -0.453710 -0.638588 0.279935 0.301237 0.508584 -0.465945 0.071049 0.201897 -0.322681 -0.119376 -0.275040 -0.778142 -0.498509 0.227748 0.479338 -0.173701 -0.236197 -0.145421 0.208292 0.023888 -0.137180 -0.276027 0.254485 -0.303043 0.122447 -0.029412 0.464019 -0.367288 -0.186203 -0.247921 0.129538 -0.087610 -0.068529 0.063391 -0.086851 -0.180068 0.357786 0.249064 0.187859 0.145705 -0.262758 -0.080488 0.086501 0.187744 -0.182911 -0.040016 -0.090571 0.003943 0.097452 0.469501 0.091133 -0.578585 0.426239 0.158810 0.102196 0.210149 -0.062150 0.206229 0.029660 -0.138780 -0.144199 -0.165113 0.029635 -0.157050 -0.480458 -0.167987 0.335055
260193155 0.116607 0.015436 0.507664 0.328785 -0.121502 0.635241 -0.144547 0.773991 -0.225053 -0.322378 0.066320 -0.356219 0.067106 -1.219353 0.387693 0.129471 0.096969 -0.108363 0.324776 -0.185473 0.134739 0.019214 -0.147590 -0.652296 -0.120871 0.070120 0.008734 0.382691 -0.330171 -0.082582 -0.646228 -0.589623 -0.182904 -0.037150 0.217830 0.169607 -0.049225 0.044730 -0.660841 -0.059813 0.294735 -0.003306 -0.529586 -0.188862 -0.377135 0.039536 -0.030737 0.015707 -0.443436 0.158484 0.635579 0.518759 -0.090659 -0.293530 0.243834 0.212169 0.065666 0.064226 0.452100 -0.201080 0.163900 -0.368403 -0.370215 0.219840 0.210520 0.750829 -0.309405 -0.011372 -0.033655 0.001689 -0.184567 -0.269376 -0.856472 -0.369928 0.523530 0.474520 -0.401339 -0.160801 -0.057040 -0.233646 0.103977 -0.040060 0.005848 0.223263 -0.193153 0.248679 -0.304477 0.457527 -0.400298 -0.154567 -0.041823 0.071755 -0.271055 -0.255776 0.272651 -0.092733 -0.066325 0.382736 0.187377 0.449332 0.037042 -0.205561 -0.260482 0.276910 -0.016748 0.124982 0.102125 0.022954 -0.162812 0.156341 0.441995 -0.187936 -0.433825 0.637332 0.244017 -0.118538 0.619782 -0.087937 0.241813 0.101258 -0.180566 0.082109 0.033812 0.195686 -0.357118 -0.394475 -0.010878 0.300779
2548141872 -0.127575 -0.121045 0.015349 0.528586 -0.334699 0.923028 -0.315885 0.186600 -0.180281 0.299508 0.137904 -0.280880 0.373015 -0.343875 0.191323 0.391820 0.296183 -0.076485 0.254164 0.024922 0.385920 0.565702 -0.313205 -0.531073 0.295213 -0.313122 0.505148 0.073324 -0.258448 0.020840 -0.343241 -0.335912 0.122517 0.299873 0.334441 0.291247 0.314167 0.156567 -0.232669 -0.069014 -0.305335 0.122873 -0.289003 -0.340212 0.114373 0.029217 0.265298 0.050977 -0.327599 -0.170445 0.253734 0.739895 -0.463929 0.034302 0.277881 -0.282984 -0.280191 0.215811 -0.222367 -0.020924 0.228967 0.047009 -0.457857 0.451868 0.193325 0.230807 -0.691939 -0.096143 0.124776 -0.562997 0.218188 -0.470986 -0.974560 -0.739650 -0.459410 0.201242 0.262391 -0.470109 -0.053494 0.374478 0.151717 -0.268768 -0.288635 0.141756 -0.153620 0.399769 -0.573692 0.196019 -0.301007 -0.449317 -0.262783 0.505214 0.485110 0.166389 -0.081144 0.059254 -0.246948 0.446929 0.637275 -0.142873 0.217631 -0.475011 0.052555 -0.208770 0.173386 -0.045095 -0.047825 -0.233627 -0.033577 0.452515 0.218806 0.035824 -0.568658 -0.114026 0.378527 0.114427 -0.193703 0.268492 0.446646 0.117492 -0.012313 -0.081954 0.028850 -0.345341 -0.067302 -0.273787 -0.290276 0.118967
2548141871 -0.207379 -0.025884 0.007561 0.497192 -0.267555 0.933861 -0.307319 0.104604 -0.241852 0.193680 0.180536 -0.184683 0.420261 -0.349126 0.115528 0.333629 0.329787 -0.138869 0.300795 -0.144021 0.333586 0.567865 -0.341568 -0.531759 0.383346 -0.307315 0.596398 0.108939 -0.177131 -0.031843 -0.264767 -0.247012 0.156101 0.237640 0.278215 0.161937 0.269662 0.169822 -0.171370 -0.018303 -0.327116 0.107413 -0.192047 -0.317339 0.095148 -0.011392 0.327645 0.114542 -0.279262 -0.164886 0.250787 0.749041 -0.406521 -0.059573 0.175107 -0.311173 -0.302389 0.236880 -0.274455 -0.186525 0.272897 0.014296 -0.376791 0.429087 0.225463 0.231982 -0.734794 -0.157747 0.087624 -0.506212 0.171215 -0.520197 -0.969248 -0.776097 -0.487257 0.224576 0.379507 -0.476077 0.015505 0.345627 0.190419 -0.254211 -0.212485 0.091400 -0.250705 0.390227 -0.515583 0.097371 -0.229823 -0.471269 -0.178257 0.459834 0.510791 0.238964 -0.150210 0.063810 -0.286184 0.390346 0.630588 -0.158484 0.196845 -0.514226 0.150389 -0.184984 0.151554 0.028937 -0.064669 -0.199387 0.015565 0.340344 0.152824 0.061452 -0.576282 -0.185191 0.332327 0.205074 -0.326932 0.283619 0.432584 0.099844 -0.098139 -0.022962 0.043587 -0.328710 -0.040808 -0.262912 -0.290028 0.187936
65295340 0.088364 -0.111339 -0.615767 0.561541 -0.224970 0.520791 0.097829 0.370379 0.210568 0.284448 0.094411 -0.171813 0.212327 0.138362 0.008106 0.407222 0.456095 -0.305443 0.501597 0.237625 0.204876 0.129118 -0.357472 -0.244338 0.684660 -0.039497 -0.034573 0.528524 -0.473630 -0.277352 0.306473 -0.029237 -0.226035 0.412372 -0.023074 -0.046264 -0.013429 0.150819 0.038271 -0.393047 -0.127011 0.538666 -0.322432 -0.311064 -0.346447 -0.355419 -0.307293 0.271810 0.241774 0.183651 0.101851 0.611796 -0.188127 -0.338749 -0.160955 0.312542 0.153777 -0.398125 -0.518551 -0.775668 -0.111865 -0.126038 -0.056531 -0.148938 0.313250 0.054233 -0.495833 -0.272179 -0.394739 -0.260485 0.198903 -0.329046 -0.364224 -0.759487 0.356903 0.239831 -0.183169 -0.141886 -0.136101 -0.002794 -0.087196 0.178953 -0.282250 -0.207522 -0.326091 0.427678 -0.342943 -0.152972 -0.241880 -0.142370 -0.068524 -0.311924 0.478329 -0.455926 0.270403 0.056431 0.186939 0.113071 0.836218 0.479956 -0.191416 0.049768 -0.013933 -0.168514 0.486888 0.016108 0.437401 0.267445 0.065685 -0.586623 -0.132133 -0.325549 -0.158118 -0.654662 0.074476 0.094357 0.453636 0.247912 0.668177 0.057893 0.785796 0.104181 -0.146603 0.017437 0.122272 -0.295976 -0.505648 0.290676
65315504 -0.188437 -0.043848 0.006933 0.492800 -0.053259 0.943631 -0.267070 0.018292 -0.192276 0.167997 0.301035 -0.214870 0.442958 -0.376525 0.054637 0.218369 0.345858 -0.280372 0.474641 0.005924 0.081067 0.601842 -0.158146 -0.544296 0.373527 -0.389821 0.566139 -0.013335 -0.115943 -0.247163 -0.111398 -0.087794 0.215396 0.273143 0.194503 0.090135 0.048837 0.259079 -0.325221 -0.068079 -0.442622 0.139663 -0.106586 -0.248763 0.049233 0.016984 0.438221 0.281886 -0.180680 -0.202893 0.372171 0.531993 -0.247366 -0.145619 0.292645 -0.495014 -0.540657 0.297388 -0.123309 -0.353038 0.448177 -0.256219 -0.357432 0.522878 0.291169 0.299518 -0.580011 -0.021479 0.113615 -0.388822 0.079741 -0.686305 -0.836345 -0.593184 -0.323394 0.242677 0.638819 -0.524277 0.147158 0.186078 0.370802 -0.189481 -0.382630 0.121436 -0.126879 0.163426 -0.439717 0.030627 -0.534788 -0.599324 0.004905 0.419064 0.453326 0.136975 0.059298 0.155195 -0.120433 0.434788 0.673304 -0.411902 0.204489 -0.691279 0.197656 -0.059168 0.144131 0.170216 -0.021575 -0.270971 0.017472 0.154145 0.137891 0.243777 -0.597971 -0.212850 0.451818 0.253093 -0.500096 0.226921 0.366324 0.108698 -0.178207 -0.134096 -0.028628 -0.195059 0.073663 -0.333821 -0.345435 0.181810
65303529 -0.028550 0.115891 0.068228 0.385158 0.131860 0.759164 -0.318584 0.124821 -0.449851 -0.434903 -0.203584 0.082133 -0.105415 -0.517823 -0.654634 -0.108629 0.278544 0.314365 0.092956 -0.093709 0.202399 0.465466 0.011370 0.073378 0.082838 0.028896 0.172705 0.311149 -0.568153 -0.417557 -0.000964 0.149486 0.046853 0.135196 -0.008266 0.052990 0.332635 -0.148780 -0.560144 -0.297944 -0.270269 0.303477 -0.503222 -0.236745 -0.142506 0.288603 0.111295 0.054308 -0.177049 0.188180 -0.017524 0.181601 -0.086199 -0.022070 -0.035205 0.237562 0.199798 0.266988 -0.052291 -0.311274 0.302309 -0.055985 -0.222202 0.080926 0.177240 0.209719 -0.228928 -0.441341 -0.360218 -0.232580 0.370497 0.274290 -0.547461 -0.506876 -0.001831 -0.103859 0.184474 -0.082537 0.009664 -0.286929 0.279940 0.359346 -0.034730 -0.385808 0.046616 0.795752 0.065444 0.352583 0.252004 0.087645 -0.401981 0.249884 -0.012009 0.035018 0.183616 0.255497 0.138964 0.056943 0.282660 -0.558690 -0.263299 -0.121826 0.314991 0.267910 -0.243202 0.781426 -0.257384 0.127578 0.448726 -0.217554 -0.020798 0.301242 -0.299352 -0.278644 -0.075682 -0.420459 0.071052 0.260831 -0.067940 0.032035 0.333904 0.697837 -0.184173 0.257459 -0.041972 0.162637 -0.200224 -0.246791
666571224 0.225491 0.042019 0.594784 0.305985 -0.136961 0.751796 -0.158125 0.814775 -0.306425 -0.309019 0.083404 -0.332038 0.042029 -1.211611 0.400301 0.046667 0.070925 -0.190283 0.334564 -0.264978 0.114479 0.068853 -0.132587 -0.693401 -0.117329 0.020049 0.072665 0.491211 -0.415682 -0.152652 -0.649976 -0.505755 -0.283132 -0.089157 0.227579 0.183860 -0.121026 0.049131 -0.712471 -0.139020 0.206361 -0.020905 -0.402946 -0.142351 -0.427475 -0.028666 0.060447 0.016505 -0.476267 0.156383 0.685978 0.465427 -0.122707 -0.245550 0.191968 0.190946 0.073904 0.186663 0.470790 -0.257164 0.133017 -0.453299 -0.280173 0.310445 0.147965 0.739950 -0.397427 -0.039873 -0.179085 -0.037695 -0.250256 -0.305132 -0.840364 -0.477363 0.423525 0.483998 -0.353460 -0.111036 -0.058096 -0.235181 0.167759 0.001175 0.085255 0.224949 -0.181199 0.272473 -0.288006 0.419299 -0.407740 -0.110067 -0.053161 0.093220 -0.278705 -0.259843 0.259045 -0.014632 -0.074478 0.404017 0.191702 0.406238 0.060978 -0.155963 -0.248338 0.305632 -0.144846 0.303291 0.134284 0.017391 -0.109097 0.105920 0.515982 -0.130174 -0.391575 0.616684 0.194505 -0.133781 0.562193 -0.072471 0.263256 0.027184 -0.226555 0.166135 -0.023671 0.241175 -0.311560 -0.304340 -0.041087 0.330726
65308289 0.376394 0.068478 -0.734207 0.625081 0.142073 0.522518 0.106122 0.131193 -0.275547 -0.382062 0.082243 -0.320231 0.332884 0.160802 -0.572530 0.229395 -0.028540 -0.546882 0.196451 0.309579 0.179836 0.208683 -0.592652 -0.232139 -0.188288 0.212124 0.320702 0.139617 -0.061274 -0.148345 -0.498404 0.158304 0.102495 -0.058734 -0.554083 -0.434848 -0.332573 -0.178822 -0.603222 -0.261155 -0.178862 0.056893 -0.189404 0.015144 0.038821 -0.023922 0.008854 0.216277 0.209155 -0.191364 0.016148 -0.096857 -0.306989 0.131869 0.193167 0.029329 0.061097 0.407332 0.043508 -0.634094 0.474314 -0.751884 -0.249310 -0.453967 -0.315137 -0.066764 0.325346 0.086706 0.285256 -0.067138 0.308957 -0.450038 -0.186496 -0.151310 0.291433 0.148456 0.436176 -0.336574 -0.120407 0.024173 -0.013217 0.043828 -0.374136 -0.285680 -0.112030 0.252627 -0.152145 0.244089 -0.450694 -0.405138 -0.229317 0.170772 0.046359 -0.504252 0.439598 0.323286 0.387937 0.293328 0.366224 0.516906 -0.125658 -0.199686 -0.141112 -0.009606 0.038301 0.546981 -0.084175 0.281528 -0.108796 -0.364688 0.101764 0.021532 -0.847952 0.304875 -0.094755 -0.348329 0.324945 -0.141168 0.780565 0.326056 0.435165 0.097934 -0.157493 0.203500 0.309668 -0.357011 -0.214092 0.311542
65354419 0.455009 0.088852 -0.534376 0.375272 0.158064 0.670428 0.024042 0.105158 -0.333199 -0.373008 0.272033 -0.553307 0.045550 0.237732 -0.320240 0.254028 0.144896 -0.472630 0.213331 0.211790 -0.066413 -0.083455 -0.585398 -0.101271 -0.141272 -0.058510 0.380809 0.116437 0.021693 -0.015521 -0.291131 0.121568 0.133398 0.094493 -0.391176 -0.259774 -0.422793 -0.023733 -0.547236 -0.136978 -0.356849 0.093389 -0.059223 -0.199384 -0.055380 -0.227536 0.068990 -0.005403 0.243672 0.095949 0.056829 -0.131656 -0.360265 -0.063590 0.101828 0.066851 -0.078653 0.259692 0.181189 -0.801267 0.225370 -0.429463 -0.104981 -0.154567 -0.249537 -0.073104 0.312601 0.160072 0.076010 -0.265917 0.225860 -0.675994 -0.105125 -0.125209 0.022139 0.278225 0.362719 -0.216526 -0.015021 0.107202 -0.083981 0.142039 -0.277354 -0.306306 -0.368922 0.431481 -0.346720 0.102153 -0.573317 -0.349554 -0.012898 0.001082 0.070996 -0.470855 0.435143 0.253174 0.232700 0.253330 0.747791 0.651937 -0.206108 -0.121425 -0.186403 -0.058986 0.139912 0.223693 0.032711 0.110975 -0.454348 -0.292311 0.039847 -0.009438 -0.878591 0.361569 -0.077486 -0.469580 -0.055740 -0.184627 0.634575 0.111322 0.421799 0.011194 0.012000 0.029392 0.216660 -0.451753 -0.077037 -0.106223
65329079 -0.047561 0.059075 -0.477354 0.624949 -0.254851 0.461481 -0.198395 0.158882 -0.190094 -0.468273 -0.139514 -0.312915 0.457558 -0.147719 -0.806109 0.403067 0.152511 -0.425660 0.270986 0.204876 0.421508 0.802677 -0.378798 -0.649792 0.167284 0.457193 0.359364 -0.202260 -0.071006 0.077732 -0.605605 -0.013201 -0.070734 -0.419454 -0.285517 -0.532494 -0.225550 -0.305805 -0.510668 -0.040759 0.070977 0.017238 0.186799 0.243419 0.017890 0.036100 -0.010701 0.068812 0.202297 -0.078401 0.368741 -0.017135 -0.298047 0.074894 0.341234 -0.126651 0.373231 -0.076143 0.288046 -0.290133 0.631929 -0.629027 -0.301184 -0.511140 -0.072382 0.043357 0.219265 0.058382 0.109812 -0.158141 0.102050 0.068184 -0.238349 0.063950 0.382253 0.048958 0.431582 -0.289534 -0.058479 -0.470519 0.245111 0.168807 -0.366979 -0.400442 -0.540523 -0.072890 -0.115713 0.188493 -0.314889 -0.477458 -0.243912 0.168828 0.159913 -0.012074 0.571533 0.288890 0.260635 -0.082139 0.067655 0.390530 -0.423832 -0.426051 -0.060248 0.326702 0.288723 0.553185 -0.072500 0.335452 -0.100560 -0.248930 0.144428 0.040719 -0.617295 -0.029390 0.152531 -0.039257 0.208196 0.073645 0.474403 0.137949 0.329095 -0.055642 -0.208005 0.183401 -0.385311 -0.504217 -0.017136 0.404802
260193331 -0.009516 -0.024744 0.510304 0.343035 -0.070062 0.474118 -0.166125 0.612992 -0.091154 -0.272884 0.083093 -0.262012 0.170144 -1.149511 0.197786 0.199493 0.295829 -0.049359 0.213310 0.023394 -0.033176 -0.002088 -0.068036 -0.524112 -0.041508 0.120232 -0.033613 0.376813 -0.234712 -0.087603 -0.466421 -0.688088 -0.333424 0.020149 0.266575 0.117275 0.049160 0.057640 -0.678228 -0.197375 0.169129 0.067527 -0.623657 -0.326168 -0.239300 0.025950 -0.120819 -0.008145 -0.299861 0.199529 0.543442 0.547753 -0.023447 -0.296267 0.308026 0.297013 0.112646 -0.038179 0.243929 -0.132409 0.048270 -0.276540 -0.592796 0.256484 0.390171 0.570900 -0.303180 0.194312 -0.001073 -0.083251 -0.163335 -0.348525 -0.774635 -0.319435 0.629749 0.579637 -0.438465 -0.165118 -0.101384 0.017082 -0.005292 -0.047886 -0.244138 0.322979 -0.336016 0.131291 -0.077046 0.607209 -0.374125 -0.106320 -0.074529 0.062181 -0.194092 -0.277547 0.162003 -0.122724 -0.035709 0.381742 0.178683 0.481103 -0.024460 -0.168080 -0.122417 0.210201 0.056116 -0.039415 0.017227 0.034079 -0.178712 0.042194 0.288361 -0.036328 -0.593249 0.507822 0.160217 0.009971 0.595992 -0.216176 0.182854 0.099871 -0.045804 -0.031452 -0.046219 0.136418 -0.332298 -0.538913 -0.091324 0.263002
65300049 -0.094406 -0.155681 0.492677 0.394636 -0.082937 0.547901 -0.175169 0.455278 0.048444 -0.105876 0.056699 -0.223413 0.250784 -1.018078 0.181887 0.194076 0.303578 -0.061383 0.178340 0.105040 -0.063665 0.158875 0.072425 -0.414466 -0.013772 0.025930 -0.011989 0.392860 -0.206607 -0.211205 -0.393861 -0.671311 -0.429242 0.048019 0.271161 0.148447 0.079397 0.048128 -0.713449 -0.327654 0.011719 0.087662 -0.567980 -0.394130 -0.141132 -0.071436 -0.114712 -0.121133 -0.284957 0.172485 0.428893 0.570953 -0.048009 -0.265423 0.314949 0.196112 0.088648 -0.084923 0.055557 -0.028000 -0.035398 -0.328918 -0.681258 0.314587 0.472705 0.384436 -0.432283 0.214807 0.047400 -0.252634 -0.114033 -0.286692 -0.812277 -0.393128 0.445068 0.616000 -0.291574 -0.137614 -0.234976 0.255216 -0.028576 -0.059440 -0.394275 0.292798 -0.389201 0.156977 0.162364 0.601727 -0.296312 -0.062228 -0.190984 0.080979 -0.100267 -0.196786 0.063539 -0.047270 -0.099080 0.305705 0.212283 0.279709 0.006566 -0.182876 0.017387 0.179591 0.121673 -0.229626 -0.057335 -0.011942 -0.029893 -0.048019 0.318208 0.167613 -0.617970 0.335889 0.121979 0.091901 0.421088 -0.258960 0.127681 0.059655 0.001280 -0.064770 -0.181146 0.121794 -0.230733 -0.600424 -0.151767 0.237760
65283764 -0.386758 0.140176 0.134275 0.377418 -0.080420 0.814570 -0.366400 -0.069781 -0.356761 -0.002760 0.405044 -0.094087 0.328796 -0.420383 -0.102631 0.317969 0.480885 -0.497583 0.277169 -0.300580 0.078150 0.429232 -0.169983 -0.660030 0.567089 -0.530097 0.653585 0.068024 -0.024508 -0.003483 0.208026 0.033596 0.194293 -0.061310 0.291317 -0.325810 0.095403 0.172772 0.159330 0.249937 -0.206740 0.032167 -0.077433 -0.307483 0.106977 0.189285 0.341954 0.313785 -0.065019 0.011570 0.493703 0.617139 -0.323154 -0.394835 0.160390 -0.409176 -0.225140 0.206186 -0.307015 -0.670091 0.565165 0.131512 -0.206331 0.482760 0.234464 0.318840 -0.510696 -0.046266 -0.218643 0.004279 -0.018816 -0.579314 -0.926760 -0.706872 -0.165798 0.323609 0.684906 -0.497306 0.108901 0.014692 0.340862 -0.081332 -0.200029 0.122011 -0.520988 0.043504 -0.278043 -0.145912 -0.334694 -0.715257 0.095202 0.440085 0.412413 0.197369 -0.116937 0.172144 -0.202540 0.370442 0.297039 -0.205226 -0.033130 -0.608860 0.414695 0.003714 -0.170379 0.314245 -0.115720 -0.225438 -0.081721 0.139688 -0.105641 0.027778 -0.674255 -0.288361 0.348406 0.304623 -0.314425 0.125658 0.449158 0.220061 -0.385486 0.168071 0.024233 -0.259828 -0.204130 -0.289669 -0.389333 0.225847
65351748 -0.046366 0.409632 -0.085855 0.293474 -0.291548 0.545330 -0.370576 0.173092 -0.317829 -0.061153 0.269868 -0.098041 0.120334 -0.149220 -0.229389 0.114002 0.458993 -0.449999 0.200117 -0.336125 0.562843 -0.013626 -0.433235 -0.690819 0.035268 -0.080639 0.213492 0.240074 -0.281856 0.465430 -0.365171 0.129818 0.078008 -0.052777 0.162202 -0.379959 -0.040530 -0.076480 0.434699 -0.048516 0.062104 0.048737 0.461919 -0.064081 -0.203404 0.082259 0.286170 0.057706 0.167203 0.182222 0.040536 0.096975 -0.298442 0.226679 0.596837 -0.183399 0.450161 0.399741 0.253746 -0.318006 0.383588 -0.122376 -0.353120 -0.201848 0.039124 0.098033 -0.237744 -0.031397 -0.168439 -0.080043 0.157715 -0.509859 -0.766267 -0.252541 -0.164557 -0.013545 0.292819 -0.516721 0.200959 0.013171 0.260710 -0.088221 -0.052828 -0.011218 -0.368739 0.156642 -0.593862 0.065097 0.099226 -0.352997 0.098194 0.323009 0.342252 -0.046730 -0.185939 0.032554 0.158522 -0.044422 0.441587 0.490911 -0.524887 -0.302761 0.155838 0.169003 -0.111255 0.291611 -0.027173 0.248727 -0.302271 -0.021740 -0.310067 -0.165758 -0.632703 -0.352515 0.179440 0.027914 0.017723 0.173665 0.516154 0.556777 -0.067418 0.406567 0.028650 -0.341712 -0.354221 -0.503923 -0.143273 -0.026036
65307376 -0.210580 0.087311 -0.206817 0.489719 -0.015252 0.220052 -0.172651 0.375112 -0.198236 -0.063742 -0.266404 -0.070744 -0.022543 -0.423244 -0.437896 0.262978 0.617262 0.337531 0.242235 0.309601 0.255772 0.329052 -0.165298 0.019563 0.814525 0.180937 0.243271 0.258074 -0.577712 -0.395461 0.107172 0.115441 0.072718 0.055031 0.166945 -0.052731 0.186151 -0.197946 -0.281124 -0.619607 -0.031856 0.329353 -0.718210 -0.021953 -0.080399 0.240372 -0.177860 0.475924 0.081593 0.112769 -0.079458 0.578422 0.058646 -0.074027 -0.174567 0.351569 0.128688 -0.064496 -0.137344 -0.521843 0.205495 -0.014975 -0.184735 0.120493 0.260851 -0.033647 -0.209680 -0.578600 -0.184116 0.003928 0.351228 0.082269 -0.370166 -0.541604 0.116563 0.040667 0.172681 -0.178436 -0.102979 -0.195807 0.068033 -0.041962 0.039739 -0.077781 -0.205453 0.220473 -0.107139 0.276915 -0.079873 -0.324353 0.044636 0.150374 0.201305 -0.289625 0.093082 0.044497 0.076627 0.221174 0.103660 -0.105844 -0.192727 -0.025068 0.221347 0.155470 -0.305261 0.741556 -0.369584 0.457137 0.438321 -0.149238 -0.272083 0.000657 0.110941 -0.538625 -0.157485 -0.207196 0.415693 0.381780 0.201781 0.208368 0.441896 0.307339 -0.017025 0.420064 0.036030 0.572503 -0.370077 -0.114179
65317570 -0.288944 0.331272 0.054508 0.309804 -0.284271 0.705187 -0.430154 0.008483 -0.331365 0.150778 0.232583 -0.085222 0.209073 -0.289076 -0.189664 0.228504 0.536485 -0.459824 0.229678 -0.387310 0.365996 0.192707 -0.314924 -0.703774 0.336428 -0.255478 0.372775 0.162231 -0.165312 0.370318 -0.066558 0.138989 0.115417 -0.003681 0.217937 -0.351682 0.154695 0.016564 0.454949 0.192008 -0.044213 -0.002033 0.295862 -0.197337 -0.121973 0.203194 0.324777 0.229667 0.004323 0.048326 0.360643 0.429602 -0.388833 -0.096530 0.385636 -0.341103 0.298425 0.338671 -0.112199 -0.339047 0.470572 0.167553 -0.314863 0.203380 0.285080 0.213799 -0.428033 -0.009039 -0.354751 -0.192849 0.026646 -0.472555 -0.919279 -0.475877 -0.109962 0.134790 0.349953 -0.495722 0.126922 -0.072949 0.319908 -0.065831 -0.063317 0.004570 -0.469329 0.182944 -0.433056 -0.119527 -0.032344 -0.610292 0.084775 0.304349 0.457228 0.242804 -0.200489 0.011607 0.043321 0.052343 0.365490 0.158313 -0.336056 -0.347829 0.247344 0.073723 -0.113141 0.295104 0.015941 0.037793 -0.208952 0.135710 -0.218028 -0.059492 -0.640808 -0.331565 0.350076 0.308997 -0.154730 0.127415 0.558753 0.399308 -0.130785 0.303229 0.002374 -0.306985 -0.390921 -0.468378 -0.295220 -0.017036
65307414 -0.005437 -0.198239 -0.598191 0.637652 -0.260937 0.389084 0.029638 0.468302 0.306101 0.287214 0.023473 -0.080854 0.298524 0.029052 -0.040936 0.337889 0.505894 -0.264563 0.499927 0.211000 0.314933 0.212592 -0.290096 -0.299021 0.789678 -0.047170 -0.130839 0.528865 -0.622987 -0.303244 0.318764 -0.070023 -0.231420 0.345263 0.076053 -0.108777 0.078688 0.052225 0.159239 -0.504640 -0.134575 0.603013 -0.313780 -0.246185 -0.310658 -0.247383 -0.274768 0.297367 0.249094 0.129182 0.073127 0.710980 -0.102168 -0.341491 -0.159251 0.360987 0.190367 -0.462631 -0.535361 -0.717664 -0.062241 -0.270976 -0.107667 -0.159885 0.400657 0.076820 -0.543815 -0.362787 -0.312867 -0.149684 0.290560 -0.213920 -0.490263 -0.755760 0.383305 0.061334 -0.115802 -0.202173 -0.147516 -0.019340 -0.068756 0.032201 -0.234623 -0.237805 -0.300025 0.370534 -0.300266 -0.130026 -0.166001 -0.134779 -0.116058 -0.192835 0.440560 -0.442134 0.180467 0.024706 0.226038 0.114998 0.647794 0.366474 -0.209119 0.007241 0.144491 -0.155951 0.378221 0.083663 0.373417 0.367904 0.312673 -0.640049 -0.171452 -0.321251 0.012626 -0.725320 -0.043714 0.170732 0.646797 0.242264 0.615731 0.099409 0.793933 0.226416 -0.159776 0.034425 0.182035 -0.245168 -0.495834 0.389907
65305827 -0.151189 0.023073 0.105336 0.217314 -0.362870 0.516060 -0.267632 0.288346 0.050311 0.175044 -0.152290 -0.342483 -0.026359 -0.309331 -0.394951 0.565069 0.669026 0.123839 0.528922 0.133189 0.393183 0.124398 -0.173350 -0.277496 0.690013 -0.073979 0.337174 0.136727 -0.408208 -0.263241 -0.036325 -0.188543 0.066867 -0.179795 0.291941 -0.076764 -0.135479 -0.275560 -0.578864 -0.710350 0.102600 0.172788 -0.482273 0.102759 -0.016059 0.122327 -0.218146 0.470289 -0.340750 0.043653 0.063000 0.486644 -0.030926 -0.096349 0.097962 0.373006 0.420088 -0.062096 -0.066824 -0.309036 0.286018 -0.084951 -0.208142 0.200049 0.164879 -0.068656 -0.433235 -0.690562 -0.156971 -0.010444 0.352917 -0.175466 -0.542214 -0.084804 -0.020904 0.015024 -0.030726 0.005213 0.056771 -0.062733 0.330376 0.241906 -0.368358 -0.082575 -0.032874 -0.117355 -0.269371 0.296652 -0.212612 -0.636711 -0.016738 0.261332 -0.231232 0.042008 0.227342 0.251246 -0.100662 0.343798 0.115422 -0.162828 -0.095303 -0.210826 0.278707 0.032054 -0.266063 0.742134 -0.533178 0.632654 0.134356 -0.157531 0.176070 0.111307 -0.005047 -0.442532 -0.081005 -0.220152 0.221834 0.321663 0.232033 0.214434 0.485484 0.557810 0.106890 0.226881 0.125688 0.446931 0.147471 -0.092850
260193156 -0.028574 -0.018972 0.458114 0.328870 -0.037363 0.405451 -0.145351 0.645839 -0.108500 -0.320765 0.083047 -0.344501 0.085871 -1.112899 0.159364 0.267662 0.254532 -0.031524 0.265423 0.101818 0.028043 -0.107001 -0.073772 -0.564949 -0.117660 0.060385 -0.132750 0.342328 -0.285762 0.020021 -0.415947 -0.623364 -0.171887 0.013886 0.225888 0.051484 0.018187 0.073747 -0.554634 -0.073194 0.313798 0.049098 -0.708630 -0.252987 -0.323277 0.155900 -0.154636 0.002960 -0.284302 0.193800 0.530617 0.544159 -0.021988 -0.412904 0.297896 0.335309 0.155439 -0.109402 0.354625 -0.194974 0.145313 -0.151873 -0.495016 0.130789 0.400132 0.649415 -0.201895 0.099359 -0.044243 0.097399 -0.106772 -0.237829 -0.794772 -0.130790 0.747961 0.486467 -0.460357 -0.142403 -0.112102 -0.226398 0.014970 0.037958 -0.223386 0.231449 -0.260843 0.199856 -0.175949 0.505287 -0.370101 -0.108477 -0.035986 0.000182 -0.251563 -0.314382 0.312035 -0.172679 0.055313 0.298477 0.139998 0.521731 -0.103886 -0.218207 -0.109452 0.263414 0.047553 -0.049436 0.064662 0.071682 -0.231469 0.033017 0.140973 -0.161142 -0.540132 0.525509 0.264550 -0.109350 0.746443 -0.190770 0.173972 0.234411 -0.025122 0.105376 0.079464 0.157559 -0.418252 -0.489580 -0.014327 0.164784
65283737 -0.281575 0.051745 0.067225 0.424812 -0.129109 0.862644 -0.304797 -0.016956 -0.274593 0.112961 0.286439 -0.151097 0.404898 -0.379948 -0.003814 0.253415 0.393787 -0.308561 0.363508 -0.150519 0.185903 0.535051 -0.211576 -0.631151 0.432721 -0.368569 0.595846 0.012647 -0.094523 -0.052183 -0.045584 -0.074737 0.211882 0.126852 0.222758 -0.044741 0.140353 0.168331 -0.044079 0.095997 -0.297567 0.053103 -0.052730 -0.244030 0.074999 0.071400 0.385972 0.223548 -0.157509 -0.118518 0.410340 0.577286 -0.307811 -0.187726 0.230772 -0.444131 -0.317668 0.244789 -0.191165 -0.371182 0.473570 -0.009217 -0.316727 0.424657 0.264613 0.303853 -0.563785 -0.055527 -0.025044 -0.258832 0.033019 -0.538988 -0.871279 -0.626113 -0.274706 0.238950 0.585878 -0.482084 0.117768 0.108427 0.323385 -0.153466 -0.231422 0.076494 -0.305272 0.165824 -0.403786 -0.078970 -0.345071 -0.570227 0.017370 0.428455 0.475088 0.220685 -0.081239 0.105176 -0.160174 0.343578 0.469193 -0.260299 0.045706 -0.589787 0.254514 -0.045027 0.006159 0.174277 0.002565 -0.237742 -0.040996 0.227802 -0.010384 0.086344 -0.583224 -0.248252 0.417108 0.298983 -0.415158 0.223660 0.385501 0.167103 -0.258693 0.008833 0.027346 -0.283776 -0.139050 -0.325284 -0.319423 0.214083
65317956 0.452869 0.129530 -0.549642 0.330645 0.112297 0.783476 0.145693 0.167934 -0.310843 -0.220092 0.150400 -0.537938 -0.017852 0.223482 -0.254302 0.322483 0.138488 -0.305248 0.214653 0.209823 -0.175584 -0.163135 -0.619983 0.043236 0.057968 0.013409 0.380109 0.101257 0.074829 -0.078291 -0.199460 0.121267 0.083473 0.143850 -0.407836 -0.180473 -0.411777 0.022082 -0.564243 -0.162544 -0.292374 0.160475 -0.075080 -0.278943 -0.198360 -0.301305 0.026965 0.096567 0.233263 0.169195 0.143486 -0.041318 -0.360995 -0.087403 -0.017789 0.120355 -0.080648 0.214038 0.058613 -0.821765 0.051383 -0.180195 -0.088100 -0.024565 -0.207008 -0.097256 0.195410 0.047027 -0.029681 -0.390900 0.185840 -0.613973 -0.032924 -0.201728 -0.009570 0.421859 0.206615 -0.107163 -0.020446 0.050537 -0.065373 0.210822 -0.292776 -0.259632 -0.360043 0.538956 -0.291056 0.138269 -0.513114 -0.467024 0.073278 -0.113446 0.099199 -0.430908 0.425089 0.193797 0.196908 0.311610 0.769325 0.686562 -0.268928 0.010312 -0.261109 -0.070086 0.215315 0.162902 0.037240 0.107351 -0.475103 -0.372500 0.041892 0.047109 -0.819979 0.387115 -0.036873 -0.456210 -0.221678 -0.143275 0.606680 0.114436 0.614196 -0.024716 0.021562 0.089665 0.261531 -0.416963 -0.207737 -0.186860
65281429 -0.350604 -0.071372 0.214294 0.743461 -0.038984 0.285397 -0.435033 0.146094 0.047043 -0.337155 0.007406 -0.069874 0.264388 -0.465549 -0.309359 0.567313 0.081242 -0.310507 -0.116056 0.274818 -0.409988 0.413090 -0.053965 -0.235394 0.030291 -0.070303 -0.253210 -0.193353 -0.244991 -0.539096 -0.078646 -0.133059 -0.757584 0.019947 -0.222231 -0.039144 -0.204077 0.087659 -0.520885 -0.303924 -0.622901 0.551130 -0.209752 -0.155955 -0.093845 0.144960 0.353789 -0.151303 -0.052985 -0.162145 -0.171551 -0.006433 0.153783 -0.279314 -0.119505 -0.011076 0.044723 0.045526 -0.161931 -0.518177 -0.242941 -0.590611 -0.347233 0.290922 0.764228 -0.000965 -0.546028 0.231103 0.023346 -0.741631 -0.073432 -0.592942 -0.636411 -0.185712 0.218720 0.524613 0.078092 0.262042 -0.119490 0.129459 -0.017992 -0.278508 -0.200364 0.401269 -0.324879 0.675745 -0.168142 0.499682 -0.171214 0.377169 0.254689 0.373008 0.199707 -0.008365 0.216897 0.713678 -0.129329 0.065959 0.819557 0.181205 0.032115 -0.242179 0.210125 0.139280 0.070778 0.184466 -0.391645 0.189521 0.041620 -0.630830 0.314596 0.345887 -0.320876 0.123633 -0.018883 0.398499 0.340486 -0.451748 0.492367 0.118152 0.453934 0.058226 -0.232452 0.561038 0.102778 -0.551169 0.383388 0.160828
65317058 -0.055687 -0.121074 0.504705 0.345918 -0.086719 0.380390 -0.235943 0.372048 -0.051885 -0.289378 0.046179 -0.172454 0.298007 -0.966542 -0.048396 0.318227 0.404006 -0.116140 0.035051 0.314560 -0.115182 0.076926 -0.058349 -0.461430 0.079214 0.098489 0.048375 0.301484 -0.167274 -0.098370 -0.310666 -0.758783 -0.472578 0.072645 0.267960 0.094460 0.186652 0.042933 -0.584866 -0.296213 -0.078183 0.215026 -0.619646 -0.464652 -0.039387 0.058079 -0.153714 0.021999 -0.111995 0.190336 0.513167 0.512114 0.006537 -0.239134 0.263765 0.282397 0.268751 -0.173424 -0.029257 -0.066772 -0.068397 -0.233154 -0.821574 0.246940 0.620589 0.355450 -0.326525 0.208916 -0.015461 -0.182560 -0.043301 -0.271563 -0.519836 -0.253979 0.584826 0.548505 -0.385258 -0.106795 -0.146684 0.171738 -0.078610 -0.023933 -0.508482 0.424132 -0.452132 0.018957 0.143226 0.725568 -0.325558 0.069508 -0.058357 0.083717 -0.029182 -0.198233 0.065980 -0.018490 -0.012902 0.379740 0.077037 0.438508 -0.031236 -0.217092 0.045125 0.081827 0.036574 -0.152942 -0.079613 -0.014034 -0.093689 -0.089033 0.175927 0.102614 -0.733114 0.381388 -0.009087 0.124098 0.541538 -0.284968 0.171188 0.119027 0.079713 -0.019912 -0.084172 0.163819 -0.264961 -0.614199 -0.142278 0.193508
65295287 0.013311 -0.081871 0.005311 0.140180 -0.080216 0.647704 -0.295883 0.182012 -0.107436 -0.139199 -0.121159 -0.230324 -0.022268 -0.248270 -0.622216 0.239454 0.754716 0.281263 0.427382 -0.032564 0.414236 0.117431 -0.195546 -0.066200 0.349417 -0.238238 0.364531 0.233941 -0.536675 -0.374572 0.088424 0.081307 0.094773 0.122368 0.225287 0.129573 0.116761 -0.303890 -0.550313 -0.508615 -0.114234 0.415740 -0.450014 0.016816 -0.133918 0.089052 -0.167418 0.101032 -0.303499 0.231871 0.042989 0.389716 -0.131401 -0.190075 0.018657 0.440864 0.360223 -0.018603 -0.016270 -0.142769 0.375376 -0.019088 -0.181529 -0.048979 0.272436 0.076120 -0.494617 -0.625868 -0.217651 -0.104269 0.550416 0.167157 -0.495160 -0.145627 -0.004489 -0.281833 -0.015111 -0.009031 0.087932 -0.115932 0.364389 0.552000 -0.428190 -0.334285 0.092937 0.407617 -0.372822 0.231871 -0.206839 -0.441527 -0.255238 0.264128 -0.186031 0.030568 0.225144 0.358738 -0.129134 0.193401 0.248320 -0.360505 -0.148708 -0.099648 0.397445 -0.060309 -0.174456 0.776906 -0.221643 0.642082 0.425565 -0.327151 0.102426 0.066030 -0.211041 -0.438361 -0.027124 -0.306019 0.120013 0.392712 0.125485 0.161645 0.631249 0.567535 -0.016482 0.039041 0.045246 0.469687 0.048153 -0.261800
65303533 -0.104904 0.095614 -0.030993 0.500259 0.211434 0.641567 -0.309808 0.258967 -0.441301 -0.524315 -0.255496 0.091214 -0.080696 -0.642777 -0.617585 -0.119590 0.455970 0.348067 -0.016138 -0.066491 0.157568 0.460068 -0.017415 0.168627 0.328258 0.151789 0.222578 0.270437 -0.595235 -0.443396 0.027273 0.137651 0.063600 0.203012 0.077648 0.074648 0.421703 -0.161452 -0.451037 -0.417514 -0.291079 0.480097 -0.601786 -0.248063 -0.130231 0.350776 0.048719 0.087195 0.019542 0.211926 0.018991 0.281381 -0.015168 -0.033361 -0.141711 0.290384 0.093683 0.243988 -0.105977 -0.381728 0.276358 -0.132957 -0.239079 0.129440 0.193568 0.180085 -0.195854 -0.501051 -0.307601 -0.227258 0.431820 0.290703 -0.532063 -0.524562 0.038780 -0.098231 0.202706 -0.157784 0.000172 -0.334298 0.198421 0.235170 0.018226 -0.375330 -0.062242 0.728020 0.013755 0.370857 0.257156 0.002892 -0.308882 0.226856 0.079257 -0.085396 0.097491 0.187048 0.143324 0.107111 0.225754 -0.483932 -0.307232 -0.074381 0.247807 0.257569 -0.168099 0.758450 -0.234156 0.237612 0.593112 -0.246079 -0.106203 0.219562 -0.171363 -0.414054 -0.170233 -0.293578 0.171795 0.324901 -0.036731 0.055858 0.378659 0.560842 -0.154458 0.331627 -0.002968 0.329696 -0.244582 -0.254527
65314180 0.340002 0.131185 -0.534459 0.390092 -0.083617 0.735972 0.225997 -0.013087 -0.223613 0.101226 0.052092 -0.209700 0.200361 0.214218 -0.251716 0.393835 0.029172 -0.287106 0.370994 0.287762 -0.017249 -0.054478 -0.613864 -0.220747 0.200085 0.112959 0.155007 0.509189 -0.066319 -0.262017 0.032897 0.121363 -0.112038 0.298659 -0.524225 -0.039723 -0.298576 0.382465 -0.410860 -0.103720 -0.003783 0.183706 -0.324246 -0.326600 -0.267587 -0.311446 -0.215639 0.460143 0.031243 -0.019811 0.142314 0.189539 -0.216232 -0.188722 -0.117403 0.124967 0.120929 0.044190 -0.405330 -0.909222 -0.095738 0.042524 -0.040376 -0.250280 0.102135 0.046539 -0.179391 -0.079253 -0.285819 -0.282132 0.006926 -0.348103 -0.190083 -0.775216 0.360692 0.618906 -0.176783 -0.114940 -0.107616 -0.026541 -0.014698 0.383393 -0.388676 -0.053456 -0.142521 0.649350 -0.141765 0.023996 -0.462590 -0.249989 -0.124772 -0.303271 0.371410 -0.370140 0.428563 0.111248 0.219208 0.289602 0.750445 0.487281 -0.075551 0.131025 -0.247014 -0.138104 0.328240 0.212865 0.269886 -0.060953 -0.242402 -0.458406 -0.066490 0.015319 -0.671088 -0.055920 0.138501 -0.204862 -0.016999 0.076804 0.755062 0.088622 0.719097 0.060286 -0.112763 0.217220 0.128184 -0.471246 -0.559352 0.203146
65336953 -0.277445 0.088174 0.021432 0.400549 -0.197958 0.460233 -0.276857 0.276051 -0.026368 -0.047642 -0.181146 -0.176487 -0.043671 -0.398740 -0.372191 0.500045 0.761200 0.242477 0.418699 0.207123 0.394123 0.150795 -0.194760 -0.170761 0.785720 0.095555 0.320570 0.164691 -0.508367 -0.370826 0.036080 -0.017021 0.058111 -0.189708 0.246384 -0.068557 -0.086792 -0.295831 -0.591737 -0.696941 0.036953 0.205928 -0.570217 0.120999 0.019947 0.231302 -0.203398 0.481459 -0.178364 -0.046063 -0.040239 0.478450 0.035072 -0.044124 0.035622 0.455910 0.327799 0.052819 -0.113962 -0.356380 0.240417 -0.064637 -0.216913 0.182107 0.200706 -0.123276 -0.372735 -0.688761 -0.108731 -0.047776 0.342842 -0.139133 -0.425388 -0.122028 0.029286 0.010082 0.095200 0.041791 0.078353 -0.119229 0.296727 0.128329 -0.205808 -0.033597 -0.069584 -0.014464 -0.206191 0.320283 -0.094827 -0.688113 0.086046 0.365988 -0.063864 0.000068 0.150940 0.220484 -0.189058 0.272422 0.190727 -0.184218 -0.138958 -0.203849 0.254860 0.170462 -0.222225 0.812040 -0.571229 0.637452 0.291883 -0.122333 0.054189 0.078418 0.072147 -0.503151 -0.136924 -0.125019 0.220457 0.257930 0.265629 0.308842 0.524670 0.432626 0.049740 0.389291 0.142651 0.582284 0.068588 -0.199584
65317568 -0.325588 0.301321 0.038119 0.345357 -0.241370 0.790030 -0.426293 0.046945 -0.290767 0.275037 0.199004 -0.148815 0.134946 -0.265595 -0.064497 0.256454 0.472874 -0.346333 0.134984 -0.325079 0.376062 0.276243 -0.311270 -0.548219 0.248001 -0.193949 0.385572 0.109056 -0.201023 0.337553 -0.122659 0.070418 0.055174 0.056881 0.268966 -0.252738 0.233777 -0.087496 0.370510 0.249835 0.016852 0.026284 0.255011 -0.231740 0.010928 0.246001 0.292372 0.141875 -0.139873 -0.010829 0.306100 0.389731 -0.446024 0.005392 0.483127 -0.387071 0.243021 0.405413 -0.093242 -0.173724 0.396227 0.227748 -0.353270 0.333104 0.197306 0.173535 -0.404408 0.123119 -0.331481 -0.378201 0.039105 -0.447103 -0.857235 -0.490521 -0.189642 0.110563 0.352227 -0.474054 0.072378 0.013320 0.316732 -0.144385 -0.031626 0.027772 -0.427061 0.288337 -0.480697 -0.056933 0.003118 -0.596237 0.028467 0.326024 0.434742 0.190002 -0.189354 0.112658 -0.020176 0.133088 0.401331 0.060604 -0.331651 -0.369660 0.095728 0.131530 -0.067608 0.253811 0.004330 -0.049632 -0.298698 0.303735 -0.064262 -0.085566 -0.594073 -0.263257 0.398241 0.154645 -0.111236 0.170370 0.526701 0.339509 -0.087643 0.174861 -0.075628 -0.278426 -0.436004 -0.467388 -0.304240 -0.019221
65303541 -0.146081 0.173446 -0.153269 0.540713 0.178708 0.376623 -0.220536 0.418500 -0.440146 -0.303725 -0.274466 -0.042410 -0.064937 -0.549348 -0.521648 0.073020 0.461458 0.350623 0.016253 0.263889 0.055435 0.406864 -0.023954 0.160231 0.681602 0.284107 0.272310 0.207643 -0.531020 -0.357487 0.013733 0.217251 0.113821 0.149265 0.106001 -0.033658 0.313509 -0.175225 -0.400435 -0.545888 -0.132316 0.364384 -0.769667 -0.187975 -0.108600 0.328677 -0.056500 0.314474 0.241289 0.188526 0.017313 0.405915 0.023525 -0.020751 -0.196836 0.290227 -0.083989 0.098638 -0.081905 -0.524986 0.243936 -0.062005 -0.216168 0.204557 0.079460 0.075510 -0.036126 -0.511127 -0.270239 -0.088893 0.334102 0.140359 -0.387323 -0.583150 0.034171 0.084618 0.294345 -0.244666 -0.061681 -0.411275 0.079928 0.035871 0.122529 -0.209139 -0.225694 0.368283 0.002131 0.361647 0.011071 -0.154910 -0.064673 0.184550 0.216030 -0.273830 0.071304 -0.027468 0.137785 0.208263 0.158537 -0.230716 -0.236286 -0.030717 0.138819 0.239387 -0.219460 0.718573 -0.354765 0.233229 0.488805 -0.119833 -0.214100 0.128987 -0.052498 -0.391684 -0.177690 -0.264061 0.220636 0.354123 0.089758 0.142056 0.279544 0.304900 -0.033031 0.431946 0.035974 0.574609 -0.362192 -0.253860
65317045 -0.309111 -0.087127 0.338577 0.602511 -0.015540 0.403715 -0.389779 0.171881 0.102760 -0.295850 -0.215032 -0.113891 0.173193 -0.646037 -0.215005 0.373874 0.149786 -0.244811 -0.164968 0.002189 -0.217953 0.528579 -0.164550 -0.082652 -0.040924 0.135701 -0.114556 0.031419 -0.150471 -0.508490 -0.247151 -0.423944 -0.681491 0.077132 -0.187552 0.017445 -0.040221 -0.202578 -0.566175 -0.266182 -0.461642 0.438409 -0.225082 -0.261154 0.054437 0.232661 0.093446 -0.080246 -0.237890 -0.013755 0.072135 0.061133 0.094363 -0.173880 0.026684 -0.002188 0.382435 -0.024218 -0.169534 -0.335642 -0.242767 -0.549069 -0.543148 0.254503 0.767927 0.044884 -0.336486 0.291273 -0.064393 -0.639183 -0.093796 -0.243366 -0.414402 -0.277016 0.299866 0.453183 -0.017601 0.152505 -0.196610 0.178069 -0.100173 -0.266236 -0.260723 0.360243 -0.455736 0.680924 0.222983 0.666006 0.132744 0.361412 0.110364 0.133234 0.106118 -0.001051 0.041283 0.589771 -0.061910 0.075096 0.489981 0.071127 -0.103653 -0.112454 0.074152 0.257340 0.156575 0.069251 -0.332260 0.170690 0.076067 -0.434190 0.374448 0.308980 -0.304915 0.035273 -0.263682 0.246889 0.448286 -0.419056 0.260597 0.003286 0.487702 0.084558 -0.376100 0.711281 -0.006038 -0.685551 0.248963 0.225532
65317957 0.469417 0.110308 -0.631013 0.415206 0.093499 0.779551 0.170609 0.081751 -0.287474 -0.169730 0.154307 -0.456386 0.137029 0.288109 -0.330067 0.363155 0.014124 -0.358833 0.298794 0.322588 -0.086371 -0.117734 -0.641806 -0.075243 -0.003804 0.064740 0.324918 0.229196 0.006015 -0.184698 -0.208803 0.152327 0.019919 0.172742 -0.532224 -0.192851 -0.440557 0.132794 -0.611078 -0.149980 -0.224801 0.147722 -0.244898 -0.275695 -0.157171 -0.265258 -0.076817 0.270445 0.123855 -0.018902 0.122764 -0.010694 -0.333078 -0.074221 -0.018318 0.102543 -0.001943 0.234246 -0.107946 -0.882551 0.089865 -0.259463 -0.098872 -0.191410 -0.158026 -0.063627 0.138934 0.037635 -0.032322 -0.294984 0.189700 -0.586616 -0.109326 -0.359852 0.176697 0.468082 0.132854 -0.135687 -0.073859 0.044446 -0.077825 0.250045 -0.389260 -0.229149 -0.190907 0.568078 -0.229494 0.151252 -0.570782 -0.389301 -0.089540 -0.135519 0.144389 -0.453658 0.489069 0.244814 0.228023 0.382661 0.765654 0.658208 -0.128269 0.000625 -0.254628 -0.127693 0.196457 0.289642 0.077091 0.081734 -0.396948 -0.415316 0.065292 0.034659 -0.851370 0.359703 0.005709 -0.427659 -0.047772 -0.129643 0.739434 0.108840 0.657917 0.043705 -0.034592 0.183959 0.305091 -0.438491 -0.306055 0.026360
65317532 -0.341506 0.027432 0.330601 0.669105 0.049991 0.635461 -0.351115 0.224976 0.064136 -0.101396 -0.152505 0.069018 0.144370 -0.679237 -0.111017 0.221913 0.071668 -0.175934 -0.074781 -0.352653 -0.072995 0.535518 -0.191507 -0.036963 -0.132303 0.116343 -0.166648 0.175743 -0.191316 -0.577072 -0.269598 -0.327617 -0.564203 0.054514 -0.215139 0.009439 -0.007238 -0.351144 -0.528720 -0.280006 -0.399149 0.306153 0.010815 -0.264608 0.021770 0.189949 0.157264 -0.184584 -0.423495 -0.089334 -0.192203 0.088417 -0.019134 -0.016284 0.102287 -0.037401 0.271146 0.271851 -0.019258 -0.289015 -0.144499 -0.567974 -0.390042 0.252780 0.572567 0.075929 -0.457416 0.311746 -0.043385 -0.756545 -0.043814 -0.342754 -0.548576 -0.350591 0.067552 0.355172 0.143684 0.096552 -0.094178 0.308292 -0.043848 -0.297769 -0.017249 0.148447 -0.320975 0.986309 0.112303 0.549777 0.328009 0.227358 0.061070 0.195559 0.156564 0.010316 -0.060229 0.550176 -0.167825 -0.087850 0.656627 -0.185901 -0.133338 -0.101408 0.098823 0.259089 0.146847 0.149973 -0.350960 0.148983 0.108408 -0.268613 0.235218 0.323610 -0.188215 -0.107412 -0.201066 0.132482 0.226494 -0.308353 0.152205 -0.024347 0.382438 0.100352 -0.543497 0.513292 -0.059683 -0.737238 0.165269 0.240833
65317042 -0.355784 0.022923 0.307233 0.633137 0.009794 0.458277 -0.381107 0.085295 0.085165 -0.282932 -0.122038 0.061195 0.162976 -0.479625 -0.331391 0.300264 0.135706 -0.185055 -0.025526 -0.108192 -0.177896 0.559610 -0.152597 -0.103304 -0.069140 0.040321 -0.136211 0.077700 -0.283988 -0.581618 -0.132202 -0.267987 -0.629829 0.035163 -0.268244 -0.000622 -0.113660 -0.147937 -0.640054 -0.285585 -0.558383 0.380607 -0.102645 -0.207083 -0.030558 0.180487 0.282650 -0.164261 -0.344546 -0.142651 -0.161815 0.019746 0.073520 -0.147162 -0.022789 -0.001989 0.254575 0.114458 -0.132870 -0.416186 -0.196702 -0.493338 -0.294651 0.249056 0.665510 0.015640 -0.503894 0.222357 -0.089496 -0.689346 0.002542 -0.350565 -0.484938 -0.200695 0.162105 0.340122 0.119431 0.203162 -0.122322 0.214579 -0.031227 -0.191902 -0.134035 0.178718 -0.290944 0.871497 0.065939 0.530785 0.189825 0.422269 0.040833 0.264552 0.088962 0.013165 0.093702 0.622529 -0.081692 -0.001597 0.717133 -0.068063 -0.103160 -0.143062 0.235540 0.272971 0.068161 0.287144 -0.355710 0.186507 0.057482 -0.482407 0.268834 0.385690 -0.207891 -0.120226 -0.147835 0.163165 0.318063 -0.357217 0.189271 -0.045098 0.542753 0.260673 -0.367184 0.557038 0.023648 -0.685055 0.275105 0.268513
1723738893 -0.156463 0.085812 0.101655 0.526299 0.195256 0.680468 -0.223500 -0.023875 -0.331489 -0.629063 -0.298016 0.221286 -0.021846 -0.607524 -0.512070 -0.155403 0.134450 0.129589 -0.010873 -0.194243 0.121939 0.574730 -0.113760 0.024557 0.037547 0.115294 0.048072 0.319978 -0.438528 -0.547441 -0.063766 -0.130137 -0.074573 0.075339 -0.238065 -0.072089 0.251463 -0.076118 -0.504691 -0.205563 -0.434905 0.297970 -0.307617 -0.230845 -0.127413 0.331752 0.286563 -0.007627 -0.140364 -0.040908 -0.223157 0.097289 0.041218 -0.064780 -0.174808 0.078601 0.235609 0.394384 -0.162027 -0.536500 0.087085 -0.259965 -0.090102 0.097251 0.382857 0.114382 -0.263192 -0.244184 -0.246478 -0.384247 0.283809 0.183696 -0.575479 -0.347683 0.136467 0.085762 0.338082 0.029215 0.020810 -0.020674 0.084265 0.083331 0.134424 -0.290254 -0.167441 1.005467 0.153432 0.309930 0.694035 0.346503 -0.169494 0.124019 0.076151 0.012953 0.237417 0.402297 0.196761 -0.133543 0.341714 -0.438602 -0.459897 -0.254119 0.173762 0.420413 -0.180028 0.616767 -0.304660 0.050978 0.293115 -0.313150 -0.167962 0.358220 -0.181939 -0.298481 -0.203245 -0.335167 0.234526 0.081293 -0.169523 -0.040563 0.316743 0.726690 -0.264474 0.469833 -0.057358 -0.266743 -0.126722 0.032045
65300030 -0.349547 0.046406 0.264773 0.589984 0.110490 0.403142 -0.079759 0.691831 0.023516 -0.167577 0.037575 -0.554824 0.100575 -1.015702 0.308140 0.473722 0.287063 -0.014665 0.415323 0.052008 0.133460 -0.128305 -0.058989 -0.632080 -0.195929 0.007257 -0.015635 0.273591 -0.432319 0.250691 -0.199938 -0.330587 0.128993 0.041650 -0.064916 -0.102742 -0.154072 0.343959 -0.584094 -0.075117 0.453732 -0.144376 -0.928416 -0.045235 -0.186441 0.311505 -0.176723 0.011578 -0.287773 -0.055272 0.379819 0.583106 -0.145593 -0.955052 0.216074 0.076097 -0.136763 0.097320 0.431448 -0.476201 0.191078 -0.258765 -0.147870 -0.110237 0.406729 0.583600 -0.222048 -0.163592 0.054468 0.072567 0.099782 -0.185925 -0.973828 0.344674 0.858395 0.316056 -0.164325 0.042473 -0.216254 -0.503827 -0.140124 -0.270259 -0.174770 -0.156339 -0.135776 0.607978 -0.381482 0.320852 -0.346846 -0.239462 0.019654 -0.299683 -0.191099 -0.432303 0.280626 -0.136086 0.136371 0.136759 0.378348 0.379273 -0.279564 -0.256147 -0.063183 0.580541 0.237308 0.004829 0.058823 0.218111 -0.359236 -0.110881 0.090942 -0.244714 -0.189183 0.324548 0.330104 0.018139 0.930029 -0.157846 0.278359 0.474634 0.260137 0.055273 0.277775 0.242699 -0.452010 -0.410159 0.350511 0.199574
65307363 -0.147330 0.001198 -0.092954 0.345218 -0.092796 0.440837 -0.206463 0.285894 -0.088214 -0.082816 -0.219944 -0.180208 -0.067913 -0.335428 -0.475375 0.356807 0.764897 0.361426 0.414823 0.201520 0.362339 0.167613 -0.216095 -0.048164 0.791286 -0.003409 0.320272 0.252001 -0.555117 -0.436566 0.130861 0.061980 0.110918 -0.035824 0.221888 -0.012891 0.063645 -0.269158 -0.536307 -0.655458 -0.017430 0.327015 -0.631500 0.001565 -0.116941 0.164780 -0.231965 0.385996 -0.106979 0.134868 -0.051656 0.549397 0.007439 -0.092212 -0.122928 0.473579 0.277667 -0.048185 -0.145950 -0.406454 0.259834 0.010172 -0.132618 0.127246 0.254696 -0.034317 -0.372788 -0.704030 -0.208908 -0.052344 0.447281 0.058744 -0.388409 -0.236640 0.037020 -0.054749 0.144368 -0.024367 0.025672 -0.124256 0.239178 0.256523 -0.213535 -0.162131 -0.096842 0.207325 -0.225050 0.224822 -0.093266 -0.553113 0.015882 0.227439 -0.024468 -0.102977 0.198015 0.212675 -0.077750 0.248953 0.177494 -0.143697 -0.210459 -0.095229 0.300975 0.086152 -0.238951 0.810059 -0.454634 0.641742 0.410149 -0.250205 -0.102289 0.031470 0.035785 -0.540232 -0.131765 -0.262671 0.255889 0.382775 0.150417 0.245966 0.623882 0.494065 0.029062 0.340353 0.079578 0.647013 -0.113527 -0.235099
65336961 -0.330092 0.093705 -0.103340 0.574230 -0.111445 0.352449 -0.251292 0.391676 -0.069354 -0.102489 -0.080553 -0.037448 -0.040259 -0.529792 -0.211001 0.499638 0.763331 0.157711 0.322933 0.419611 0.430443 0.229341 -0.128080 -0.121961 0.875596 0.151911 0.188113 0.212056 -0.556457 -0.257141 0.124200 0.130411 -0.015723 -0.175391 0.179091 -0.061118 -0.089920 -0.280095 -0.396944 -0.599615 -0.054397 0.214069 -0.656824 0.138362 0.001736 0.267707 -0.225293 0.560723 -0.026915 -0.002439 -0.050913 0.541623 0.048845 0.039315 -0.076013 0.473476 0.171457 -0.052154 -0.027363 -0.417582 0.200964 -0.163421 -0.247046 0.196121 0.219075 -0.064198 -0.193354 -0.595689 -0.155296 -0.052330 0.318754 -0.147879 -0.352001 -0.327396 0.120580 0.046993 0.071182 -0.031832 -0.133135 -0.263316 0.290811 -0.043852 0.032597 -0.026161 -0.188306 -0.058447 0.025737 0.312362 -0.184090 -0.573972 0.111842 0.356738 0.124931 -0.162720 0.110374 0.073587 -0.049716 0.278496 0.143166 -0.013501 -0.093886 -0.081165 0.352953 0.153998 -0.208306 0.720215 -0.502936 0.569274 0.465732 -0.108443 -0.073246 -0.135367 0.154279 -0.527582 -0.124863 0.013689 0.268741 0.147295 0.390064 0.443011 0.389209 0.274845 0.013075 0.412805 0.114269 0.505578 -0.162454 -0.213166
65307354 -0.039090 -0.035798 0.073571 -0.014336 -0.577877 0.429445 -0.415639 0.008770 0.103675 0.060323 -0.028831 -0.471129 -0.116010 -0.094599 -0.472440 0.367418 0.450671 -0.026186 0.768666 0.121893 0.400194 0.314038 -0.360497 -0.559174 0.148405 -0.552472 0.195513 0.296692 -0.386739 -0.176750 -0.008050 -0.279957 0.137393 -0.225946 0.208495 -0.104448 -0.254157 -0.073780 -0.722402 -0.202281 0.003956 -0.021539 0.065000 0.024100 0.005011 -0.081765 -0.067733 0.202471 -0.757569 0.200300 0.179844 0.155846 -0.142238 -0.345010 0.017177 0.338981 0.413010 -0.285491 -0.062975 -0.451334 0.231629 0.222944 -0.058649 0.228774 0.176756 0.049542 -0.372374 -0.356305 -0.333740 -0.091951 0.310628 -0.227855 -0.354390 -0.169330 -0.137489 -0.214554 -0.032756 -0.041197 -0.076710 0.301638 0.273725 0.402525 -0.678201 -0.024350 -0.100608 0.118074 -0.304417 0.103161 -0.488476 -0.466196 -0.174232 0.372606 -0.412209 0.220242 0.474088 0.462494 -0.019231 0.340857 0.264231 -0.089135 -0.018907 -0.259115 0.389587 0.120382 -0.371639 0.407297 -0.318941 0.506385 -0.059532 -0.162811 0.296894 0.301197 -0.124381 -0.121300 0.131241 -0.589566 0.326999 0.026789 0.040107 -0.179126 0.538044 0.805287 0.104662 0.105460 0.037106 -0.109618 0.348286 0.011169
65339089 -0.009387 0.446135 -0.202804 0.266592 -0.172971 0.637572 -0.324048 0.184465 -0.356122 0.025193 0.252432 -0.153099 -0.010124 -0.029472 -0.172728 0.105032 0.384620 -0.436502 0.091681 -0.273693 0.516983 -0.050383 -0.515259 -0.482015 -0.035636 -0.073953 0.274499 0.278023 -0.285668 0.446915 -0.322058 0.147757 0.120957 -0.018631 0.122719 -0.405658 0.050298 -0.143787 0.404165 0.091491 0.107405 0.015526 0.376025 -0.154667 -0.069799 0.200788 0.177931 0.104108 0.065676 0.105345 0.017992 0.059225 -0.431012 0.239692 0.583188 -0.230273 0.403438 0.497226 0.171840 -0.267178 0.349385 -0.000160 -0.285838 -0.059755 -0.099657 0.037462 -0.099485 0.092824 -0.204078 -0.119782 0.250434 -0.498251 -0.657698 -0.316315 -0.183419 -0.013106 0.301571 -0.530389 0.082262 0.084887 0.205623 -0.112018 -0.003427 -0.041843 -0.349757 0.293664 -0.526579 0.084781 0.106313 -0.461461 0.020728 0.244659 0.295076 -0.163555 -0.122084 0.101891 0.172439 0.045827 0.440509 0.470083 -0.464564 -0.283149 0.039590 0.176481 -0.109418 0.314864 -0.047698 0.170835 -0.395045 0.149146 -0.202204 -0.209164 -0.661185 -0.260551 0.111562 -0.191125 0.130629 0.147253 0.535158 0.501730 0.019795 0.367449 -0.066670 -0.277643 -0.356778 -0.464296 -0.238538 -0.066168
65303719 -0.155797 -0.137551 0.111911 0.443512 -0.154583 0.877065 -0.277763 0.200936 -0.148223 0.134542 0.176366 -0.211574 0.426451 -0.574415 0.205518 0.181996 0.289893 -0.075651 0.263171 0.023356 0.170659 0.530187 -0.149750 -0.496197 0.197474 -0.086979 0.468465 0.135319 -0.159658 -0.162963 -0.440172 -0.451791 -0.028514 0.266214 0.348831 0.280950 0.231340 0.169380 -0.535684 -0.146569 -0.225142 0.151535 -0.359386 -0.426423 0.146158 -0.107847 0.198156 0.110053 -0.265613 -0.111174 0.341155 0.633434 -0.261122 -0.036591 0.355366 -0.258114 -0.314880 0.124828 -0.141549 -0.016098 0.227123 -0.220228 -0.639812 0.440543 0.257145 0.302912 -0.571985 0.024517 0.283687 -0.528550 0.102265 -0.485097 -0.786324 -0.730663 -0.287878 0.309710 0.232523 -0.403347 -0.015092 0.438877 0.106233 -0.268810 -0.321472 0.251622 -0.249964 0.167381 -0.263892 0.347796 -0.398854 -0.364086 -0.212903 0.396226 0.326853 0.052373 -0.055351 0.018016 -0.266122 0.487800 0.539179 -0.169633 0.172402 -0.562325 -0.041547 -0.031719 0.192153 -0.118254 -0.073418 -0.279516 -0.075586 0.346766 0.357289 0.173494 -0.707222 0.094277 0.246004 0.087298 -0.177704 0.175218 0.350787 0.011907 -0.150491 -0.289747 -0.138858 -0.202033 -0.026498 -0.354906 -0.349138 0.238627
65327150 0.462456 0.133308 -0.699637 0.465814 0.147176 0.644533 0.136212 0.079924 -0.305039 -0.239886 0.138693 -0.389431 0.191649 0.239276 -0.430448 0.261504 -0.005982 -0.453154 0.217431 0.300837 0.037345 -0.019299 -0.648424 -0.112560 -0.120970 0.095839 0.325926 0.212743 -0.003286 -0.105904 -0.351629 0.185341 0.108643 0.092017 -0.543376 -0.304047 -0.375741 -0.056332 -0.549064 -0.184635 -0.214127 0.063929 -0.180604 -0.122266 -0.051961 -0.135656 0.018462 0.243837 0.177129 -0.070948 0.016944 -0.102041 -0.335431 0.037376 0.107923 0.057951 0.031149 0.371086 0.009543 -0.737844 0.248973 -0.441940 -0.176755 -0.308975 -0.288222 -0.079586 0.270953 0.096970 0.105520 -0.172556 0.253774 -0.569370 -0.142064 -0.278657 0.172181 0.323027 0.268024 -0.270905 -0.094702 0.065915 -0.023746 0.138299 -0.329811 -0.245021 -0.150680 0.428593 -0.217722 0.179777 -0.500446 -0.386208 -0.113181 0.041773 0.113238 -0.510850 0.429859 0.255091 0.328650 0.327819 0.599068 0.606913 -0.137890 -0.084086 -0.182259 -0.073656 0.056659 0.411671 0.020129 0.154494 -0.299253 -0.355644 0.032392 0.016115 -0.898249 0.355681 -0.039564 -0.417140 0.099276 -0.148408 0.774619 0.256129 0.525442 0.102419 -0.071526 0.168167 0.300066 -0.416098 -0.281915 0.094335
65365830 0.072125 0.141453 -0.217406 0.326795 0.208975 0.585204 -0.251026 0.381082 -0.575030 -0.634312 0.245356 -0.579210 -0.349083 -0.228369 -0.223884 0.044725 0.591636 -0.281753 -0.009446 -0.028426 -0.053236 0.052767 -0.561668 0.221713 -0.006417 -0.108642 0.534571 0.353972 -0.073354 0.059490 -0.224374 -0.060720 0.222026 0.308383 0.041920 -0.254449 0.159937 -0.185167 -0.382658 0.105252 -0.359649 0.178335 -0.068974 -0.255138 0.163892 0.168958 0.159718 -0.232999 0.125931 0.394529 -0.125006 0.074985 -0.471386 -0.176912 -0.060707 0.132468 -0.179734 0.410380 0.380721 -0.636391 0.028423 -0.142420 0.008949 0.442899 -0.098527 -0.101400 0.246592 0.224222 -0.342635 -0.501098 0.396919 -0.763574 -0.212323 -0.162284 -0.490471 0.073035 0.417143 -0.257012 0.024175 0.211153 0.072076 0.025530 0.132604 -0.140983 -0.783049 0.614866 -0.453450 0.081773 -0.164668 -0.374856 0.215484 0.019124 0.009030 -0.472232 0.317677 0.335846 0.065985 0.115927 0.648930 0.284082 -0.427447 -0.286161 -0.190656 0.255306 0.081093 0.134145 -0.119129 0.069445 -0.467250 0.094430 0.006629 -0.126690 -0.678832 0.076717 -0.237235 -0.813668 0.151721 -0.030286 0.097975 -0.136260 0.116883 0.032046 0.013320 0.009479 -0.108115 -0.171663 0.137782 -0.357196
2304626360 -0.009610 0.177476 -0.115882 0.424670 -0.159353 0.676496 -0.330351 0.178951 -0.367759 -0.214763 0.191141 -0.048020 0.723041 -0.293331 -0.012473 0.233477 0.119247 -0.259658 0.588214 -0.182216 0.401165 0.511754 -0.554669 -0.612110 0.136583 0.203170 0.735694 0.447043 -0.186220 -0.175115 -0.636448 -0.216509 0.348812 0.304712 0.048013 0.252292 0.031700 0.210584 -0.538807 -0.156360 -0.561644 0.061977 -0.416376 -0.293628 0.087028 -0.352845 0.341520 0.032345 -0.249937 -0.245287 0.183178 0.848662 -0.461064 -0.106139 -0.198295 -0.186718 -0.378548 0.144543 -0.287008 -0.089355 0.093084 -0.531662 -0.453622 0.060984 0.370575 0.278375 -0.928396 -0.667356 0.388179 -0.397578 0.429076 -0.364982 -1.006269 -0.717842 -0.341869 0.084387 0.409485 -0.547648 -0.127472 0.498141 -0.050101 -0.270707 -0.137765 -0.205197 -0.401351 0.311483 -0.409945 0.422688 -0.224742 -0.188229 -0.308817 0.336100 0.555495 0.255958 -0.211813 0.029770 -0.348557 0.426710 0.749323 0.208431 0.470885 -0.741999 0.016357 -0.274501 0.530963 -0.125490 -0.232001 -0.114400 -0.031654 0.262937 0.421051 0.094811 -0.743810 0.185997 -0.027891 0.199286 -0.260074 0.333780 0.445582 -0.156963 -0.048903 0.055403 0.247102 -0.107260 0.256135 -0.152219 0.139076 0.346039
65360270 0.378501 0.107788 -0.434687 0.330950 0.179871 0.647335 0.024182 0.266631 -0.391556 -0.410104 0.265250 -0.585496 -0.112409 0.129148 -0.200179 0.198859 0.320446 -0.401794 0.121228 0.118948 -0.112834 -0.105067 -0.611296 0.069664 -0.070767 -0.077917 0.432745 0.157433 0.031639 0.047038 -0.304092 0.057030 0.152672 0.190866 -0.259841 -0.214477 -0.251370 -0.097208 -0.469980 -0.081480 -0.345952 0.177522 -0.008882 -0.246824 -0.053177 -0.173207 0.093400 -0.133114 0.241370 0.255311 0.019971 -0.057537 -0.411611 -0.062672 0.039024 0.085930 -0.166843 0.315099 0.262495 -0.732692 0.118598 -0.276019 -0.053006 0.069256 -0.254085 -0.109807 0.269428 0.199652 -0.023136 -0.368236 0.280727 -0.763726 -0.081036 -0.105914 -0.189659 0.238347 0.395132 -0.219701 -0.006146 0.202181 -0.074715 0.081815 -0.175950 -0.243787 -0.533635 0.491529 -0.423282 0.109677 -0.411197 -0.345843 0.140160 0.028023 0.067450 -0.506345 0.332549 0.237155 0.185117 0.221215 0.752878 0.632603 -0.323314 -0.114720 -0.226421 0.026484 0.173193 0.051211 0.022974 0.155985 -0.492389 -0.204912 0.043963 -0.080426 -0.796167 0.289997 -0.121353 -0.578655 -0.007643 -0.134016 0.469518 0.105014 0.347581 -0.065868 0.022078 -0.032741 0.144734 -0.377616 0.009644 -0.198565
